{"geometry": {"d_model": 8, "heads": 2, "head_dim": 4, "ffn": 16, "mel_bins": 4}, "conv_block": {"T_in": 9, "conv1_weight": [-0.02514922, -0.01028606, -0.112501, 0.06901299, -0.1716316, -0.05290429, 0.1162764, 0.2815852, 0.07067732, -0.1017804, 0.0287653, -0.03362171, 0.1224558, 0.03435037, 0.1175174, 0.2909572, -0.1245758, -0.01060259, 0.06899557, -0.001959586, -0.02873254, -0.2654897, -0.2587824, -0.269958, -0.2935461, -0.2794048, -0.2272686, -0.270581, -0.2814201, 0.1315107, 0.1840049, 0.2027173, 0.161616, 0.1016546, 0.1321637, -0.1659055, 0.2701053, -0.02068899, 0.2588407, 0.09197177, 0.2348149, 0.2393092, -0.06268069, -0.08725441, 0.04514054, -0.01275001, 0.04692385, 0.1521892, -0.2344243, -0.01376635, -0.2354503, 0.289721, -0.2109913, 0.05737814, -0.08196588, 0.1705179, 0.001007724, -0.03017246, 0.2195828, 0.2740135, -0.2177162, -0.2893582, 0.02500277, 0.09449656, 0.06846872, 0.2771145, 0.1346635, -0.1380109, -0.2054438, 0.232746, 0.2875288, -0.1423603, -0.1920019, 0.105005, -0.2145489, -0.07259613, -0.2967254, 0.08207271, -0.1022938, -0.1678426, -0.1907673, -0.1055619, 0.1424833, 0.01698647, 0.2583421, -0.107225, -0.08779432, 0.2936281, -0.2861547, -0.1180907, -0.1861144, 0.2886401, 0.1597176, -0.1005184, -0.1273578, 0.09200507], "conv1_bias": [-0.07019166, -0.002689373, 0.0971323, -0.06631972, 0.01678869, 0.03871983, 0.01661698, -0.07431245], "conv2_weight": [-0.02058753, -0.1603399, -0.0283674, 0.05226735, -0.05481316, -0.2236953, 0.0823701, -0.1547629, 0.1387143, 0.1334627, -0.1804588, 0.1168963, 0.04980197, 0.07909717, 0.03353165, -0.2242507, 0.2874173, 0.2065594, -0.2246479, -0.03262675, 0.09603424, -0.2667713, -0.2056237, 0.1882031, 0.1329808, -0.13696, -0.119821, 0.065965, 0.04701913, 0.06500602, -0.03968228, 0.2287869, -0.1070195, -0.1437335, -0.1460289, -0.1876705, 0.08540562, -0.1928665, -0.2139066, 0.1494215, 0.1364852, -0.2015211, -0.103615, -0.225637, 0.06828264, -0.0279174, 0.1595363, -0.1920141, -0.09973183, 0.2715493, 0.2351267, 0.2915655, 0.0808946, 0.2286871, 0.2634507, -0.2296023, -0.2194693, 0.2642849, 0.1081501, 0.03335467, 0.2227937, -0.2530712, 0.2146707, 0.152401, 0.1018608, 0.04904637, -0.07027914, 0.1297558, 0.235812, 0.03579208, -0.1318427, -0.1514401, -0.01573981, -0.2216564, -0.1785789, 0.08320939, -0.2400491, 0.2768726, 0.02097166, 0.1284373, 0.03701727, -0.244094, 0.1532205, -0.1525771, -0.02614188, 0.153239, -0.04511511, 0.2304037, -0.1031586, 0.18971, 0.03445562, 0.1815739, 0.03966719, -0.1400864, 0.103875, 0.09291619, -0.1979564, -0.2326714, -0.2981542, 0.2965614, 0.04428195, 0.03545562, 0.01517905, -0.1187332, 0.2203182, 0.1923264, -0.213363, 0.126988, 0.2061212, -0.02454565, 0.02294726, 0.05626799, -0.2489294, -0.1929708, 0.2705965, -0.2843266, 0.05437896, -0.2900217, -0.09359995, -0.03681146, 0.02133386, -0.1444977, 0.1201578, 0.06378154, -0.250776, 0.02581784, 0.2652037, 0.2512185, -0.1382453, 0.1731889, -0.2155497, 0.2710301, 0.1070134, 0.1059302, -0.2227759, -0.1031398, -0.2674643, 0.1454462, -0.2525467, -0.1144264, -0.02457944, 0.1223869, 0.07871737, 0.09031431, 0.2351862, 0.007160426, -0.03446038, -0.1147177, -0.07432538, -0.2448031, 0.1877121, 0.2725315, 0.1849985, 0.1450254, -0.08458304, -0.246877, 0.2848042, -0.09016464, -0.1164579, -0.2248019, -0.1975875, 0.06110723, 0.1746487, -0.2635728, -0.2644475, -0.04040587, -0.2516851, 0.2351174, 0.005492342, -0.2176463, 0.07719548, 0.2193765, 0.04344496, -0.2164095, 0.04916854, -0.2253444, 0.1715617, -0.02899862, 0.06774735, -0.04009001, -0.2406837, 0.08315749, 0.2552019, -0.05991601, -0.1090261, -0.2442001, -0.03553008, 0.2911782, -0.08070957, -0.08872604, 0.2050312, -0.2444688], "conv2_bias": [-0.0816366, -0.004123879, 0.06211026, -0.09697857, -0.0969394, 0.02071345, -0.05364089, 0.07265808], "input": [0.1229671, -0.6452072, 0.6294268, -0.3409158, -0.5362668, 0.5663102, 0.7087871, -0.7976813, -0.6245333, 0.8620327, -0.8201209, -0.3687551, 0.8846397, -0.4927838, 0.4776049, 0.08074439, -0.1288497, -0.1140411, 0.2513117, -0.9241997, 0.4259968, -0.3541569, 0.9262359, -0.5431244, -0.1021502, -0.5774975, 0.3677493, 0.495587, -0.07461464, 0.5483977, -0.2278749, -0.8546178, 0.7471931, -0.2980621, -0.3442825, -0.3491274], "conv1_out": [-0.08122414, -0.1896363, -0.04370474, -0.1917601, 0.1552849, -0.1964798, -0.1818458, -0.09216021, 0.02837605, -0.2550257, 0.1676676, -0.417217, -0.06505575, 0.3867139, 0.01255784, 0.07855716, 0.2700592, -0.003919974, -0.1615807, -0.07541113, 0.5919301, 0.2392155, -0.04479713, 0.04993388, -0.3750525, 0.1589893, 0.4598908, -0.2814616, 0.09938191, -0.2953967, -0.07391647, 0.07260205, 0.03204525, -0.1614626, -0.06224042, -0.3153684, 0.06837047, 0.1914434, 0.3388669, -0.716704, 0.5688064, -0.3315364, 0.02021657, -0.1993056, 0.2428817, 0.1270663, 0.2271961, 0.1932033, -0.02417671, -0.0045943, 0.2968752, -0.09783931, -0.06145737, 0.06408192, 0.0483328, -0.06476484, 0.6940396, -0.5668504, -0.07518526, 0.1351735, 0.1399248, -0.03252495, 0.1313357, -0.3257322, 0.2673703, -0.3632204, -0.2696, 0.6367732, -1.00885, 0.1089105, 0.2759509, 0.07407661], "gelu1_out": [-0.03798299, -0.08055696, -0.02109059, -0.0812996, 0.08722377, -0.08293755, -0.07780308, -0.04269647, 0.01450921, -0.1018449, 0.09499672, -0.1411278, -0.03084064, 0.2515635, 0.006341833, 0.04173803, 0.1637754, -0.001953857, -0.0704198, -0.035439, 0.4279959, 0.1422209, -0.02159823, 0.02596125, -0.1326976, 0.08953661, 0.3114393, -0.1095387, 0.05362474, -0.1133867, -0.03478054, 0.03840203, 0.01643223, -0.07037583, -0.02957575, -0.1186545, 0.03604864, 0.1102543, 0.2143824, -0.1697, 0.4068424, -0.1227081, 0.01027133, -0.08391005, 0.1447457, 0.06995711, 0.1340149, 0.1114011, -0.01185519, -0.00228873, 0.1830886, -0.04510685, -0.02922282, 0.0336781, 0.02509799, -0.03071023, 0.5248128, -0.1617836, -0.03533961, 0.07485406, 0.07774789, -0.01584052, 0.07252949, -0.1212745, 0.1618681, -0.1301129, -0.1061507, 0.4698519, -0.1579085, 0.05917799, 0.1679733, 0.03922544], "conv2_out_shape": [1, 8, 5], "conv2_out": [0.04905932, -0.1264581, -0.09330189, -0.08577858, -0.1259569, -0.1004531, 0.005713669, 0.008605957, -0.02606655, 0.04019249, 0.075964, -0.04734008, -0.05811598, 0.03142009, 0.004350197, -0.03420678, 0.08758665, -0.003846809, 0.05138881, -0.04717437, -0.07953414, -0.2224665, -0.1967943, 0.04120526, -0.1675432, 0.05286182, 0.1343218, 0.08390746, -0.04093587, 0.1707868, -0.04818064, -0.02122607, -0.3189734, -0.1476287, -0.05036707, -0.0139275, 0.09285848, 0.2022647, 0.1124789, 0.07728193], "gelu2_out": [0.02548947, -0.05686628, -0.04318308, -0.03995747, -0.05666585, -0.04620765, 0.002869859, 0.004332525, -0.01276224, 0.02074054, 0.04028191, -0.02277631, -0.02771133, 0.01610382, 0.002182648, -0.01663668, 0.04684987, -0.001917501, 0.02674747, -0.0226997, -0.03724614, -0.09165074, -0.0830461, 0.02127979, -0.07262519, 0.02754519, 0.07433718, 0.04475918, -0.01979959, 0.09697349, -0.02316459, -0.01043331, -0.1195746, -0.06515118, -0.0241719, -0.00688637, 0.04986426, 0.1173429, 0.06127609, 0.04102129]}, "encoder_layer": {"T": 5, "weights": {"self_attn_layer_norm": {"weight": [0.9223329, 1.063169, 0.9525124, 0.9967755, 1.035301, 1.050782, 0.9525381, 0.9085679], "bias": [-0.0603901, -0.009942496, -0.08181971, 0.07743919, -0.04211961, -0.09628192, 0.08190914, -0.03188387]}, "q_proj": {"weight": [-0.1811703, -0.02982749, -0.2454592, 0.2323176, -0.1263588, -0.2888458, 0.2457274, -0.09565162, -0.04145569, 0.1394306, -0.01344177, -0.2570237, 0.05001083, 0.1512657, 0.158969, -0.2134373, 0.1291373, -0.06281562, 0.07462235, -0.07898777, 0.2293581, -0.0752605, -0.2125318, -0.07975931, 0.03867363, 0.01632682, -0.2315695, -0.2404726, -0.2017774, 0.1612926, -0.01047717, 0.1811595, -0.06496371, -0.1035129, 0.005036974, -0.09273119, 0.07328772, 0.04168464, 0.1302841, -0.1507366, -0.03694797, 0.1929096, 0.04444353, 0.124524, -0.05277558, 0.2187782, -0.1232852, 0.07776293, 0.218197, -0.03760042, 0.02723, -0.1358035, -0.1257951, -0.08016004, -0.1979269, -0.2570504, -0.231793, 0.2736652, 0.1453281, -0.1401332, 0.1603858, 0.02868483, 0.1965356, -0.1920659], "bias": [0.05171926, 0.03280209, 0.07262456, -0.06597306, 0.02798119, 0.09675854, 0.09758475, 0.04547217]}, "k_proj": {"weight": [-0.296109, 0.1648219, -0.2684115, -0.04444936, 0.06967571, -0.05226349, -0.2582954, -0.1100105, -0.2056294, -0.2336812, -0.2348861, -0.1463994, 0.1893703, 0.2976591, 0.2454669, -0.1860808, 0.07828642, -0.2931296, 0.2323851, -0.1456254, -0.005550707, 0.09716961, 0.2813587, -0.158638, 0.118257, -0.1751962, -0.02550405, -0.03766848, 0.006849146, -0.208634, -0.08256691, -0.2857885, 0.2107967, -0.07853001, 0.2848665, -0.2057585, 0.01055464, 0.1762563, -0.09672082, -0.01157073, -0.1654313, 0.2759505, 0.01333734, -0.245693, -0.1137414, 0.0493529, -0.1644742, 0.2211781, 0.1572616, -0.04053086, 0.06330146, 0.01245257, 0.2596506, -0.01887431, 0.216237, 0.02943306, -0.2091553, 0.2385503, 0.1241118, 0.0494348, -0.01357387, -0.03343517, 0.2832692, -0.2753395]}, "v_proj": {"weight": [0.07228114, -0.103159, 0.05946418, -0.1655516, 0.1569509, 0.1780222, 0.2243128, -0.2009847, -0.1104942, -0.2227302, 0.05673606, 0.1278755, 0.06437971, 0.201038, -0.1102108, -0.2106503, 0.07367092, 0.273639, -0.04262374, 0.02329352, -0.1634944, 0.1065869, 0.09580114, -0.03264241, -0.02917528, -0.032047, 0.2385756, -0.2653521, -0.2249867, -0.009819246, -0.2738718, -0.2417593, -0.2043972, 0.2081745, -0.02297058, 0.04515188, -0.04118568, -0.09526566, 0.2041788, -0.2727567, -0.1460252, 0.1933305, -0.06058399, -0.1117042, -0.07210672, -0.1261857, -0.251179, 0.2738621, 0.1536948, 0.2106044, 0.06809571, 0.0898255, 0.1048717, 0.05798604, 0.2888198, 0.04380738, 0.2758469, -0.007694972, 0.02741862, 0.183668, -0.07336199, 0.2208075, -0.1206409, 0.1114048], "bias": [-0.08341955, -0.06892196, -0.0662471, 0.04192709, 0.02476274, -0.0748653, -0.0449461, -0.01944273]}, "out_proj": {"weight": [0.220608, 0.1988411, -0.03337237, -0.08213214, 0.1309804, 0.2685851, -0.05430454, -0.2657332, 0.02455473, 0.1505071, 0.1002909, 0.2036947, 0.1755109, -0.03806673, 0.2709371, -0.1224359, -0.07720631, -0.1496727, 0.1581302, -0.1777079, 0.1438315, 0.06843306, 0.2977834, 0.159217, -0.2487969, 0.09518527, 0.2932642, 0.09625229, 0.2843362, -0.08588988, 0.05460774, -0.1721072, -0.2868677, -0.147108, -0.1400434, 0.2171124, 0.1669821, -0.2661323, -0.02619671, -0.05122258, 0.02385382, -0.2936006, -0.1640443, 0.2954631, 0.03389304, 0.2383718, -0.04560199, -0.1001593, -0.07684833, 0.2330007, -0.07617878, 0.121188, 0.2494586, -0.2297839, 0.2243305, 0.1065119, -0.0143471, -0.2138691, 0.1884343, -0.1576183, 0.236282, 0.2134965, 0.2246957, -0.1912428], "bias": [0.042194, -0.0599463, -0.02665796, -0.03207634, 0.05419705, 0.04924859, 0.05122144, 0.07854789]}, "final_layer_norm": {"weight": [0.987484, 0.9071853, 0.9755221, 1.032032, 1.099014, 0.9567234, 0.9111656, 1.00113], "bias": [-0.06148246, 0.06182816, -0.03949844, 0.08498412, -0.08227006, 0.06214013, -0.0567987, 0.05720456]}, "fc1": {"weight": [-0.1844474, 0.1854845, -0.1184953, 0.2549524, -0.2468102, 0.1864204, -0.1703961, 0.1716137, -0.2236123, -0.09763345, -0.2187519, -0.1767059, -0.02730725, -0.09551765, 0.00614394, 0.2539061, 0.2910523, -0.2589946, -0.2768452, -0.01820623, -0.1899593, -0.08457992, -0.1319181, 0.2276571, 0.1762563, 0.004568732, -0.1504325, -0.1851561, -0.1671891, -0.2621398, -0.1880853, -0.224832, -0.2156371, -0.1643599, -0.05558356, -0.06488357, 0.1117, 0.1748192, -0.07656738, -0.02029663, -0.2441642, 0.1628165, 0.09667311, -0.03086178, -0.1647776, -0.04319043, -0.06823032, -0.201904, -0.1633764, -0.06825113, -0.03213215, -0.2671717, -0.1716617, 0.212794, 0.2574804, 0.224779, 0.007494736, 0.1009574, 0.2130975, 0.2058755, -0.01378262, 0.2377256, 0.2394058, -0.1308329, 0.2385101, 0.2329284, 0.03131483, 0.1023865, 0.03916719, -0.2113593, -0.09275147, 0.09515859, 0.2315833, -0.2069404, -0.07926346, -0.1371356, -0.01141033, 0.1070668, 0.1314632, -0.1008459, -0.1403975, 0.2707082, -0.02202998, 0.06525443, -0.04656808, 0.03372141, 0.08634654, -0.2389093, -0.06295249, 0.227037, -0.05679249, 0.1570769, 0.229948, 0.1041375, -0.2681052, 0.07884321, 0.05528948, 0.2273111, -0.05807827, 0.05791118, -0.2578023, 0.1205313, 0.0571778, -0.04985143, -0.04284107, 0.2330723, -0.02835428, 0.07247358, 0.1337207, -0.1965117, 0.1801444, 0.1711001, -0.08989131, 0.2605256, 0.2336807, -0.01766914, -0.05150113, -0.2112382, 0.07495502, 0.2899796, 0.0189197, 0.1171379, 0.04985626, 0.1301148, 0.01238744, 0.1026074, -0.2022817, 0.07866809], "bias": [-0.09410023, -0.09695142, -0.06529514, 0.0275485, -0.07884481, 0.03489574, -0.01421881, -0.08017053, -0.03709768, -0.03875118, -0.07265469, 0.05343121, -0.03258966, 0.05259352, 0.004404342, -0.04870256]}, "fc2": {"weight": [0.09148172, 0.1265322, -0.1656569, -0.1381185, -0.1614756, 0.05109826, 0.1006131, -0.1012307, -0.08219011, 0.08911679, -0.277347, -0.04583988, -0.07862943, 0.09509247, 0.1012627, -0.2934942, -0.01635887, -0.1464646, 0.02510333, 0.23951, 0.04121164, 0.07640791, 0.1370203, -0.2463935, -0.1158448, -0.299227, 0.05415534, -0.2967558, 0.2551185, -0.2723711, 0.0626745, -0.003893638, -0.2054761, 0.144683, 0.004489196, -0.0395913, 0.2528689, -0.1781574, -0.2742909, -0.1951637, 0.2428834, 0.0267191, 0.07524587, 0.1208468, 0.246659, -0.07838416, 0.2317731, -0.04214133, 0.03817781, -0.1054331, -0.2407164, -0.1302079, -0.1057533, -0.008291638, -0.2755317, 0.1774173, 0.2630928, 0.02315147, -0.0415187, -0.2076399, -0.1669924, -0.264012, 0.0724225, 0.1193091, 0.2363143, 0.2364569, -0.2224939, -0.1373704, -0.02168455, -0.1632063, 0.2246216, -0.01668323, 0.2063106, -0.1002124, -0.1495749, 0.2812104, -0.2989048, 0.08594081, 0.0990498, 0.2641883, 0.177272, 0.2829307, -0.2953996, -0.2663493, 0.03444586, -0.2963013, -0.2762421, 0.2767244, 0.00178113, -0.185922, 0.1425205, -0.1163888, 0.06681158, 0.2209747, -0.01453589, 0.01681702, -0.1469704, 0.2471533, 0.1409699, 0.1346366, -0.1005943, 0.1567906, 0.1208492, 0.1824213, 0.1469522, -0.1481113, 0.208842, -0.2739089, -0.02850194, 0.210229, 0.09043604, 0.08477759, 0.079346, 0.2661462, 0.1479655, -0.1618484, -0.173513, 0.1679049, 0.2905886, -0.07934046, -0.164905, -0.2619712, 0.1958472, -0.2736582, -0.2746565, 0.1647854, -0.08008926, 0.2951765], "bias": [0.03157825, -0.08319175, 0.003812707, -0.06938088, -0.06655472, -0.04959375, 0.07501421, 0.09689894]}}, "input": [0.4007438, 0.246363, -0.02838629, 0.3737667, 0.2402642, 0.2840049, 0.394586, 0.1238328, -0.0723998, 0.3420865, 0.245431, 0.1181287, 0.3882524, -0.08725494, -0.3251796, -0.1573568, 0.4377328, -0.4586992, -0.387334, 0.1972311, 0.3759863, -0.1836842, -0.2011098, 0.2826531, 0.1531441, -0.07792056, -0.1850922, 0.08147526, -0.434364, -0.1542932, 0.4640672, -0.2509738, -0.382558, 0.09260941, 0.01358402, 0.0753333, -0.2937918, -0.1242128, -0.3194902, -0.03297347], "output": [0.3996368, -0.06734146, 0.01676034, 0.2776987, 0.2691781, 0.2318911, 0.5684616, 0.2933626, -0.1154373, -0.07697824, 0.5140043, 0.1029465, 0.8080045, -0.1955793, -0.2584056, -0.004060514, 0.3065107, -0.8410233, -0.2288626, -0.02977145, 0.4485229, -0.4584211, -0.05390671, 0.443318, 0.1386577, -0.2337265, -0.2512279, 0.02329507, -0.4878746, -0.2174562, 0.8091528, -0.06289482, -0.263817, -0.2193854, 0.03065066, 0.1037485, 0.3464282, 0.06324294, -0.2235253, 0.3708458]}, "decoder_layer": {"Td": 3, "Tenc": 5, "weights": {"self_attn_layer_norm": {"weight": [1.018772, 1.000154, 1.099228, 0.9062234, 0.9343114, 1.08962, 1.029405, 1.085292], "bias": [-0.06808472, 0.01232349, -0.008502197, -0.08479804, -0.01375918, -0.005853403, -0.04377938, -0.0512334]}, "self_q_proj": {"weight": [-0.2042542, 0.03697046, -0.02550659, -0.2543941, -0.04127755, -0.01756021, -0.1313382, -0.1537002, -0.00509001, -0.256573, 0.209654, -0.217644, -0.01017394, -0.1801861, 0.1720445, 0.03871819, -0.06876859, 0.1261966, -0.1177176, -0.0256961, 0.08765724, 0.09682704, 0.2862248, 0.08752102, -0.2549458, -0.1009991, -0.05058528, -0.2305308, 0.1436958, 0.2619703, 0.2723654, -0.07946302, 0.10624, -0.242029, -0.1703287, -0.2399549, -0.2593615, -0.2707701, -0.2196224, 0.2036587, -0.005541658, -0.1300222, 0.09060374, -0.04293741, -0.2385897, -0.2796885, -0.01737492, -0.2782097, -0.09294742, 0.1975242, 0.02571359, -0.1815153, -0.1471623, -0.2991853, -0.1754886, 0.0468833, -0.07368332, -0.07993773, -0.2562296, 0.2902752, 0.1981749, 0.03288081, -0.2626153, 0.05563048], "bias": [0.08025195, 0.05614137, 0.06474113, 0.08178035, -0.07617871, -0.09600718, 0.01263735, 0.05548749]}, "self_k_proj": {"weight": [-0.06193017, 0.2593743, 0.05874238, 0.1463543, -0.1773271, 0.1185028, -0.1848201, -0.1046171, 0.1307867, 0.1039704, -0.1213577, -0.06394247, -0.0003644943, 0.08117852, -0.1396678, 0.1820121, -0.08035552, -0.0153981, -0.08567376, 0.1785689, 0.1242893, -0.05206293, -0.01570627, 0.2939949, -0.1051904, 0.1956697, -0.1378461, -0.2238848, -0.1674667, -0.1632825, -0.03112368, -0.2911628, -0.1362322, 0.2216669, -0.1344588, 0.242676, 0.2378376, 0.2012126, -0.2945759, 0.2752262, -0.01803839, -0.2140276, 0.04970799, 0.1384876, 0.02263423, 0.1553974, -0.2229192, -0.0457871, 0.2657871, 0.009593654, 0.001542413, 0.1019099, 0.2072138, -0.1983358, -0.2943435, 0.2353481, 0.2179184, 0.2116605, -0.03472288, 0.25016, 0.2890282, -0.04103025, -0.1515573, -0.2412505]}, "self_v_proj": {"weight": [-0.2625511, 0.1862139, -0.07905708, -0.1390176, -0.08678255, -0.1605898, -0.2466655, 0.2558839, -0.1467621, 0.2071936, -0.1808941, -0.1553541, -0.1926991, 0.1944448, -0.1002237, 0.2275928, 0.2373919, 0.2678927, -0.1669397, -0.246069, 0.2320996, 0.299824, 0.2119473, 0.01024346, -0.1010111, 0.2325373, 0.05329843, -0.03424909, 0.2426952, -0.1849365, 0.005315709, -0.03390566, -0.2561606, 0.02624345, 0.2365849, -0.1904199, -0.2012205, -0.2972907, 0.1524843, -0.2175736, -0.2814531, 0.008143616, 0.02027954, -0.04651054, -0.1581656, -0.001826441, 0.02431569, -0.2114255, 0.03666523, -0.02810705, -0.2464932, -0.2492152, 0.02468298, -0.2440916, 0.1940363, 0.000739646, 0.07466945, -0.2270063, 0.2498229, 0.007961297, 0.1342946, -0.2480357, -0.1615612, 0.1243208], "bias": [0.07885046, -0.07276472, 0.04959446, -0.03060266, 0.08011211, 0.07141168, -0.04702505, -0.05986576]}, "self_out_proj": {"weight": [-0.1665138, 0.159146, 0.05274314, 0.2421117, -0.1026865, 0.1150827, 0.1701632, -0.1296021, 0.09911507, 0.09324382, 0.2305207, 0.1961762, 0.1654301, -0.1104328, 0.1910754, 0.101887, -0.2134619, -0.134358, 0.1125557, 0.06883972, -0.1121127, -0.03138059, -0.2193531, -0.1610545, -0.06841164, -0.2011345, 0.08051949, 0.03146163, 0.03679784, 0.1789797, 0.1639936, -0.2150553, -0.1432777, 0.008330941, 0.1901094, -0.2485865, 0.08857667, 0.1778278, -0.02283189, 0.1347799, 0.1165933, -0.07766765, 0.08476782, 0.06574506, 0.002600992, 0.149487, -0.05737771, -0.1221428, 0.1031151, 0.1330463, 0.2119472, 0.2594819, -0.2975488, 0.2063918, 0.006410838, -0.06894451, -0.05101794, -0.06706692, 0.2249953, -0.2777085, -0.006172586, -0.1875522, -0.03338192, -0.229979], "bias": [-0.07398822, 0.03508673, -0.04693983, -0.00684067, -0.05489611, -0.09451713, -0.08976282, 0.05610645]}, "encoder_attn_layer_norm": {"weight": [1.065348, 0.9859227, 1.020236, 0.9238517, 1.005688, 1.091893, 0.9068407, 1.024086], "bias": [-0.0209989, 0.05022528, -0.07357245, -0.05879932, 0.04118726, -0.08820255, 0.08343833, -0.02421647]}, "cross_q_proj": {"weight": [-0.06299669, 0.1506758, -0.2207173, -0.1763979, 0.1235618, -0.2646077, 0.250315, -0.07264942, 0.02140467, -0.2930416, 0.1175516, 0.2209546, -0.2967523, -0.1224739, -0.2239983, 0.06500963, 0.08884435, 0.2962933, -0.1495044, 0.04826764, 0.05460234, 0.2273664, -0.2040063, 0.04286088, -0.1873132, -0.1750052, -0.1544897, -0.02496471, -0.2745017, 0.02094215, -0.01089538, 0.1817105, -0.2441507, -0.03861841, -0.221859, 0.04834213, -0.2372784, 0.1273613, 0.1234287, -0.2740473, -0.02421287, 0.04205854, 0.2895131, 0.1912614, 0.1520179, 0.2357597, -0.2616961, 0.01545038, -0.0818961, 0.2390871, -0.0124197, 0.01220484, -0.05045496, -0.1994969, 0.2097197, 0.0672653, -0.1062228, -0.09251604, -0.1597647, 0.2002728, 0.1101368, 0.2831601, 0.1479971, -0.02877202], "bias": [0.05009601, 0.02650834, -0.03202567, -0.02456305, -0.02018193, -0.0112627, 0.07693793, 0.06719214]}, "cross_k_proj": {"weight": [0.1554018, -0.2180585, 0.1210667, -0.2606541, 0.007473493, -0.2939117, 0.08580305, -0.2926911, 0.1347973, 0.0707182, -0.199377, -0.08196012, -0.1524597, -0.2499111, -0.1834628, 0.07471916, 0.07310876, -0.0322188, 0.1152622, 0.05079604, -0.1759696, -0.2242875, 0.1707856, -0.1160977, 0.01476878, 0.1804762, -0.1550245, 0.2929778, 0.2574936, 0.1787115, 0.2306457, 0.1509793, -0.1212024, 0.2899115, 0.1208161, 0.1773207, 0.06096225, 0.2390174, -0.02607654, 0.2686923, 0.2770007, -0.1231576, -0.03571032, 0.1210446, 0.1614861, 0.1829069, 0.02916852, -0.2550365, 0.2283232, 0.0384357, 0.08376357, 0.05093361, -0.06365898, -0.2795267, 0.2067448, 0.2663516, 0.01412323, 0.06206821, -0.02442019, 0.2099652, -0.2382434, 0.1914197, -0.2971151, 0.1357841]}, "cross_v_proj": {"weight": [-0.06476791, -0.05481041, 0.2044993, 0.2858225, 0.01959472, 0.07796106, 0.2074894, -0.2681192, 0.2108034, -0.128546, 0.06324384, -0.1868619, -0.2027532, -0.284726, 0.298793, -0.2256258, -0.2974947, 0.1693124, 0.2001349, 0.2378389, 0.1388346, -0.2179245, 0.2694589, 0.01443826, 0.2542096, 0.1020052, -0.01339842, 0.04196456, 0.1880784, 0.02442917, -0.1743078, -0.1888796, -0.06971762, 0.1287274, -0.1155144, -0.05045031, -0.1258598, 0.251525, -0.1385317, -0.07505869, -0.1967089, -0.03465604, -0.02144015, 0.2085609, -0.2586889, -0.03190659, -0.2423764, 0.2262118, -0.1053008, 0.2632793, 0.2152883, 0.2393006, 0.02089366, 0.2330099, 0.298067, 0.2829994, -0.288313, 0.25701, 0.1725988, -0.09754551, -0.2365374, 0.274471, 0.2510459, -0.1721527], "bias": [-0.09885589, 0.01932665, 0.0289028, -0.07142689, -0.03951382, -0.07553885, -0.04987627, -0.02115687]}, "cross_out_proj": {"weight": [0.2283954, 0.013774, 0.03473454, -0.04611851, 0.06028086, 0.2201744, -0.02423705, 0.03737816, -0.06537574, 0.0726668, -0.05100292, 0.2305154, -0.2775828, 0.2757145, -0.2192891, 0.1705157, -0.06582005, -0.1504665, -0.1422992, 0.09280711, 0.2914088, -0.2747862, 0.2867714, 0.1453895, 0.2908072, -0.22527, -0.005380082, -0.2694183, 0.04648959, -0.2319499, 0.03567936, 0.05681841, 0.2722377, -0.2664068, 0.2454411, -0.2469169, 0.2856223, -0.2694434, 0.2488291, 0.2884782, 0.1505189, 0.1273201, 0.1294271, 0.1900474, 0.2983013, -0.1450246, -0.1847086, 0.2432, -0.1826473, 0.2651321, 0.06483565, -0.1231815, 0.1453176, -0.1281146, -0.1107005, -0.02912443, 0.08776563, 0.2559478, 0.1795108, -0.178312, 0.1210433, 0.0975965, 0.2167102, 0.09159161], "bias": [0.02628367, -0.01979902, -0.05180264, -0.05655427, -0.06669468, -0.01690104, 0.02096094, 0.005834234]}, "final_layer_norm": {"weight": [1.016119, 1.05608, 1.005823, 1.096547, 0.9926621, 0.9082867, 0.9243035, 1.03811], "bias": [-0.0939544, 0.0124459, -0.02716248, -0.09704783, -0.05346074, -0.09038386, -0.0410548, -0.09111086]}, "fc1": {"weight": [-0.2818632, 0.03733771, -0.08148745, -0.2911435, -0.1603822, -0.2711516, -0.1231644, -0.2733326, 0.2375525, -0.03665042, -0.03226669, -0.08025596, 0.1845525, -0.1754016, -0.1164259, 0.07533735, -0.09546197, 0.2651786, 0.2941095, -0.07653705, -0.1166148, -0.1347236, -0.07442272, 0.1006492, 0.2387401, -0.2286387, -0.2730637, 0.2300909, -0.01569235, -0.01554573, 0.1409053, -0.1128272, 0.2873336, 0.2819407, 0.1146875, 0.1154303, -0.1618194, -0.2762747, -0.02532953, 0.2348994, -0.1129517, -0.08767902, 0.1551468, 0.1131139, 0.05251715, 0.2696494, -0.05813892, 0.264055, -0.1837704, 0.1401636, -0.01131177, -0.2625879, -0.1251944, -0.08802932, -0.0620558, 0.08378724, -0.01053461, -0.07044193, -0.2148574, 0.1276032, -0.2957946, -0.1444938, -0.1346019, -0.1706319, -0.0479221, -0.1565506, 0.1869845, 0.1691289, 0.1141172, -0.03838549, 0.08418593, 0.2889205, 0.2082647, -0.2969366, -0.2351959, 0.1252494, 0.2241561, 0.1416121, 0.2316436, -0.1959171, 0.157824, 0.01304458, 0.08968238, 0.2978758, 0.04504874, -0.04862241, 0.2066983, -0.2878913, -0.1072469, -0.05771524, 0.08301848, -0.1957251, 0.1659525, 0.1337617, 0.2795781, -0.1682621, -0.1179647, -0.2859437, -0.1310993, 0.1173748, 0.2015162, -0.02536887, 0.2290791, 0.1905936, 0.1028732, -0.02002548, -0.0335245, 0.1780642, 0.1346336, 0.1506141, 0.1536891, -0.06148364, 0.05553915, 0.1960044, 0.1084995, 0.1182262, -0.2354265, 0.1321654, -0.06677753, 0.2719659, -0.2685523, -0.2100348, -0.004854119, -0.2031521, -0.1122752, -0.2769978, 0.2135099, -0.04687132], "bias": [0.04023187, 0.00157851, 0.04574844, -0.05259841, 0.04922324, -0.04966424, -0.0404399, 0.06755012, -0.09407379, 0.03947667, -0.03739402, -0.09081256, 0.02125152, 0.04287118, 0.02637779, 0.0569763]}, "fc2": {"weight": [0.07369166, 0.09538183, -0.06448167, 0.0935659, -0.2617517, 0.1338878, 0.03713182, 0.1447259, -0.1841251, 0.2299127, 0.03215604, 0.2644111, 0.2350227, 0.005051387, 0.04016372, -0.2442896, 0.1082697, 0.2513231, 0.2036206, -0.08194943, -0.2215423, 0.119394, 0.08405492, -0.1977726, -0.1988127, 0.05824303, -0.05168256, 0.235101, 0.09910241, -0.1240572, -0.07892454, 0.2592316, -0.2853827, -0.2325663, 0.02265759, -0.05929746, -0.09766939, -0.04607102, -0.2532967, 0.1703803, -0.2173937, 0.09289631, -0.140704, 0.01220259, -0.1339431, -0.2692461, -0.1747265, -0.04203773, 0.2595192, 0.2448964, 0.1072625, 0.2282881, 0.2983733, -0.01828011, 0.2111893, 0.2092098, 0.1064533, -0.2156723, -0.01550306, 0.02487052, 0.06870221, -0.244825, -0.2633713, 0.2134046, 0.2964623, -0.2573856, -0.04005264, -0.2472011, -0.05750545, 0.2569344, -0.05461575, -0.246244, 0.06243589, -0.1937669, 0.2481801, -0.1059496, 0.219185, -0.004148448, 0.03638567, -0.09925386, 0.1218219, -0.09105767, -0.03716354, 0.1525875, 0.2778555, -0.2443249, -0.051636, 0.007112396, -0.2786664, 0.1155109, 0.2887088, 0.1026871, -0.1714893, 0.27033, 0.1976924, 0.02922936, -0.08536199, 0.1888327, -0.09220212, -0.119951, 0.2393065, 0.1283225, -0.09032343, 0.2181027, 0.05574764, 0.2584318, -0.08702567, -0.05120105, 0.04626789, -0.2425384, 0.07546581, -0.2912095, 0.1410099, 0.1827634, -0.214334, -0.04336657, 0.2482652, -0.1248781, 0.292969, -0.06240785, 0.2816624, -0.09193021, 0.1967977, 0.1923561, -0.2027282, -0.05500392, 0.205765, 0.2066265], "bias": [0.05870524, -0.06052673, 0.07762974, 0.09632037, 0.03358708, -0.07947878, -0.06050858, -0.085332]}}, "dec_input": [-0.1321217, 0.3661019, -0.3262935, 0.2157081, 0.3649287, -0.01224184, 0.0501281, -0.3681831, -0.2102501, -0.4293323, 0.301551, -0.1755665, 0.2582797, 0.3895766, 0.1959261, -0.01904565, 0.3545186, -0.3870185, 0.1778608, -0.4826832, -0.379651, -0.3636672, 0.3089185, 0.3229375], "enc_input": [-0.2635536, -0.273382, 0.3005302, -0.3308123, -0.2350416, 0.2719918, -0.3718117, 0.245214, 0.3044676, 0.1357091, 0.08961642, 0.1932896, 0.3782489, 0.04067564, -0.3599775, 0.4613439, 0.3666488, -0.01158488, -0.2922983, -0.1936595, -0.4414774, 0.3313559, -0.04338974, 0.3444931, 0.1882608, -0.09919214, -0.3197206, 0.1740167, -0.3208206, -0.1111189, 0.2972406, -0.2722692, -0.02446049, -0.06786382, 0.05729496, 0.481412, 0.2922838, -0.1877257, 0.4424755, -0.1626198], "output": [0.3507484, 0.2216148, -0.1745022, 0.6746924, 0.05244268, 0.4787849, 0.3343999, -0.328018, 0.0910043, -0.002458334, 0.3667755, 0.05279489, 0.2762066, 0.1667061, 0.1155623, 0.009103704, -0.05016387, -0.3201551, -0.04617555, 0.1369086, -0.5374793, -0.5239776, 0.1843987, 0.6856003]}, "lm_head": {"vocab": 32, "embed": [0.07081318, -0.2587841, -0.06643485, -0.275753, -0.05920598, -0.2135022, -0.02372575, -0.007394958, 0.05559901, 0.2780299, -0.2261986, -0.05713874, -0.0009107709, 0.2992402, 0.06291844, 0.01374185, 0.1184352, -0.1496939, -0.08256441, -0.02274349, 0.128729, 0.00350976, -0.2689238, -0.1505072, -0.156291, -0.04602792, -0.2987038, 0.1108811, 0.1498089, -0.1506757, -0.09058839, -0.1828453, -0.1324616, -0.1484505, -0.07247322, 0.1611509, 0.1144228, 0.15158, -0.2289688, 0.2219267, 0.2034816, -0.2680993, -0.1977023, -0.1251897, 0.04094331, -0.2772012, -0.1370961, 0.1192315, -0.243349, 0.1031605, -0.07306585, 0.2242722, 0.1360019, 0.2691645, -0.03670871, -0.02468537, -0.2784668, -0.08850986, -0.2766645, -0.06717804, -0.2208618, 0.001066983, 0.18464, 0.2593378, 0.04081675, 0.002052605, -0.1755559, -0.01328802, -0.04782389, -0.05913685, -0.2738503, 0.0894246, 0.2404063, 0.1964552, -0.07292276, 0.1510666, -0.1296687, 0.1331833, 0.2052498, -0.1515388, 0.1100608, -0.2669382, 0.1694474, 0.174031, 0.2757706, 0.06389226, 0.05554537, 0.1379802, 0.286095, 0.2808258, -0.210348, 0.2895387, 0.1752422, 0.05049201, 0.2776811, -0.1084535, 0.04497775, -0.2077116, -0.1475919, 0.2821587, 0.00117774, -0.1188965, 0.2299451, -0.1847427, 0.1611805, -0.1485873, -0.07994371, -0.2709839, 0.1697678, 0.1219215, 0.1359089, 0.04764079, -0.2152642, 0.1862834, 0.2570228, 0.2666672, 0.09225465, 0.0206647, 0.1815115, 0.02904149, 0.04426754, -0.04647925, 0.1503842, 0.09847055, -0.1122288, 0.263671, -0.110499, 0.2691835, -0.1402865, -0.2077359, -0.0295009, 0.1560927, 0.1956044, -0.001215971, -0.2404517, -0.1376814, -0.1021219, -0.2442404, 0.008561683, 0.004907835, 0.1523699, 0.1031047, 0.2128114, 0.09971048, -0.2386907, -0.0956396, -0.119758, 0.09607569, -0.1640473, 0.206614, 0.1849842, 0.1832866, 0.03177463, -0.2623488, 0.2494362, -0.05033877, -0.064437, 0.188418, 0.2553151, -0.2739321, 0.03586461, 0.1716713, 0.1565643, -0.2958964, -0.27226, 0.1249052, -0.06380957, -0.1621434, -0.1198642, 0.03753151, -0.09348003, 0.1161077, 0.1787233, -0.2870766, -0.2231353, -0.1263483, 0.1748699, -0.128549, 0.0880321, 0.2011253, -0.1409169, -0.04507224, 0.2932905, -0.2590556, -0.1115857, -0.2906525, -0.1745587, -0.1376245, 0.2839622, -0.1161967, 0.2204172, -0.00972004, 0.06170633, 0.05884291, 0.2833552, 0.268844, 0.2217769, 0.1985651, -0.12209, 0.1139893, 0.133564, 0.1516355, -0.03050491, -0.1268329, 0.002441132, 0.2763479, 0.109879, 0.04871528, -0.2687768, 0.1685814, -0.2881174, -0.05439377, 0.1065489, -0.2896243, 0.01598697, 0.2089176, -0.07902739, -0.0723571, -0.269657, -0.07341854, 0.2881459, -0.08628559, 0.1799182, 0.05182164, -0.00107038, 0.09941955, 0.0105404, -0.05448693, 0.07302876, 0.006966627, 0.2922162, 0.1929468, -0.2539718, -0.1129751, -0.2970453, 0.1420396, 0.2500366, -0.1662039, 0.02958055, -0.1455737, 0.06515709, 0.002535617, -0.1603069, -0.04032186, 0.1354061, 0.03156227, 0.1710919, -0.08477709, 0.05029321, -0.05090361, 0.2355991, 0.2355705, 0.06803888, 0.0159055, -0.1654468, -0.2241126], "ln_weight": [0.9047143, 0.9621468, 1.071626, 0.9998216, 1.046953, 1.039576, 0.9863778, 1.042946], "ln_bias": [-0.08716313, 0.05648825, -0.0148937, 0.04211445, 0.0191305, 0.06746214, 0.07702678, 0.06457666], "hidden": [0.4872435, 0.2403598, -0.05368203, -0.1444263, 0.3857389, -0.1629826, 0.36905, -0.2678286], "layer_norm_output": [1.158425, 0.5217898, -0.6366158, -0.8661825, 1.076087, -0.9467396, 1.013276, -1.34851], "logits": [0.3524984, 0.1639147, 0.1970187, 0.3476838, -0.8760121, 0.3369192, -0.4882056, -0.5357544, -0.2219256, 0.4432751, -0.1639249, 0.9294607, 0.3892367, 0.5355254, -0.3223055, -0.9993609, -0.2336703, -0.1079183, -0.7652511, 0.1651074, 0.03051892, 0.2480633, 0.4428004, 0.6014388, -0.5378352, 0.1497683, 0.1304677, 0.6101441, 0.1990163, 0.3656088, 0.6172963, -0.1296009], "argmax": 11}}