{"vision": {"config": {"hidden_size": 8, "num_heads": 2, "depth": 2, "in_channels": 1, "patch_size": 2, "temporal_patch_size": 2, "spatial_merge_size": 2, "out_hidden_size": 6, "intermediate_size": 12, "rms_norm_eps": 1e-05, "hidden_act": "silu"}, "grid_thw": [[1, 4, 4]], "pixel_values": [-0.47625118494033813, 1.669837236404419, 2.4568564891815186, -0.981196403503418, 1.719031572341919, -0.3233250379562378, -1.3432362079620361, -1.003247857093811, 0.4212881922721863, -0.2935134768486023, 0.21768255531787872, 0.73918616771698, -0.7701401710510254, -0.00036565063055604696, -0.4477492570877075, -1.8710306882858276, 0.15213893353939056, -0.5891662240028381, -0.45956629514694214, -0.5193529725074768, 0.9564160704612732, -0.36644598841667175, 0.14868514239788055, 1.2092854976654053, -1.2273733615875244, 3.585106134414673, 0.33172550797462463, 1.2690110206604004, -1.4276087284088135, -0.38575106859207153, 0.1752258688211441, -0.53672194480896, -0.6927223801612854, 0.15247410535812378, -1.4300422668457031, -0.18789537250995636, 0.4844169616699219, -0.3622533679008484, -0.34352976083755493, 1.34690523147583, -1.2166322469711304, -0.31977036595344543, 0.1431574672460556, 0.7060493230819702, 0.6123564839363098, 0.34174206852912903, -0.14805230498313904, 1.239801287651062, -0.24339118599891663, 0.4624074101448059, -0.9505540132522583, -1.4252532720565796, -0.4507414996623993, -1.5054881572723389, 0.196349635720253, 0.5675979852676392, 1.8645718097686768, 1.0667133331298828, 1.6594414710998535, -0.6629157066345215, 1.438719630241394, 1.0800715684890747, -0.5808151364326477, -1.1823084354400635, -0.7769075632095337, -0.7035334706306458, -0.4177713990211487, 0.7232699990272522, 0.5651373863220215, 0.13850265741348267, -0.7128542065620422, 0.798320472240448, -1.1313204765319824, 0.5422737002372742, -0.00993007980287075, -0.8121562004089355, 2.3738045692443848, -1.1326185464859009, -0.4084136486053467, 2.165344476699829, -0.38673725724220276, -0.44455331563949585, -0.991780698299408, 0.10105045884847641, 0.12255603075027466, -0.19620417058467865, 1.7794733047485352, -0.30093100666999817, -0.42277470231056213, 0.30425700545310974, 0.04673130810260773, -0.673006534576416, 0.688772976398468, -0.21840007603168488, 0.18330544233322144, -0.08287502825260162, 0.42335158586502075, 0.10575080662965775, -0.7924762964248657, 2.0403828620910645, -1.6674615144729614, -0.7753927707672119, -0.26671695709228516, 1.790252447128296, -0.09226549416780472, 1.4458792209625244, -0.03828338533639908, -0.30273231863975525, -0.1262580156326294, -1.1847742795944214, 0.1573803573846817, -1.7955055236816406, 0.8162803053855896, -0.7454084157943726, -1.1727689504623413, -1.3716821670532227, -0.12830130755901337, -0.7473595142364502, 0.38179391622543335, -0.40477946400642395, 0.7123575806617737, 0.21090301871299744, 0.8866878151893616, -0.15065976977348328, -1.0041474103927612, 0.3377324938774109, -0.4062792658805847, -0.3044401705265045], "state_dict": {"patch_embed.proj.weight": [0.019290940836071968, -0.021990273147821426, 0.013753230683505535, 0.02178056351840496, 0.006106213200837374, -0.014515280723571777, -0.0094146728515625, -0.04216655343770981, -0.027003871276974678, 0.011037325486540794, 0.015437484718859196, -0.015761328861117363, 0.022716905921697617, -0.0020136660896241665, -0.01485035102814436, 0.002483037067577243, -0.012934056110680103, 0.02837870456278324, 0.03467760607600212, 0.0025942083448171616, 0.009996922686696053, 0.023977501317858696, -0.012030474841594696, -0.005472762044519186, 0.013620526529848576, 0.03344770893454552, -0.006533616688102484, 0.002779979258775711, 0.010297317057847977, -0.0014500465476885438, -0.028821911662817, -0.030721137300133705, -0.002525125630199909, 0.010403860360383987, 0.009240428917109966, -0.0016050152480602264, 0.034302640706300735, -0.01624356023967266, 0.0018140677129849792, -0.023419274017214775, 0.013233416713774204, 0.007740085478872061, -0.027295907959342003, 0.020667875185608864, 0.02477956935763359, -0.007675139233469963, -0.05845879763364792, 0.019650505855679512, 0.023140210658311844, 0.0017285539070144296, -0.039523083716630936, -0.04073828458786011, 0.02651592716574669, -0.0033092470839619637, 0.005856621544808149, -0.032851286232471466, -0.01030088309198618, -0.01612778939306736, -0.012801636941730976, 0.029456516727805138, 0.02641255408525467, 0.0015516829444095492, -0.0010386264184489846, 0.011112921871244907], "patch_embed.proj.bias": [0.0, 0.0, 0.0, 0.0, 0.0, 0.0, 0.0, 0.0], "blocks.0.norm1.weight": [1.0, 1.0, 1.0, 1.0, 1.0, 1.0, 1.0, 1.0], "blocks.0.norm2.weight": [1.0, 1.0, 1.0, 1.0, 1.0, 1.0, 1.0, 1.0], "blocks.0.attn.qkv.weight": [-0.003199934959411621, 0.017391042783856392, -0.005391456186771393, -0.01407645270228386, 0.013860581442713737, 0.025405995547771454, -0.026695378124713898, -0.014051671139895916, -0.0024558845907449722, 0.019420521333813667, -0.002891886280849576, -0.036692604422569275, 0.017811596393585205, 0.0035799818579107523, -0.0015068895881995559, -0.015964822843670845, -0.01670057885348797, -0.0012235046597197652, 0.008344952017068863, -0.03172764927148819, -0.013576663099229336, -0.004741065204143524, -0.04228982701897621, -0.000315441022394225, 0.008784963749349117, -0.012729623354971409, 0.020859893411397934, 0.009117850102484226, 0.0016956430627033114, -0.0022097148466855288, -0.03835425153374672, 0.004785886034369469, -0.03693101555109024, 0.005915774032473564, 0.001306844176724553, 0.017719434574246407, 0.014227374456822872, 0.005317027680575848, 0.02758103236556053, 0.000716499169357121, 0.010334190912544727, 0.025044377893209457, 0.06383604556322098, -0.017235197126865387, -0.0056277429684996605, -0.023525245487689972, 0.04596010223031044, 0.012210479937493801, -0.007852282375097275, 0.011527161113917828, 0.025798972696065903, -0.03333110734820366, 0.01578383892774582, 0.0092080757021904, -0.019736992195248604, 0.03981294482946396, -0.0021207083482295275, -0.013786759227514267, -0.013155571185052395, 0.020263511687517166, -0.0035934518091380596, -0.010470293462276459, -0.022126855328679085, 0.017700070515275, 0.008593865670263767, 0.019977029412984848, -0.010518943890929222, 0.002454090164974332, 0.0301483403891325, 0.01970517262816429, -0.02224045619368553, -0.008514007553458214, 0.01629212498664856, 0.000464470183942467, 0.021084660664200783, -0.006775330286473036, 0.028033627197146416, -0.03300268203020096, 0.013714581727981567, 0.002668083645403385, 0.013218395411968231, 0.015909159556031227, -0.017236415296792984, -0.015020081773400307, -0.025326766073703766, -0.00424235500395298, -0.02662387117743492, -0.009362363256514072, -0.01205261331051588, -0.022304706275463104, 0.0038438388146460056, -0.002363229636102915, -0.007070491090416908, -0.007793644443154335, 0.014056015759706497, -0.0050920587964355946, -0.002847502240911126, 0.012031198479235172, -0.009826579131186008, -0.005131606478244066, 0.010799667797982693, -0.05216251686215401, -0.021552955731749535, 0.006486373487859964, -0.021829303354024887, -0.002980501390993595, -0.029105177149176598, 0.007373337633907795, -0.01762150414288044, 0.010738632641732693, -0.00887940265238285, -0.021499913185834885, 0.002956487238407135, -0.024005187675356865, 0.021196037530899048, -0.0333661288022995, -0.017776817083358765, 0.005210519768297672, -0.016792558133602142, 0.005244355648756027, 0.020941395312547684, 0.0192160252481699, -0.007681373972445726, -0.0042833248153328896, -0.03535294532775879, 0.026830004528164864, -0.014680132269859314, 0.007645509671419859, 0.013695701956748962, 0.002702244557440281, -0.026574477553367615, -0.00014408142305910587, 0.013054781593382359, 0.00649221520870924, -0.015479733236134052, -0.030941704288125038, -0.006577643565833569, 0.005218214821070433, -0.027361949905753136, 0.012224076315760612, 0.004250882659107447, 0.03650648519396782, 0.03761203959584236, 0.014332273975014687, -0.019333867356181145, 0.020364070311188698, -0.005616819020360708, 0.0273276437073946, 0.05234823003411293, -0.03431040048599243, -0.0076527828350663185, 0.015086899511516094, 0.0057761333882808685, 0.010238331742584705, -0.0020490759052336216, 0.03098991885781288, 0.01227482408285141, 0.0038660175632685423, 0.060543082654476166, 0.011560463346540928, 0.023784877732396126, -0.0052688224241137505, 0.04125719144940376, 0.0037273054476827383, -0.0009295786148868501, 0.03820929303765297, 0.01864907331764698, 0.038513027131557465, -0.004781421273946762, 0.020774835720658302, 0.027872277423739433, -0.022301582619547844, 0.02758733183145523, 0.020821809768676758, 0.005423944443464279, -0.00711799506098032, 0.034114181995391846, -0.010045123286545277, -0.01524925697594881, 0.02762484923005104, -0.02056979574263096, -0.005564079619944096, 0.010611495934426785, 0.01940017193555832, 0.04278542101383209, -1.7699530872050673e-05, -0.005517664365470409, -0.006193211767822504, 0.014601181261241436, -0.021730391308665276, -0.018168382346630096, 0.0025359054561704397], "blocks.0.attn.qkv.bias": [0.0, 0.0, 0.0, 0.0, 0.0, 0.0, 0.0, 0.0, 0.0, 0.0, 0.0, 0.0, 0.0, 0.0, 0.0, 0.0, 0.0, 0.0, 0.0, 0.0, 0.0, 0.0, 0.0, 0.0], "blocks.0.attn.proj.weight": [0.009993674233555794, -0.0034254994243383408, -0.009312063455581665, -0.028615888208150864, -0.0007081651710905135, -0.00919706467539072, 0.027230214327573776, 0.010514925234019756, 0.019552864134311676, -0.06721529364585876, 0.015011417679488659, -0.0023995230440050364, -0.02187209017574787, 0.019760187715291977, 0.024222156032919884, 0.019236814230680466, 0.023095371201634407, -0.0063100350089371204, -0.015434261411428452, 0.010227237828075886, 0.014548277482390404, -0.00577777624130249, -0.0076637547463178635, 0.017862893640995026, -0.046732962131500244, -0.01671675592660904, 0.031792737543582916, 0.0064417533576488495, -0.036344289779663086, 0.044375162571668625, -0.02362377569079399, 0.0026153980288654566, 0.004575784783810377, -0.016457349061965942, -0.0172961987555027, 0.04106135293841362, -0.02112048864364624, 0.025084491819143295, -0.014068897813558578, -0.041501808911561966, 0.003614370711147785, 0.031397826969623566, 0.005699435248970985, 0.022023214027285576, 0.007327626924961805, 0.029432358220219612, -0.014154515229165554, -0.02549777366220951, -0.0021429890766739845, 0.004594608210027218, 0.0026774017605930567, -0.023421911522746086, 0.02293913997709751, -0.0033042412251234055, -0.038432009518146515, -0.005446212831884623, -0.0051131234504282475, -0.004871389828622341, 0.000999448704533279, 0.009898834861814976, -0.014596457593142986, -0.019825035706162453, 0.009048203937709332, 0.002210382604971528], "blocks.0.attn.proj.bias": [0.0, 0.0, 0.0, 0.0, 0.0, 0.0, 0.0, 0.0], "blocks.0.attn.q_norm.weight": [1.0, 1.0, 1.0, 1.0], "blocks.0.attn.k_norm.weight": [1.0, 1.0, 1.0, 1.0], "blocks.0.mlp.gate_proj.weight": [-0.008812814019620419, 0.005711824633181095, 0.0029405199456959963, 0.014103625901043415, 0.025081314146518707, 0.01612013392150402, 0.007601950783282518, 0.01374445203691721, 0.03724094480276108, 0.021107938140630722, -0.00698850629851222, 0.012652356177568436, 0.026006383821368217, -0.027960941195487976, 0.020102785900235176, 0.02597731724381447, -0.01875469461083412, 0.0032600625418126583, 0.0021464808378368616, 0.00834553875029087, -0.0007053754525259137, -0.014413213357329369, -0.008398596197366714, 0.018298814073204994, 0.03974466398358345, 0.036086857318878174, -0.0066885435953736305, 0.018817152827978134, 0.0025362649466842413, -0.0012283644173294306, -0.008919372223317623, -0.010541225783526897, 0.017271382734179497, 0.005607294384390116, -0.005562434438616037, 0.0007305235485546291, -0.026624225080013275, -0.003256759373471141, -0.01844058558344841, 0.007390025071799755, -0.007527207024395466, 0.018173132091760635, -0.025931766256690025, -0.021996716037392616, -0.013124608434736729, 0.024502959102392197, -0.05544014647603035, -0.011052314192056656, -0.0002335274184588343, -0.017269456759095192, -0.003102291142567992, -0.01686098985373974, 0.0006517709698528051, -0.018492719158530235, 0.03547922149300575, -0.019769810140132904, 0.01239610742777586, 0.00788053683936596, -0.030167268589138985, -0.002306481823325157, 0.014706233516335487, -0.02520120143890381, -0.028718480840325356, -0.027842385694384575, -0.043130964040756226, 0.0063499221578240395, -0.008554636500775814, -0.005291262175887823, -0.015499306842684746, 0.02008906565606594, 0.019854366779327393, -0.030903207138180733, 0.013973025605082512, -0.0191427581012249, -0.020048540085554123, -0.039470914751291275, 0.010000628419220448, 0.0015936243580654263, -0.0023365928791463375, 0.02829078771173954, 0.02061775140464306, 0.002192989457398653, 0.019435042515397072, 0.02421274408698082, -0.039417196065187454, 0.014864598400890827, -0.01159654464572668, -0.019433842971920967, -0.02001493237912655, -0.0047264089807868, 0.016352316364645958, -0.003007614053785801, -0.021714577451348305, -0.03474992513656616, -0.0028282299172133207, -0.02070477046072483], "blocks.0.mlp.gate_proj.bias": [0.0, 0.0, 0.0, 0.0, 0.0, 0.0, 0.0, 0.0, 0.0, 0.0, 0.0, 0.0], "blocks.0.mlp.up_proj.weight": [-0.02891424112021923, -0.021710366010665894, 0.029424816370010376, -0.016034835949540138, -0.02126639150083065, -0.032736245542764664, 0.021711505949497223, 0.02401256188750267, -0.02839154191315174, 0.01388854905962944, 0.020462049171328545, -0.035523053258657455, -0.02855599857866764, 0.008603500202298164, 0.004261768888682127, -0.011602429673075676, -0.002217275323346257, 0.0036040886770933867, -0.05164909362792969, -0.01101534441113472, 0.02040494605898857, 0.014646681025624275, -0.01817385107278824, 0.011136192828416824, 0.029075803235173225, -0.014883233234286308, 0.005035705864429474, -0.007159489672631025, -0.010622648522257805, 0.021953808143734932, 0.008357134647667408, 0.013014644384384155, -0.01498432643711567, -0.004277033265680075, -0.0005779467755928636, 0.009962992742657661, 0.01636870950460434, 0.03488292545080185, 0.012564371339976788, 0.03049340844154358, -0.012323116883635521, -0.013218381442129612, -0.027566829696297646, -0.02182534895837307, -0.029092835262417793, 0.010558327659964561, 0.0004258457338437438, -0.027903320267796516, -0.018245432525873184, 0.0053675174713134766, 0.032643042504787445, 0.0049512023106217384, 0.004181649070233107, -0.022920772433280945, 0.010033839382231236, -0.01415198389440775, -0.007981068454682827, 0.007402397692203522, 0.020351137965917587, 0.009691894054412842, 0.04480202868580818, 0.0015254744794219732, -0.006607327144593, -0.0249490849673748, -0.024546431377530098, 0.012128474190831184, 0.0013659108662977815, -0.02187693864107132, -0.003969354089349508, -0.0016033860156312585, -0.01495592575520277, 0.021093863993883133, -0.0023443165700882673, 0.006993850693106651, 0.003927659709006548, -0.017657533288002014, -0.0023301471956074238, 0.04129838943481445, -0.003009963082149625, 0.017996758222579956, 0.03198199346661568, 0.008702096529304981, -0.032599616795778275, 0.0074728429317474365, -0.02739984728395939, -0.03089923970401287, -0.016977503895759583, -0.012662083841860294, -0.011481229215860367, -0.01192904356867075, -0.006460736971348524, -0.006984562147408724, 0.01966782473027706, -0.025900397449731827, -0.028887761756777763, -0.03963503614068031], "blocks.0.mlp.up_proj.bias": [0.0, 0.0, 0.0, 0.0, 0.0, 0.0, 0.0, 0.0, 0.0, 0.0, 0.0, 0.0], "blocks.0.mlp.down_proj.weight": [-0.004686877131462097, 0.00741469906643033, -0.017529048025608063, 0.01509956456720829, -0.02181825041770935, 0.02091081254184246, 0.016847670078277588, 0.03067195601761341, 0.01172855868935585, -0.02588716521859169, -0.001295206369832158, 0.030188046395778656, 0.001178451580926776, -0.007847696542739868, -0.03073115088045597, -0.019944265484809875, -0.0014194730902090669, 0.016669047996401787, 0.04195111244916916, -0.005345440469682217, 0.004009249620139599, -0.003468234557658434, -0.018515879288315773, -0.021109148859977722, 0.02099013328552246, -0.038422372192144394, 0.004750922322273254, 0.0342247448861599, 0.02129637822508812, 0.011456663720309734, -0.00857420265674591, 0.014643805101513863, 0.029212987050414085, -0.031309790909290314, 0.006937901023775339, -0.0056716869585216045, 0.011888943612575531, 0.03933972865343094, -0.04706193506717682, -0.017569927498698235, 0.0024198766332119703, 0.0032561246771365404, -0.03816467151045799, 0.00301584554836154, -0.009627556428313255, -0.01902633346617222, 0.03559378534555435, -0.031665217131376266, 0.011425195261836052, 0.018091510981321335, -0.01211601123213768, 0.017204994335770607, 0.02523612044751644, -0.028413470834493637, 0.006301241926848888, -0.005267373751848936, 0.02033454179763794, 0.017121776938438416, -0.045230865478515625, -0.02145538292825222, 0.03640202805399895, -0.009979850612580776, 0.019619004800915718, -0.04759681224822998, -0.0006726502324454486, 0.007916255854070187, -0.015390094369649887, 0.01122426800429821, -0.017538070678710938, -0.004678839351981878, -0.01886845752596855, 0.028047863394021988, -0.011654014699161053, -0.002605750458315015, -0.014711849391460419, -0.05002965033054352, 0.0011143286246806383, 0.0060005197301507, 0.0022981162182986736, -0.011382044292986393, -0.02156088873744011, 0.027038509026169777, -0.013892199844121933, 0.000538707128725946, 0.00012664990208577365, 0.00038698158459737897, -0.0011881786631420255, -0.021149208769202232, -0.017024151980876923, -0.011612877249717712, 0.021226877346634865, -0.0143022071570158, 0.02176717482507229, 0.01789616234600544, -0.05607769265770912, -0.006688022520393133], "blocks.0.mlp.down_proj.bias": [0.0, 0.0, 0.0, 0.0, 0.0, 0.0, 0.0, 0.0], "blocks.1.norm1.weight": [1.0, 1.0, 1.0, 1.0, 1.0, 1.0, 1.0, 1.0], "blocks.1.norm2.weight": [1.0, 1.0, 1.0, 1.0, 1.0, 1.0, 1.0, 1.0], "blocks.1.attn.qkv.weight": [0.03520224988460541, 0.024640195071697235, 0.020306270569562912, -0.026802195236086845, 0.017542527988553047, 0.006989801302552223, 0.032102108001708984, 0.017206862568855286, 0.01625767908990383, -0.007479106541723013, 0.013171120546758175, 0.02957627922296524, -0.013187112286686897, 0.011798047460615635, -0.031922269612550735, -0.0039067440666258335, -0.03298160061240196, -0.014099227264523506, -0.006588193587958813, -0.014240371063351631, 0.00819746870547533, 0.018712205812335014, -0.004521477036178112, -0.0137092350050807, -0.007326433900743723, 0.01726711541414261, -0.01816241256892681, 0.03633226826786995, 0.007327636703848839, -0.0130003048107028, -0.005678126122802496, 0.01023756992071867, -0.0028731331694871187, 0.011160269379615784, 0.020562052726745605, 0.01080568041652441, 0.002291361801326275, -0.008255528286099434, -0.017278384417295456, 0.012113911099731922, 0.02385067008435726, -0.0008627558127045631, 0.0061634862795472145, 0.04120796173810959, -0.014668415300548077, -0.001912265201099217, -0.02641865983605385, -0.005447805393487215, -0.015294643118977547, -0.0098736472427845, 0.008815815672278404, 0.00132176058832556, -0.011183156631886959, -0.01764168031513691, -0.011654834263026714, -0.03268463909626007, -0.019634386524558067, -0.00241179671138525, -0.023603403940796852, -0.004605873487889767, -0.02384605072438717, -0.014901426620781422, -0.005818837787955999, -0.014238421805202961, -0.005484295543283224, 0.007840088568627834, -0.012881645001471043, -0.04632553085684776, 0.027985582128167152, 0.006265080533921719, 0.029504863545298576, -0.0049641914665699005, 0.03407873585820198, 0.009176508523523808, -0.025408774614334106, 0.0010939834173768759, 0.0016546092228963971, -0.01692182756960392, -0.018980519846081734, 0.021074021235108376, -0.005849139764904976, 0.018430551514029503, -0.01812456175684929, -0.0023643269669264555, -0.0063593038357794285, -0.004126504063606262, 0.0065617635846138, -0.005545490887016058, -0.008527658879756927, -0.012013767845928669, -0.0029767360538244247, -0.02700985223054886, -0.006207954604178667, 0.00729075912386179, 0.014441062696278095, -0.008221689611673355, -0.014275356195867062, 0.004603349603712559, 0.0439801886677742, -0.011036485433578491, 0.032424431294202805, -0.0265569556504488, -0.045643601566553116, 0.002824656665325165, -0.01605985313653946, 0.00437126075848937, 0.03828603774309158, 0.0007104509277269244, -0.007321842946112156, 0.0027007495518773794, 0.007968616671860218, -0.01672229915857315, -0.02162851020693779, -0.016076261177659035, 0.009560806676745415, 0.002643788466230035, 0.005676853004842997, -0.007462335750460625, 0.00026556136435829103, -0.01025041751563549, -4.2162620957242325e-05, -0.01792185939848423, 0.011428417637944221, -0.013538416475057602, -0.059501174837350845, 0.010895686224102974, 0.007875069044530392, -0.027707712724804878, 0.021542353555560112, 0.010355031117796898, -0.022480158135294914, -0.026623526588082314, -0.004891862627118826, -0.02406928688287735, 0.026010286062955856, 0.03233477100729942, 0.019454896450042725, -0.010444007813930511, 1.1526723028509878e-05, 0.005318669602274895, -0.01445300504565239, -0.006341696251183748, 0.009155874140560627, 0.013213323429226875, 0.014792179688811302, 0.037036970257759094, -0.007044913247227669, -0.03737848252058029, 0.013347291387617588, 0.028230031952261925, 0.025350339710712433, -0.00786389596760273, -0.01404699869453907, 0.0443556010723114, 0.006666603963822126, 0.03815584257245064, -0.008940302766859531, 0.020278355106711388, 0.005765234585851431, -0.002944184700027108, -0.017842352390289307, -0.007566170301288366, -0.003327132435515523, 0.005851096007972956, 0.027868611738085747, -0.007006547879427671, 0.028928620740771294, 0.0016035594744607806, -0.005257696844637394, -0.010678526014089584, -0.012039893306791782, 0.0016149540897458792, -0.03452005609869957, -0.006476351525634527, -0.005255367141216993, 0.034345101565122604, 0.010111154057085514, -0.01843414083123207, -0.0011971057392656803, 0.010925873182713985, 0.03669360652565956, 0.022779909893870354, -0.009827611967921257, 0.001063792617060244, -0.011409386992454529, -0.044656962156295776, 0.0010869498364627361, 0.007683212403208017, 0.012078780680894852, -0.02143837697803974, -0.004549916833639145, -0.013527150265872478], "blocks.1.attn.qkv.bias": [0.0, 0.0, 0.0, 0.0, 0.0, 0.0, 0.0, 0.0, 0.0, 0.0, 0.0, 0.0, 0.0, 0.0, 0.0, 0.0, 0.0, 0.0, 0.0, 0.0, 0.0, 0.0, 0.0, 0.0], "blocks.1.attn.proj.weight": [-0.01746082305908203, -0.05389334261417389, -0.027331046760082245, -0.02274234965443611, -0.022930890321731567, 0.010571315884590149, -0.0009171828278340399, -0.03723040223121643, -0.018384668976068497, -0.01417937409132719, -0.011001771315932274, 0.01599070057272911, 0.026441454887390137, 0.010001937858760357, -0.0005815045442432165, 0.010787793435156345, -0.03543470799922943, 0.013709891587495804, 0.025105297565460205, -0.0028686258010566235, 0.0037784825544804335, -0.027783788740634918, -0.0017298334278166294, -0.009836907498538494, -0.020370807498693466, -0.0020481273531913757, 0.017636271193623543, 0.0023192954249680042, 0.0037249913439154625, 0.020436367020010948, 0.036926738917827606, -0.021646779030561447, -0.026813188567757607, -0.005551518872380257, 0.014826826751232147, 0.01202042680233717, 0.021639330312609673, 0.005527723114937544, 0.0032478938810527325, 0.0003377271059434861, -0.014699089340865612, 0.023655373603105545, -0.020480921491980553, 0.01920204423367977, -0.004990376532077789, 0.028413882479071617, -0.04727130010724068, -0.03333521634340286, -0.033199794590473175, 0.006219491362571716, -0.017482390627264977, -0.005803395994007587, -0.005124830640852451, 0.060980286449193954, 0.00977623276412487, 0.0203144159168005, 0.006241571623831987, -0.001830036286264658, -0.004908681847155094, -0.018189147114753723, -0.025406397879123688, -0.01889180578291416, -0.016806475818157196, -0.0028804747853428125], "blocks.1.attn.proj.bias": [0.0, 0.0, 0.0, 0.0, 0.0, 0.0, 0.0, 0.0], "blocks.1.attn.q_norm.weight": [1.0, 1.0, 1.0, 1.0], "blocks.1.attn.k_norm.weight": [1.0, 1.0, 1.0, 1.0], "blocks.1.mlp.gate_proj.weight": [-0.05129460617899895, 0.014399614185094833, 0.04367499798536301, 0.0013283193111419678, -0.06332588940858841, 0.0055307201109826565, 0.038291241973638535, 0.01953699439764023, 0.013151799328625202, -0.00011308042303426191, 0.0007165976567193866, -0.017687002196907997, -0.001990147866308689, 0.011655360460281372, -0.006572611164301634, -0.020824961364269257, 0.005446308292448521, -0.03239000216126442, 0.03799574822187424, 0.014786390587687492, -0.01024341769516468, -0.008308224380016327, -0.014940440654754639, -0.011129644699394703, -0.00031727718305774033, -0.020838774740695953, -0.009512955322861671, 0.033309873193502426, -0.0016293026274070144, 0.005472909193485975, 0.007610863074660301, -0.022700143977999687, 0.00095557194435969, -0.01566815935075283, -0.029850246384739876, -0.00858350470662117, 0.0012943166075274348, -0.007486205082386732, -0.010368172079324722, 0.01339168194681406, -0.001538377720862627, 0.0034151014406234026, -0.00873179268091917, 0.004775365348905325, 0.004104464780539274, -0.01154510397464037, 0.016483888030052185, 0.007644634693861008, -0.023176902905106544, -0.01669749990105629, 0.0010008231038227677, -0.002315669320523739, 0.010470522567629814, -0.02711021900177002, -0.0013555344194173813, -0.014154402539134026, -0.005254343617707491, 0.02697388082742691, -0.006766943726688623, 0.013171141035854816, -0.010363234207034111, 0.027460942044854164, 0.009560140781104565, 0.015617609024047852, -0.007465685252100229, -0.032198693603277206, 0.005928938277065754, 0.01638309471309185, -0.029518328607082367, -0.010288605466485023, -0.02147546410560608, 0.015186753123998642, 0.02724483236670494, -0.036283522844314575, 0.021011054515838623, -0.011544918641448021, 0.0043528079986572266, -0.014356093481183052, -0.013944652862846851, 0.010591755621135235, -0.009741478599607944, -0.003585196565836668, 0.03505298122763634, -0.012125268578529358, -0.0059053716249763966, 0.02278454788029194, -0.011538458988070488, -0.02761164680123329, -0.008427707478404045, 0.02429114282131195, -0.01564309187233448, -0.03857729211449623, 0.03280583769083023, -0.028139948844909668, 0.009707814082503319, 0.015317784622311592], "blocks.1.mlp.gate_proj.bias": [0.0, 0.0, 0.0, 0.0, 0.0, 0.0, 0.0, 0.0, 0.0, 0.0, 0.0, 0.0], "blocks.1.mlp.up_proj.weight": [0.010367603972554207, 0.01313750259578228, -0.01592906564474106, -0.00460258312523365, 0.038194697350263596, 0.012984774075448513, -0.014405123889446259, 0.016222966834902763, 0.007865776307880878, -0.005644459743052721, 0.019682463258504868, -0.010960482060909271, 0.020748097449541092, 0.00594351114705205, -0.025981862097978592, -0.024260560050606728, 0.0015820346307009459, -0.0028652308974415064, 0.008750798180699348, -0.006162465550005436, 0.005150195211172104, -0.001785612665116787, -0.005405350122600794, -0.017456598579883575, 0.029013309627771378, 0.026134856045246124, -0.008919576182961464, 0.020371656864881516, 0.029102960601449013, -0.03929072245955467, 0.01712680794298649, 0.03192555904388428, 0.01748785190284252, 0.030185991898179054, 0.02204921469092369, -0.011531397700309753, -0.006247677840292454, 0.0007441571797244251, -0.00035879379720427096, 0.005140966735780239, 0.00838725920766592, -0.030878275632858276, -0.03885963186621666, 0.0016096108593046665, 0.004166910890489817, 0.0035998986568301916, -0.0038741412572562695, -0.03577505052089691, 0.03241360932588577, 8.603344758739695e-05, -0.02682792767882347, 0.030231017619371414, 0.03787941113114357, 0.017921103164553642, 0.02777010202407837, -0.02312386780977249, -0.0020570699125528336, 0.012817823328077793, -0.014718708582222462, 0.008012286387383938, 0.00015333846386056393, 0.03153768554329872, -0.006059043109416962, -0.003977296873927116, -0.016132991760969162, 0.007816668599843979, -0.0206295195966959, 0.02040455862879753, 0.008197586052119732, 0.029577570036053658, 0.00706293573603034, 0.01715834066271782, 0.008993479423224926, -0.01611623540520668, -0.009367601945996284, 0.0051018428057432175, -0.0007248165202327073, 0.001248920802026987, -0.01388161163777113, -0.015133094042539597, 0.00024274858878925443, 0.004947825334966183, 0.029920825734734535, 0.018872175365686417, 0.0017431225860491395, -0.008586632087826729, 0.005091431085020304, 0.012186464853584766, 0.014316784217953682, -0.019947286695241928, -0.00032411908614449203, 0.029633687809109688, 0.04598638415336609, 0.012596605345606804, 0.041860807687044144, 0.02283439040184021], "blocks.1.mlp.up_proj.bias": [0.0, 0.0, 0.0, 0.0, 0.0, 0.0, 0.0, 0.0, 0.0, 0.0, 0.0, 0.0], "blocks.1.mlp.down_proj.weight": [-0.02959495224058628, 0.010791934095323086, -0.016230765730142593, 0.021832264959812164, 0.0021922464948147535, 0.008357196114957333, 0.009513415396213531, -0.002635000506415963, 0.013783608563244343, -0.003201285842806101, -0.0009103763732127845, -0.02199358120560646, -0.026344262063503265, -0.027733029797673225, 0.017605673521757126, -0.029943551868200302, -0.012876613065600395, -0.015600722283124924, -0.004955851472914219, 0.0479653924703598, -0.026027996093034744, 0.010025047697126865, 0.004767796490341425, 0.023139020428061485, 0.021037757396697998, -0.013700226321816444, -0.009897369891405106, 0.0063539063557982445, 0.013302898965775967, -0.0060868458822369576, -0.01021602749824524, -0.01797339878976345, 0.021000761538743973, -0.03455294668674469, -0.017855336889624596, -0.005234661046415567, 0.015523216687142849, -0.003257803153246641, 0.007143610622733831, 0.002033570082858205, 0.0013912918511778116, -0.02374669536948204, 0.003742075990885496, -0.029851779341697693, -0.007000947371125221, 0.008453155867755413, -0.01801585592329502, -0.002473425818607211, -0.009428423829376698, -0.04140471667051315, -0.03874101862311363, 0.0029301245231181383, -0.016107920557260513, -0.00030471078935079277, 0.0259887482970953, -0.024683402851223946, -0.0026164522860199213, -0.007081365212798119, 0.029743146151304245, -0.022868623957037926, -0.004889718256890774, 0.03391608968377113, 0.02765817753970623, -0.02310146763920784, -0.022200945764780045, -0.02953522652387619, 0.02454724721610546, -0.013316522352397442, -0.014817736111581326, -0.011317442171275616, 0.021136345341801643, -0.0031001120805740356, 0.012786809355020523, 0.04259442165493965, -0.006761031225323677, -0.07470515370368958, -0.008271885104477406, 0.0005843975231982768, -0.0030457070097327232, -0.017211969941854477, -0.004380598198622465, -0.00023368143592961133, 0.0005856620264239609, -0.0116288335993886, 0.021830737590789795, 0.01697980985045433, -0.028716865926980972, -0.0251084566116333, 0.018876664340496063, -0.004158036783337593, -0.004167239647358656, -0.012776192277669907, -0.015198750421404839, 0.020384665578603745, -0.015574930235743523, 0.020226482301950455], "blocks.1.mlp.down_proj.bias": [0.0, 0.0, 0.0, 0.0, 0.0, 0.0, 0.0, 0.0], "merger.proj.weight": [0.0006930019007995725, -0.009355861693620682, 0.024773072451353073, 0.007007303182035685, -0.0038997589144855738, -0.005481373984366655, -0.023753395304083824, 0.010270349681377411, 0.04920937120914459, -0.0021442300640046597, 0.016099927946925163, 0.008522557094693184, -0.011313383467495441, 0.0026500863023102283, 0.013309099711477757, 0.04886983707547188, 0.03622101992368698, 0.0058868215419352055, -0.000697988725733012, -0.011797778308391571, 0.015790674835443497, -0.005773788783699274, 0.0037420480512082577, 0.024021362885832787, 0.018864648416638374, -0.01570739410817623, -0.02104663848876953, -0.01889689825475216, 0.004782649222761393, 0.011881566606462002, -0.022617515176534653, 0.004613435827195644, -0.004188912454992533, 0.005575510673224926, -0.055394284427165985, 0.017382986843585968], "merger.post_projection_norm.weight": [1.0, 1.0, 1.0, 1.0, 1.0, 1.0], "merger.post_projection_norm.bias": [0.0, 0.0, 0.0, 0.0, 0.0, 0.0], "merger.gate_proj.weight": [0.008386905305087566, 0.02831561118364334, 0.016346454620361328, 0.008219252340495586, 0.030180439352989197, -0.014739812351763248, 0.010405651293694973, 0.0009796301601454616, -0.009119879454374313, -0.019237587228417397, -0.024003891274333, -0.01197084877640009, -0.008125221356749535, -0.0005859973607584834, 0.0024105901829898357, 0.002212635474279523, -0.02781333588063717, -0.003942164126783609, -0.01812552846968174, -0.019509395584464073, 0.010552765801548958, 0.016353970393538475, -0.008857658132910728, -0.024477580562233925, 0.01878267340362072, 0.013570922426879406, 0.006386665627360344, -0.006854924373328686, 0.0096876947209239, -0.013734140433371067, 0.02258547954261303, -0.001210438902489841, 0.010504181496798992, 0.014417409896850586, 0.012160031124949455, -0.017060348764061928], "merger.up_proj.weight": [0.041268687695264816, -0.023638073354959488, 0.017760353162884712, -0.0022112797014415264, -0.0015974099515005946, 0.03043326549232006, -0.013895168900489807, 0.0033088212367147207, -0.03160827234387398, 0.0012807742459699512, -0.037742979824543, 0.00486941309645772, -0.0006333640194498003, -0.004011961631476879, -0.0034706329461187124, -0.014521939679980278, -0.009748960845172405, -6.197876791702583e-05, -0.042320821434259415, 0.013155966997146606, 0.02760273590683937, 0.03383636847138405, -0.009299693629145622, -0.002198623027652502, -0.002949301851913333, -0.01287788711488247, -0.015113435685634613, 0.02236315980553627, -0.014143621549010277, -0.008605987764894962, 0.0067980592139065266, 0.03285341337323189, -0.03607577085494995, 0.007447613403201103, -0.008332441560924053, 0.015170312486588955], "merger.down_proj.weight": [0.023845454677939415, -0.023217611014842987, 0.017496410757303238, 0.015199479646980762, 0.04208284616470337, 0.0047037941403687, -0.005200669169425964, 0.011546260677278042, 0.009126096963882446, -0.01579918898642063, -0.0024301509838551283, 0.02156001701951027, 0.0110029811039567, -0.003125159302726388, 0.047989461570978165, 0.005041040480136871, -0.0055826324969530106, 0.01653287187218666, 0.0006887282943353057, 0.0031011628452688456, -0.02037642151117325, 0.03502827510237694, 0.018837805837392807, 0.0007973920437507331, -0.027324693277478218, 0.009009507484734058, 0.0058686393313109875, 0.026104850694537163, 0.023793840780854225, 0.012406895868480206, 0.013327033258974552, -0.0044223591685295105, 0.009441579692065716, -0.004327076021581888, -0.011631118133664131, -0.007448282092809677], "downsample.weight": [-0.01829984225332737, 0.00016362319001927972, 0.007733023725450039, -0.012634364888072014, -0.018662897869944572, -0.01584799587726593, -0.014471382834017277, 0.033023618161678314, 0.028418604284524918, 0.0024789352901279926, 0.016356680542230606, -0.03306182101368904, -0.011770193465054035, 0.0022237314842641354, -0.013145286589860916, -0.01802358217537403, -0.01792014390230179, -0.012840642593801022, 0.03332199528813362, -0.01322999782860279, 0.01372095663100481, 0.003224775195121765, 0.01346797589212656, 0.02170691452920437, -0.03143611550331116, -0.039205703884363174, 0.03622007369995117, 0.022718772292137146, -0.035896603018045425, 0.012214098125696182, -0.0026818029582500458, 0.004776760004460812, 0.006009063683450222, -0.009282934479415417, 0.00944159273058176, -0.021545199677348137, -0.018444638699293137, 0.030154947191476822, 0.040459759533405304, -0.020529504865407944, -0.021750731393694878, 0.01884111762046814, -0.01624835468828678, -0.010656978003680706, 0.001384266302920878, 0.004198058042675257, -0.02452363260090351, 0.003812074661254883, 0.021264854818582535, -0.016261117532849312, 0.0014459571102634072, 0.00038540177047252655, 0.006511167157441378, 0.007935621775686741, 0.008579570800065994, 0.03460973873734474, -0.0043173059821128845, -0.006082504987716675, 0.021909622475504875, 0.023036515340209007, 0.02662290446460247, 0.006053035147488117, 0.01591283641755581, -0.00034810788929462433, 0.012478159740567207, 0.012956093065440655, -0.010941969230771065, 0.03908606991171837, -0.02317136898636818, -0.02668270468711853, 0.022021669894456863, 0.0033502918668091297, -0.006280600093305111, -0.0030944060999900103, 0.007214000448584557, 0.017438050359487534, 0.005157580133527517, 0.02286265604197979, 0.008222388103604317, 0.03232323005795479, -0.008813572116196156, 0.001421704888343811, 0.0297215785831213, -0.007201021071523428, 0.016878439113497734, 0.005128450691699982, -0.019539058208465576, 0.019677992910146713, -0.030338339507579803, -0.029965564608573914, 0.012974493205547333, -0.0026074855122715235, 0.016878223046660423, -0.0016347457421943545, 0.012964571826159954, 0.029299216344952583, 0.010988849215209484, 0.010997621342539787, -0.015123670920729637, -0.003325425321236253, 0.005555331707000732, 0.013065485283732414, 0.03501245379447937, -0.007886743173003197, -0.0072342525236308575, -0.01432663295418024, 0.0038092678878456354, -0.012689360417425632, 0.012973073869943619, 0.0021834594663232565, 0.011147236451506615, -0.010711676441133022, 0.005446343682706356, -0.02562531642615795, 0.035202667117118835, 0.009875313378870487, -0.0037086580414325, 0.029818812385201454, -0.02257564663887024, -0.01560489647090435, 0.02951526641845703, -0.018090426921844482, -0.009856021031737328, -0.0011309137335047126, 0.048132266849279404, 0.008026795461773872, 0.01627539098262787, 0.028336521238088608, -0.011349624022841454, -0.016488343477249146, 0.03113001585006714, -0.004046569112688303, 0.048920806497335434, -0.034929390996694565, -0.008557339198887348, 0.01506787072867155, 0.001044358708895743, 0.022935178130865097, -0.016909094527363777, -0.013179709203541279, 0.006297597195953131, 0.016800055280327797, 0.012839973904192448, 0.008157897740602493, -0.017935138195753098, -0.012405358254909515, 0.0026711367536336184, -0.02004368230700493, 0.014344322495162487, -0.02477908879518509, -0.014655446633696556, 0.014206943102180958, 0.01646456867456436, -0.01879388839006424, 0.03641023859381676, 0.00011726623051799834, 0.008811473846435547, 0.022503912448883057, -0.0065102409571409225, 0.0309128537774086, 0.08153412491083145, -0.0019967881962656975, 0.0014100080588832498, -0.02377716265618801, -0.036076296120882034, -0.006114085204899311, 0.004708748310804367, 0.032415617257356644, 0.028517398983240128, 0.022449275478720665, 0.0031520379707217216, -0.016673585399985313, -0.03171072155237198, 0.010693984106183052, -0.010479344055056572, -0.002984781516715884, -0.037264686077833176, -0.0038346995133906603, -0.040473468601703644, 0.0240581426769495, -0.025377485901117325, -0.03608304634690285, 0.0038607590831816196, -0.04285939782857895, 0.0010851832339540124, 0.0102991983294487, -0.025376006960868835, 0.006937805097550154, 0.0048644449561834335, -0.018130050972104073, 0.0061722081154584885, 0.017384879291057587], "downsample.bias": [0.0, 0.0, 0.0, 0.0, 0.0, 0.0], "post_layernorm.weight": [1.0, 1.0, 1.0, 1.0, 1.0, 1.0, 1.0, 1.0]}, "rotary_pos_emb": [0.0, 0.0, 0.0, 1.0, 1.0, 0.0, 1.0, 1.0, 0.0, 2.0, 0.0, 3.0, 1.0, 2.0, 1.0, 3.0, 2.0, 0.0, 2.0, 1.0, 3.0, 0.0, 3.0, 1.0, 2.0, 2.0, 2.0, 3.0, 3.0, 2.0, 3.0, 3.0], "pos_ids": [[0, 0], [0, 1], [1, 0], [1, 1], [0, 2], [0, 3], [1, 2], [1, 3], [2, 0], [2, 1], [3, 0], [3, 1], [2, 2], [2, 3], [3, 2], [3, 3]], "patch_embed_out": [0.036650750786066055, 0.14184238016605377, 0.16728295385837555, 0.11829137057065964, 0.1281304806470871, 0.02316894382238388, 0.006478399038314819, -0.04723096638917923, 0.11208821088075638, -0.0383971706032753, 0.0036063576117157936, 0.05900881439447403, 0.013301625847816467, -0.017033927142620087, 0.008948374539613724, -0.021288270130753517, -0.04297356680035591, 0.013739373534917831, -0.04360364377498627, -0.04713134095072746, 0.0007823258638381958, 0.040846697986125946, 0.029540276154875755, 0.03649670630693436, -0.05244855582714081, 0.022244581952691078, 0.10971937328577042, 0.10185375064611435, 0.011609453707933426, -0.024525493383407593, -0.10493236035108566, -0.05649469047784805, -0.08582034707069397, 0.021454181522130966, -0.04387287050485611, -0.02147812955081463, -0.01924276165664196, 0.08849768340587616, 0.016192089766263962, 0.0450061596930027, -0.05119670182466507, 0.038905881345272064, 0.02276911959052086, -0.05425015836954117, -0.013914568349719048, 0.037678372114896774, -0.08961699903011322, 0.06729044020175934, -0.06566167622804642, 0.010751571506261826, -0.06646215915679932, -0.01115509308874607, -0.005014235153794289, -0.0030916696414351463, 0.06633220613002777, -0.042902350425720215, 0.06932567059993744, 0.033686988055706024, 0.11571934074163437, 0.11470137536525726, 0.08123043924570084, 0.012016039341688156, 0.0764237493276596, -0.050040680915117264, -0.0150195537135005, 0.020493019372224808, -0.009350262582302094, -0.027734169736504555, -0.013232246041297913, 0.08092618733644485, -0.04802103340625763, 0.07075614482164383, -0.10809957981109619, 0.11683057993650436, 0.017206702381372452, -0.02812868356704712, 0.058084070682525635, 0.10665185749530792, 0.0014021433889865875, 0.06454002857208252, -0.00959155336022377, -0.03536040708422661, -0.06498448550701141, -0.05387239530682564, 0.004691543988883495, -0.08479522168636322, 0.049570634961128235, 0.02456654980778694, -0.019717443734407425, 0.03926227241754532, 0.013874448835849762, 0.00691402330994606, 0.035192735493183136, -0.012025570496916771, 0.03909529373049736, -0.004232708364725113, -0.03252161666750908, -0.08256998658180237, -0.06651294231414795, -0.043203968554735184, -0.09757991880178452, 0.08562623709440231, -0.1438438445329666, 0.039108019322156906, 0.04995960369706154, 0.01535271666944027, 0.018375514075160027, 0.097555011510849, 0.07265673577785492, -0.03375978395342827, 0.0746893584728241, -0.0560857318341732, 0.00967156607657671, -0.03483964502811432, -0.09751912951469421, -0.008771060034632683, -0.0005407072603702545, -0.019021809101104736, 0.13443656265735626, -0.031221488490700722, 0.023645959794521332, -0.019059527665376663, 0.03174230828881264, 0.020777540281414986, -0.02470753714442253, -0.02596372365951538, -0.0321800671517849, -0.05548756942152977], "block0_out": [0.035078421235084534, 0.14261937141418457, 0.16723375022411346, 0.12018907815217972, 0.1303343027830124, 0.024909481406211853, 0.006752938497811556, -0.04764357954263687, 0.11213330179452896, -0.0399225689470768, 0.0044068340212106705, 0.05753801763057709, 0.013521772809326649, -0.01634611375629902, 0.0090386513620615, -0.021753886714577675, -0.04401543363928795, 0.010762089863419533, -0.04435500130057335, -0.045919984579086304, 0.0013076825998723507, 0.043140895664691925, 0.030649660155177116, 0.03570159524679184, -0.05462125316262245, 0.018050799146294594, 0.10894987732172012, 0.1024802029132843, 0.013978912495076656, -0.020635902881622314, -0.10496987402439117, -0.056653209030628204, -0.08746744692325592, 0.02193806879222393, -0.044411323964595795, -0.01830235682427883, -0.01776677928864956, 0.09028791636228561, 0.016978712752461433, 0.04433629289269447, -0.05384180322289467, 0.03661608323454857, 0.022086413577198982, -0.05189044401049614, -0.011616848409175873, 0.041164204478263855, -0.08940931409597397, 0.0669262632727623, -0.06721843034029007, 0.01132735051214695, -0.06682941317558289, -0.008839346468448639, -0.0030938556883484125, -0.0014551833737641573, 0.06654167175292969, -0.043370869010686874, 0.0676429495215416, 0.033617641776800156, 0.11544686555862427, 0.11602505296468735, 0.08348830044269562, 0.014125173911452293, 0.07686875760555267, -0.050385065376758575, -0.015887638553977013, 0.018316753208637238, -0.010109586641192436, -0.02771848626434803, -0.013077403418719769, 0.08252950012683868, -0.04768718406558037, 0.0708206444978714, -0.1095043420791626, 0.11579114943742752, 0.016100633889436722, -0.025952473282814026, 0.05873611941933632, 0.10804271697998047, 0.0012167827226221561, 0.06472168117761612, -0.010842815972864628, -0.03670911863446236, -0.0657258927822113, -0.052662335336208344, 0.006237223278731108, -0.08282168954610825, 0.04915731027722359, 0.024723650887608528, -0.020900914445519447, 0.03875059634447098, 0.012583245523273945, 0.009260340593755245, 0.035836055874824524, -0.010426877066493034, 0.03998029977083206, -0.00478848023340106, -0.031719326972961426, -0.08494479209184647, -0.06634791195392609, -0.04468648135662079, -0.09934601932764053, 0.08631160110235214, -0.14332512021064758, 0.03854905813932419, 0.048215851187705994, 0.015534378588199615, 0.01779031567275524, 0.09962163120508194, 0.07440607249736786, -0.03179922327399254, 0.07474279403686523, -0.05614900216460228, 0.008125964552164078, -0.034471411257982254, -0.09873801469802856, -0.005374934524297714, 0.0007930555730126798, -0.017590340226888657, 0.13505516946315765, -0.03152792155742645, 0.022960299625992775, -0.02182287722826004, 0.03130705654621124, 0.0211196169257164, -0.023918215185403824, -0.023689011111855507, -0.03144020959734917, -0.056431844830513], "block1_out": [0.035855330526828766, 0.1437574028968811, 0.1688258945941925, 0.12111035734415054, 0.13161912560462952, 0.025727776810526848, 0.006465058773756027, -0.04832460731267929, 0.1121126338839531, -0.03873392567038536, 0.006469808053225279, 0.058172374963760376, 0.014943239279091358, -0.016335219144821167, 0.007009944412857294, -0.022643083706498146, -0.045443419367074966, 0.01169231254607439, -0.04393057897686958, -0.044806528836488724, 0.0027920324355363846, 0.04236357659101486, 0.029489926993846893, 0.03430017828941345, -0.05543077364563942, 0.018202373757958412, 0.10994965583086014, 0.10250149667263031, 0.014166024513542652, -0.021734202280640602, -0.10716064274311066, -0.056773316115140915, -0.08865410089492798, 0.022504029795527458, -0.04376007616519928, -0.017306355759501457, -0.016599249094724655, 0.08903885632753372, 0.01521903183311224, 0.043305180966854095, -0.05480385199189186, 0.03630400449037552, 0.022942688316106796, -0.05093156546354294, -0.010656864382326603, 0.03975408524274826, -0.09245530515909195, 0.06610982120037079, -0.06794509291648865, 0.012182807549834251, -0.06644362211227417, -0.008032184094190598, -0.0018569084350019693, -0.001741599291563034, 0.0663490816950798, -0.044334668666124344, 0.06704728305339813, 0.03461483493447304, 0.11739291995763779, 0.11687829345464706, 0.08509614318609238, 0.01194570679217577, 0.07468772679567337, -0.05139221251010895, -0.015843814238905907, 0.01820356771349907, -0.010138671845197678, -0.02697869949042797, -0.012905873358249664, 0.08264938741922379, -0.04839538410305977, 0.0703287124633789, -0.11019404977560043, 0.11598885804414749, 0.01638817973434925, -0.024640468880534172, 0.0595310814678669, 0.10750261694192886, -0.00011182572052348405, 0.06396140903234482, -0.011607364751398563, -0.0357297882437706, -0.06486015766859055, -0.05172615870833397, 0.007583795581012964, -0.08384561538696289, 0.04800550267100334, 0.023603182286024094, -0.021792516112327576, 0.03914310410618782, 0.013036384247243404, 0.010461743921041489, 0.0367741584777832, -0.01109674759209156, 0.038913529366254807, -0.005443687550723553, -0.0315752848982811, -0.08377636969089508, -0.06605491042137146, -0.04420343041419983, -0.09857611358165741, 0.08707745373249054, -0.1421545296907425, 0.03789247199892998, 0.04663481190800667, 0.016466261819005013, 0.019732549786567688, 0.10077159851789474, 0.07640402764081955, -0.034639324992895126, 0.07129383087158203, -0.05763673409819603, 0.008315159007906914, -0.0332697369158268, -0.09786491096019745, -0.003967850469052792, 0.0024922259617596865, -0.01702461764216423, 0.13482259213924408, -0.03282751515507698, 0.022960903123021126, -0.02050047740340233, 0.03163493052124977, 0.021762581542134285, -0.02311454899609089, -0.0232713483273983, -0.030657000839710236, -0.05703001841902733], "post_layernorm_out": [0.34669893980026245, 1.390045404434204, 1.6324422359466553, 1.1710624694824219, 1.2726757526397705, 0.24877172708511353, 0.06251312792301178, -0.4672691524028778, 2.323395013809204, -0.8027124404907227, 0.1340787261724472, 1.205550193786621, 0.3096800446510315, -0.338527113199234, 0.1452723890542984, -0.46924975514411926, -1.2809884548187256, 0.32959046959877014, -1.238343596458435, -1.2630354166030884, 0.0787036120891571, 1.1941719055175781, 0.8312811255455017, 0.9668756127357483, -0.7699921131134033, 0.2528502345085144, 1.5273171663284302, 1.4238543510437012, 0.19678108394145966, -0.3019110858440399, -1.488574743270874, -0.7886414527893066, -1.7315531969070435, 0.4395388662815094, -0.8547026515007019, -0.3380201756954193, -0.3242092728614807, 1.7390680313110352, 0.29725146293640137, 0.8458178639411926, -1.0418936014175415, 0.6901870369911194, 0.4361707866191864, -0.96827632188797, -0.20260106027126312, 0.7557776570320129, -1.757697343826294, 1.2568349838256836, -1.5338200330734253, 0.27501964569091797, -1.4999252557754517, -0.18132178485393524, -0.04191860556602478, -0.03931557014584541, 1.497791051864624, -1.000828742980957, 0.8582887649536133, 0.4431129992008209, 1.5027756690979004, 1.4961878061294556, 1.089336633682251, 0.1529199331998825, 0.9560959339141846, -0.6578843593597412, -0.35675349831581116, 0.40988782048225403, -0.22829140722751617, -0.607476532459259, -0.2906002104282379, 1.861007571220398, -1.0897138118743896, 1.5835843086242676, -1.4572614431381226, 1.5338948965072632, 0.21672551333904266, -0.32585790753364563, 0.787268877029419, 1.421668529510498, -0.0014788394328206778, 0.8458577394485474, -0.24253812432289124, -0.7465808391571045, -1.355265498161316, -1.080828070640564, 0.15846487879753113, -1.7519702911376953, 1.0030843019485474, 0.4931930601596832, -0.8398942947387695, 1.5085945129394531, 0.5024286508560181, 0.40320077538490295, 1.4172941446304321, -0.4276741147041321, 1.499746561050415, -0.20980240404605865, -0.386633962392807, -1.0258272886276245, -0.8088310956954956, -0.5412634611129761, -1.207047700881958, 1.0662485361099243, -1.740657925605774, 0.4639868438243866, 0.7811557054519653, 0.27581787109375, 0.3305297791957855, 1.687973141670227, 1.2798044681549072, -0.5802254676818848, 1.1942062377929688, -0.9654431939125061, 0.1348894089460373, -0.5397052764892578, -1.5875751972198486, -0.0643668994307518, 0.04042915999889374, -0.27617520093917847, 2.1871068477630615, -0.5325314998626709, 0.7367573380470276, -0.6578084826469421, 1.0150848627090454, 0.6983062028884888, -0.7416874170303345, -0.74671870470047, -0.9837056398391724, -1.8299490213394165], "downsample_out": [-0.0815732553601265, -0.038647234439849854, 0.04599668085575104, -0.06097590923309326, -0.010553384199738503, -0.045403242111206055, 0.021900348365306854, 0.11952438950538635, 0.10760629177093506, 0.025946421548724174, 0.10331683605909348, -0.3354457914829254, 0.047075673937797546, 0.1480567753314972, 0.008494097739458084, 0.05375205725431442, 0.04126271978020668, -0.0496692955493927, -0.04531657695770264, -0.004293680191040039, 0.12466440349817276, -0.2332984209060669, -0.020832110196352005, -0.06457015872001648], "merger_out": [-2.9127586458344012e-06, -1.7979095900955144e-07, -1.1923943930014502e-06, 1.4364303524416755e-08, 1.1114346989415935e-06, -4.3169058017156203e-07, -5.61054730496835e-06, -1.3207899201006512e-06, 5.202643933444051e-06, -7.451052169926697e-06, -1.734879879222717e-05, 8.222053111239802e-06, -2.3309098651225213e-06, -4.560612978821155e-06, -2.9473574159055715e-07, 1.0602552720229141e-06, -4.268209067959106e-06, 3.0367393719643587e-06, -1.0159599696635269e-05, 5.671643975801999e-06, -8.586498552176636e-07, -4.369859198050108e-06, 5.800751750939526e-06, -3.5955440580437426e-06], "last_hidden_state": [-0.0815732553601265, -0.038647234439849854, 0.04599668085575104, -0.06097590923309326, -0.010553384199738503, -0.045403242111206055, 0.021900348365306854, 0.11952438950538635, 0.10760629177093506, 0.025946421548724174, 0.10331683605909348, -0.3354457914829254, 0.047075673937797546, 0.1480567753314972, 0.008494097739458084, 0.05375205725431442, 0.04126271978020668, -0.0496692955493927, -0.04531657695770264, -0.004293680191040039, 0.12466440349817276, -0.2332984209060669, -0.020832110196352005, -0.06457015872001648], "pooler_output": [-2.9127586458344012e-06, -1.7979095900955144e-07, -1.1923943930014502e-06, 1.4364303524416755e-08, 1.1114346989415935e-06, -4.3169058017156203e-07, -5.61054730496835e-06, -1.3207899201006512e-06, 5.202643933444051e-06, -7.451052169926697e-06, -1.734879879222717e-05, 8.222053111239802e-06, -2.3309098651225213e-06, -4.560612978821155e-06, -2.9473574159055715e-07, 1.0602552720229141e-06, -4.268209067959106e-06, 3.0367393719643587e-06, -1.0159599696635269e-05, 5.671643975801999e-06, -8.586498552176636e-07, -4.369859198050108e-06, 5.800751750939526e-06, -3.5955440580437426e-06]}, "rmsnorm": {"eps": 1e-06, "weight": [0.5, 1.0, 1.5, 2.0, 0.25], "input": [1.0, -2.0, 3.0, -4.0, 5.0, 0.10000000149011612, 0.20000000298023224, -0.30000001192092896, 0.4000000059604645, -0.5], "output": [0.15075567364692688, -0.6030226945877075, 1.3568010330200195, -2.41209077835083, 0.376889169216156, 0.15075498819351196, 0.6030199527740479, -1.3567949533462524, 2.4120798110961914, -0.3768874704837799], "dim": 5}, "text": {"config": {"vocab_size": 20, "hidden_size": 8, "intermediate_size": 12, "num_hidden_layers": 2, "num_attention_heads": 4, "num_key_value_heads": 2, "head_dim": 8, "rms_norm_eps": 1e-05, "hidden_act": "silu", "rope_theta": 10000.0, "mrope_section": [1, 1, 2], "partial_rotary_factor": 1.0}, "input_ids": [[3, 7, 11, 11, 11, 15]], "position_ids": [[[0, 1, 2, 2, 2, 5]], [[0, 1, 2, 2, 2, 5]], [[0, 1, 2, 3, 4, 5]]], "state_dict": {"embed_tokens.weight": [0.0, 0.0, 0.0, 0.0, 0.0, 0.0, 0.0, 0.0, -0.024370888248085976, 0.04224462807178497, 0.001167178968898952, 0.009555631317198277, -0.008229698054492474, 0.007092048414051533, 0.010108258575201035, 0.039697375148534775, -0.020013920962810516, 0.0067111412063241005, -0.012180406600236893, 0.008485534228384495, -0.008124646730720997, 0.0211693923920393, -0.004297961015254259, -0.01135579589754343, 0.013477436266839504, 0.0366579107940197, -0.002236484782770276, -0.006587819196283817, 0.004331695847213268, 0.005362424533814192, -0.010914069600403309, -0.01329326443374157, 0.014149770140647888, -0.0038631062489002943, 0.005441697314381599, 0.030079394578933716, 0.033418163657188416, 0.006557146552950144, 0.013404523953795433, -0.01967770792543888, 0.00942792184650898, -0.009618144482374191, 0.004360194783657789, 0.006407130975276232, 0.008213985711336136, -0.02151118777692318, -0.0006882927264086902, -0.03566350042819977, 0.006063174922019243, -0.004121941048651934, 0.00965681578963995, -0.020623691380023956, -0.00983735267072916, 0.0031772770453244448, -0.0071494546718895435, -0.010464193299412727, -0.0093410424888134, -0.006395634729415178, -0.042367734014987946, -0.00502622639760375, -0.00818451214581728, -0.012002048082649708, -0.02565929666161537, -0.011096549220383167, -0.011548751033842564, -0.01062194537371397, 0.004205339588224888, 0.001755900913849473, -0.023004582151770592, -0.037390608340501785, 0.01573953777551651, 0.01498838234692812, -0.039379723370075226, 0.041032638400793076, 0.009642201475799084, -0.014703599736094475, -0.027828030288219452, 0.030236560851335526, -0.010076693259179592, 0.009419580921530724, -0.021762916818261147, -0.0015509739750996232, -0.005914982408285141, 0.01766606979072094, 0.00805580522865057, 0.02369893714785576, 0.018668141216039658, 0.0002353195013711229, 0.021956000477075577, 0.018054980784654617, -0.011856943368911743, -0.01434350572526455, -0.0014126250753179193, -0.02360454574227333, 0.004063806030899286, 0.00679070595651865, 0.01521877758204937, -0.011175155639648438, -0.023881174623966217, -0.028304262086749077, 0.029201647266745567, 0.011293339543044567, -0.013782420195639133, 0.01122986525297165, -0.008494292385876179, 0.0006867409101687372, 0.013572225347161293, 0.023302046582102776, 0.008464338257908821, -0.015468568541109562, -0.015506546013057232, 0.015584301203489304, 0.03973747789859772, 0.012579485774040222, 0.014103068970143795, 0.009224003180861473, -0.0032431187573820353, 0.004011007957160473, -0.022024022415280342, 0.008290988393127918, -0.008833784610033035, -0.007933194749057293, -0.01012327615171671, -0.008075692690908909, -0.003908268641680479, -0.009857913479208946, -0.010632525198161602, 0.047866091132164, -0.006827948614954948, 0.006582662463188171, 0.00889433640986681, -0.03725086525082588, 0.01619921252131462, -0.03674417734146118, 0.049171268939971924, 0.03551144152879715, -0.006744511425495148, 0.01771671138703823, -0.021901793777942657, -0.0015527041396126151, 0.009111374616622925, -0.019727574661374092, -0.012636355124413967, 0.023398011922836304, 0.009433007799088955, 0.0048704263754189014, -0.0021101313177496195, -0.012913329526782036, 0.014224879443645477, 0.039743565022945404, 0.011415853165090084, 0.02667090855538845, 0.0040633296594023705, 0.020308345556259155, -0.01651514694094658, -0.005621468182653189, 0.04126471281051636, 0.00025425615604035556, 0.012937426567077637, 0.02196967601776123], "layers.0.self_attn.q_proj.weight": [0.009452803991734982, -0.01767982728779316, 0.028504103422164917, 0.02258250117301941, -0.017219441011548042, 0.01572500728070736, 0.010721411556005478, -0.023081490769982338, -0.004136709496378899, -0.026733096688985825, -0.003158256644383073, -0.0010303306626155972, -0.028159596025943756, -0.03132271394133568, -0.009954607114195824, -0.01110802497714758, 0.006144246552139521, -0.030526570975780487, -0.006344329100102186, 0.02505783922970295, -0.007423509377986193, 0.030566386878490448, 0.013588233850896358, -0.01574551872909069, -0.0209824126213789, 0.02901490591466427, -0.012533743865787983, 0.005527065135538578, -0.0006447868072427809, 0.020657705143094063, -0.012844904325902462, -0.01626121811568737, 0.03095308318734169, 0.014764588326215744, 0.005556540563702583, 0.004770942032337189, -0.005347356665879488, -0.021276814863085747, -0.011733121238648891, 0.006181064527481794, -0.007445007562637329, -0.0025418198201805353, 0.014692525379359722, -0.013040744699537754, 0.004640254657715559, 0.007979628629982471, -0.01627868041396141, 0.001675648964010179, 0.0036189653910696507, -0.04419541358947754, 0.012523372657597065, -0.005980274640023708, -0.0033130308147519827, 0.007827839814126492, 0.027888305485248566, -0.0021746151614934206, -0.007050103507936001, -0.0171363428235054, 0.02786707505583763, -0.002479185815900564, 0.014770829118788242, -0.027375631034374237, -0.012584482319653034, -0.01659325882792473, 0.02019248716533184, 0.006048589013516903, -0.016990138217806816, -0.007405607029795647, -0.0067374310456216335, 0.007327773608267307, -0.004548876080662012, 0.04809308052062988, -0.022494716569781303, 0.019798431545495987, -0.03484167158603668, -0.043900441378355026, 0.029248876497149467, 0.0383622907102108, 0.012809725478291512, -0.015594168566167355, 0.00957560446113348, -0.02295968309044838, 0.01663522981107235, 0.013313684612512589, -0.0031289441976696253, 0.018616201356053352, -0.007749710697680712, 0.013773588463664055, 0.009164656512439251, 0.028528548777103424, 0.033110689371824265, -0.010495663620531559, 0.0095237260684371, 0.006377218756824732, -0.02060781978070736, 0.0003720145614352077, -0.0225070808082819, 0.006154041271656752, 0.021242350339889526, -0.0039959866553545, 0.00012129786773584783, 0.019075239077210426, 0.00025987179833464324, 0.003653290681540966, 0.003360069589689374, -0.01621296815574169, -0.03816583752632141, -0.008462009951472282, -0.04009746015071869, 0.012786595150828362, -0.016971804201602936, -0.003142413217574358, 0.023874307051301003, 0.03100208193063736, 0.009857352823019028, 0.011148147284984589, -0.0030654503498226404, 0.03809231519699097, 0.00323704956099391, -0.002237101085484028, 0.021346265450119972, 0.0018276196205988526, -0.010877721942961216, 0.01968727633357048, 0.031511612236499786, 0.03989890590310097, 0.03195346146821976, 0.01983967050909996, 0.02866603247821331, 0.0022630253806710243, -0.011211458593606949, 0.013073399662971497, 0.02210121974349022, 0.009465903975069523, -0.027357671409845352, 0.002338172635063529, -0.023282963782548904, 0.027237894013524055, 0.04024543985724449, -0.004132261965423822, -0.034966256469488144, -0.011677778325974941, 0.014691391959786415, 0.02338765747845173, -0.014488337561488152, 0.00274181691929698, 0.04017111659049988, 0.001006280886940658, 0.01776931993663311, 0.016890961676836014, -0.026982750743627548, -0.012785294093191624, -0.01128207053989172, -0.021474238485097885, 0.005985070485621691, 0.020679600536823273, -0.025326814502477646, -0.013873821124434471, -0.01599888876080513, 0.012562546879053116, 0.00743062375113368, -0.002820705994963646, -0.014829249121248722, 0.0285128653049469, 0.030881311744451523, -0.028467828407883644, 0.02192571572959423, -0.015961764380335808, 0.03594202548265457, 0.006883410271257162, -0.017146607860922813, 0.03370468318462372, 0.009318358264863491, 0.0384662002325058, -0.00965084321796894, 0.007992871105670929, 0.0010439499747008085, 0.008321785368025303, -0.014178678393363953, -0.02097485028207302, 0.007624775171279907, -0.02856678143143654, 0.010912129655480385, -0.028820326551795006, 0.002247479511424899, -0.02067921683192253, -0.0540899783372879, -0.007844294421374798, 0.01855907216668129, 0.017070820555090904, -0.009916966781020164, -0.011271564289927483, -0.0056837755255401134, 0.0010200918186455965, 0.02066696807742119, -0.018687348812818527, 0.02214360423386097, -0.012370665557682514, -0.01188820693641901, -0.016415851190686226, 0.00464467192068696, -0.002096584066748619, 0.004810616839677095, 0.009542692452669144, 0.02152632176876068, -0.0011582989245653152, 0.008969887159764767, 0.012448938563466072, -0.014470715075731277, -0.0288581270724535, 0.01527381781488657, 0.0025017615407705307, 0.013932488858699799, 0.02590368501842022, 0.013820047490298748, 0.026179300621151924, 0.011679972521960735, 0.014631090685725212, -0.024884436279535294, -0.03559994697570801, 0.012973049655556679, 0.03744211792945862, -0.003002065932378173, -0.013674110174179077, -0.01235110778361559, 0.05074328929185867, -0.019174419343471527, 0.0031901225447654724, -0.025332674384117126, 0.00010783465404529124, 0.019323013722896576, -0.011345088481903076, 0.0433381125330925, -0.006689566187560558, -0.006424617022275925, -0.004711143672466278, 0.02700200304389, -0.015304652974009514, -0.010731293819844723, -0.007608553394675255, -0.019258415326476097, 0.008551296778023243, -0.008846165612339973, -0.0020920932292938232, 0.004052274394780397, -0.02452148124575615, 0.024958720430731773, 0.001201178296469152, 0.004928876180201769, -0.016706058755517006, 0.002621800871565938, 0.03707156330347061, 0.04228173941373825, 0.003505933564156294, -0.03411749750375748, 0.013898327015340328], "layers.0.self_attn.k_proj.weight": [-0.020448628813028336, -0.004563925322145224, -0.014072260819375515, 0.004875672981142998, -0.002997281728312373, -0.0046753487549722195, -0.006892630364745855, -0.036076970398426056, -0.02474769577383995, -0.009795151650905609, -0.011709899641573429, 0.019432228058576584, 0.011780722998082638, 0.018936356529593468, 0.017115792259573936, -0.0006309644086286426, -0.033357348293066025, 0.0024250319693237543, 0.012165360152721405, -0.007903781719505787, -0.008429235778748989, -0.00621077511459589, -0.007708679884672165, 0.005121888592839241, 0.03178315982222557, -0.02322498895227909, 0.0037513987626880407, -0.011653648689389229, 0.023702293634414673, -0.006654299329966307, 0.014378288760781288, 0.021872004494071007, -0.014724536798894405, 0.009849056601524353, 0.01596163399517536, 0.017651773989200592, 0.0393533818423748, 0.01073266938328743, 0.006807759404182434, 0.010430514812469482, -0.03369516879320145, 0.021368473768234253, 0.00448558060452342, -0.0031972199212759733, -0.016406705603003502, 0.023275448009371758, 0.005229990929365158, -0.04406001791357994, 0.005866913590580225, -0.014622332528233528, -0.01253028679639101, -0.012011234648525715, -0.0055778054520487785, -0.013777999207377434, 0.0035916396882385015, -0.03917767107486725, 0.012067226693034172, 0.008051990531384945, 0.011941766366362572, 0.018450403586030006, 0.01641218177974224, 0.003159160492941737, -0.029410898685455322, 0.004041609819978476, -0.010878698900341988, -0.01068389043211937, 0.03939776495099068, -0.01604313962161541, 0.004846221301704645, -0.030697550624608994, 0.0017742307391017675, 0.023696688935160637, -0.01347560714930296, 0.025894977152347565, 0.009484325535595417, 0.026429271325469017, -0.0012567397207021713, -0.0374588742852211, 0.009125676937401295, -0.019586924463510513, 0.0062562949024140835, -0.013423283584415913, 0.0021537260618060827, 0.016589976847171783, 0.009908047504723072, 0.00874447450041771, 0.007287960033863783, 0.01812477968633175, -0.010013742372393608, -0.036458127200603485, -0.018523557111620903, 0.004189792089164257, -0.00744808791205287, 0.032602421939373016, -0.014797031879425049, -0.050964973866939545, -0.019368432462215424, -0.020487966015934944, -0.04061964526772499, 0.006014544982463121, -0.008896280080080032, -0.0044950395822525024, 0.007973014377057552, 0.004899333696812391, 0.019253090023994446, 0.008991485461592674, -0.013542686589062214, -0.011058969423174858, 0.0006249957950785756, -0.0036288087721914053, 0.029524683952331543, 0.020215969532728195, -0.010517437011003494, 0.006853791419416666, 0.0029475640039891005, 0.019328337162733078, 0.006610894575715065, 0.001624255906790495, -0.01167168840765953, -0.0014100128319114447, -0.004566048737615347, 0.031418636441230774, 0.008701013401150703, -0.01713944599032402, 0.027215322479605675, -0.012645144946873188, -0.006673463620245457, -0.03896491229534149], "layers.0.self_attn.v_proj.weight": [-0.002166858408600092, 0.008916023187339306, 0.009958995506167412, 0.0084299948066473, -0.002839690772816539, -0.004008283372968435, -0.04975877329707146, -0.010276751592755318, 0.06483153253793716, -0.017423946410417557, 0.02766454592347145, -0.024633027613162994, 0.02034914866089821, -0.028754740953445435, 0.006565718445926905, 0.0007252217037603259, 0.0025577496271580458, 0.026643481105566025, 0.0024994979612529278, -0.048255860805511475, 0.01481772493571043, -0.01000299770385027, 0.0032305659260600805, -0.011891617439687252, -0.010045149363577366, -0.00958434958010912, 0.005760893225669861, 0.03420146927237511, 0.007595624774694443, -0.028375372290611267, 0.008415421470999718, 0.02277662418782711, 0.011290950700640678, -0.0011411114828661084, 0.02010577917098999, 0.008113836869597435, 0.01453390996903181, -0.012944165617227554, -0.016121365129947662, -0.00565189216285944, 0.0022258274257183075, -0.010752687230706215, -0.00904312264174223, -0.013163533993065357, -0.05146579071879387, -0.0037841754965484142, 0.04256432503461838, 0.022993266582489014, 0.01806190051138401, -0.017880046740174294, -0.019221751019358635, 6.999266770435497e-05, -0.0009913727408275008, -0.01829335279762745, 0.03381739556789398, -0.029932979494333267, -0.006671254523098469, -0.00011888806329807267, 0.016924988478422165, 0.023699214681982994, 0.023647965863347054, 0.015876691788434982, -0.008451198227703571, 0.027963418513536453, 0.025907078757882118, 0.0060724220238626, -0.014173095114529133, -0.008432920090854168, -0.013848332688212395, 0.04424387216567993, -0.014327296987175941, -0.015441542491316795, 0.014141080901026726, 0.005021627061069012, -0.0009944470366463065, 0.0012773267226293683, 0.0108453668653965, -0.011065791361033916, 0.02627289667725563, 0.0347159318625927, 0.011998457834124565, 0.003238550154492259, 0.011010571382939816, -0.0060710120014846325, -2.433527151879389e-05, -0.018583964556455612, 0.0111085781827569, 0.0011653430992737412, 0.00023459093063138425, 0.04786886274814606, -0.012383793480694294, -0.00294135813601315, 0.0008779121562838554, -0.0007337579154409468, 0.008814141154289246, -0.029797939583659172, -0.01828792691230774, 0.014413167722523212, -0.00015054184768814594, 0.002130448818206787, -0.015593813732266426, -0.019430775195360184, 0.006901590619236231, 0.01908452808856964, -0.016467345878481865, -0.005798593629151583, -0.02935444936156273, 0.007016196846961975, 0.0010541245574131608, -0.008366898633539677, 0.028202984482049942, -0.027552170678973198, -0.003772048046812415, -0.01622237265110016, -0.008082565851509571, 0.013806219212710857, 0.008199384436011314, -0.019278788939118385, -0.014056586660444736, -0.0011391754960641265, -0.029543254524469376, 0.02620987594127655, -0.02694852463901043, 0.03139900043606758, -0.016155308112502098, -0.02431669645011425, 0.00655938358977437, -0.013834604062139988], "layers.0.self_attn.o_proj.weight": [-0.03150809183716774, -0.028764352202415466, 0.026598863303661346, -0.02565665729343891, 0.005771764554083347, -0.01772969774901867, 0.006622881628572941, 0.010367087088525295, -0.0066029285080730915, 0.006082439795136452, -0.03266693651676178, -0.020634857937693596, -0.013157637789845467, 0.005715277045965195, -0.005454834550619125, -0.036842942237854004, -0.017149537801742554, -0.0025354500394314528, 0.009153611026704311, -0.02106003649532795, -0.007586939260363579, -0.0035766682121902704, 0.0004392685950733721, 0.027813728898763657, -0.00699392007663846, -0.01527805533260107, 0.02401590719819069, -0.023974701762199402, -0.024105321615934372, 0.01337100937962532, 0.012011450715363026, -0.0033356838393956423, -0.006453157402575016, 0.005350884050130844, 0.013628808781504631, -0.0244135782122612, -0.015273685567080975, 0.00460160942748189, -0.0005564710590988398, -0.02609465830028057, -0.027730725705623627, -0.03079100325703621, -0.011243178509175777, -0.0009022699669003487, -0.0028571435250341892, -0.003958496265113354, 0.0019162212265655398, -0.005040488671511412, -0.019244858995079994, -0.01201644353568554, 0.017513316124677658, -0.03184867277741432, -0.018791990354657173, 0.010777963325381279, 0.005076706409454346, 0.03956053778529167, -0.0005060736439190805, 0.00993091519922018, 0.014275842346251011, -0.012500728480517864, 0.020720690488815308, -8.415640331804752e-05, -0.007025665603578091, 0.003453740617260337, -0.0067026857286691666, -0.013889883644878864, -0.033131472766399384, -0.023257818073034286, -0.019386421889066696, -0.013070515356957912, 0.005912321619689465, -0.012346532195806503, -4.024942245450802e-05, 0.0024835998192429543, -0.021389778703451157, -0.008256800472736359, -0.00016308650083374232, 0.012676142156124115, 0.005496821831911802, -0.013598514720797539, 0.008303533308207989, -0.0018035618122667074, -0.03655017912387848, 0.020200228318572044, 0.014276530593633652, -0.02977234311401844, 0.03560328111052513, -0.012603565119206905, -0.022349771112203598, -0.036831941455602646, 0.020697716623544693, 0.004630804993212223, 0.007077302783727646, -0.009418698959052563, -0.021158741787075996, -0.025799734517931938, 0.004226494114845991, 0.042687561362981796, -0.033188220113515854, -0.006324778776615858, 0.010085979476571083, -0.009707276709377766, 0.002922852523624897, -0.019304223358631134, -0.0036066423635929823, -0.023643309250473976, -0.011580199934542179, 0.023171676322817802, 0.015506948344409466, 0.027242226526141167, 0.003251507878303528, 0.013942437246441841, 0.0030163826886564493, 0.0065633878111839294, 0.01800665073096752, 0.03655370697379112, -0.014154691249132156, 0.0010528701823204756, 0.01574728637933731, 0.03115737996995449, 0.005081717390567064, -0.02533815987408161, 0.00972447544336319, 0.022948233410716057, 0.014615005813539028, 0.006050510797649622, -0.03513583540916443, 0.020697157829999924, 0.007697627879679203, -0.01359378919005394, 0.011679139919579029, -0.031546175479888916, 0.032425977289676666, -0.001041953801177442, 0.035128165036439896, -0.021531948819756508, 0.0010221665725111961, -0.023362351581454277, -0.019774798303842545, 0.04708409309387207, -0.0033064712770283222, -0.01665961742401123, -0.03265606239438057, -0.014486356638371944, 0.005522068124264479, -0.016082031652331352, -0.023870915174484253, -0.011480579152703285, 0.01619221456348896, 0.010512753389775753, 0.033386584371328354, 0.0029049632139503956, -0.008050966076552868, -0.021728603169322014, -0.015452245250344276, 0.01993034966289997, 0.009535280987620354, 0.015460096299648285, 0.006868930533528328, 0.014255010522902012, -0.003664758987724781, -0.032039787620306015, 0.006103884894400835, -0.009234042838215828, 0.00042958729318343103, -0.03453967347741127, -0.01578764244914055, -0.018102066591382027, 0.005875731352716684, 0.0028654970228672028, -0.003194154240190983, -0.009518863633275032, -0.00683365436270833, -0.019725944846868515, 0.025352565571665764, 0.01702272705733776, 0.006530406419187784, 0.02203451097011566, -0.006437826436012983, 0.009145278483629227, -0.015650087967514992, -0.00900288112461567, 0.004078634083271027, 0.037746869027614594, -0.011933425441384315, -0.027495810762047768, 0.009350374341011047, 0.016230132430791855, -0.008483258076012135, -0.03161648288369179, 0.02161889523267746, 0.014079129323363304, 0.0312486682087183, 0.013045077212154865, 0.012447520159184933, -0.02834343910217285, -0.0021464780438691378, -0.001686934381723404, 0.002367347478866577, -8.856757631292567e-05, 0.0017958908574655652, 0.03894808515906334, 0.022731168195605278, 0.002735003363341093, -0.017936162650585175, -0.0015110456151887774, -0.011452216655015945, -0.007972024381160736, -0.0033642330672591925, -0.017876196652650833, -0.005106814205646515, 0.0002441444084979594, 0.0319344736635685, -0.015373210422694683, -0.02238117717206478, 0.009912081994116306, 0.02468898892402649, -0.029121799394488335, 0.032979417592287064, 0.0017398535273969173, 0.022879280149936676, -0.02877584472298622, -0.010545525699853897, -0.009305140934884548, -0.024235721677541733, 0.03782231733202934, 0.03184700012207031, -0.0016978783532977104, 0.03304283693432808, 0.010558376088738441, -0.030042333528399467, -0.009405843913555145, 0.00022018401068635285, -0.002767005702480674, 0.016950389370322227, -0.006168290041387081, -0.003593059489503503, 0.011185548268258572, -0.021618539467453957, 0.014875354245305061, 0.03195248916745186, 0.013811192475259304, -0.01060835737735033, 0.019354578107595444, -0.016429120674729347, 0.044469740241765976, -0.008304346352815628, 0.055536072701215744, -0.0020951542537659407, -0.002655447693541646, 0.03048119880259037, -0.023179467767477036, -0.02469577081501484, -0.0002455465728417039, -0.00852873083204031, 0.018753422424197197], "layers.0.mlp.gate_up_proj.weight": [0.012203400954604149, 0.027594182640314102, 0.030721167102456093, -0.007478807587176561, 0.0120141776278615, 0.005261591635644436, 0.007039234042167664, 0.03653090074658394, -0.018588069826364517, -0.011155126616358757, 0.002802103292196989, -0.003400783520191908, 0.00591456750407815, 0.03036346659064293, 0.016497058793902397, -0.019522132351994514, -0.013244304805994034, -0.012111157178878784, 0.00822426937520504, 0.005929951556026936, 0.029552768915891647, 0.022018618881702423, 0.0017410697182640433, 0.0075481547974050045, -0.015978088602423668, 0.014739579521119595, -0.012907463125884533, -0.0023073137272149324, -0.005849510431289673, 0.009152046404778957, 0.0039708372205495834, -0.015515299513936043, -0.021811744198203087, -0.0034451785031706095, -0.019125506281852722, 0.016238702461123466, -0.0013991642044857144, 0.010548042133450508, -0.005799902603030205, -0.021192219108343124, 0.002547314390540123, 0.008522072806954384, -0.009310649707913399, -0.00751106720417738, -0.011831769719719887, 0.03309745341539383, -0.012171238660812378, -0.009749175980687141, 0.004041218664497137, -0.011110838502645493, -0.0037253056652843952, -0.0034952738787978888, -0.0111685274168849, 0.0076006636954844, 0.01635170169174671, 0.0005477109225466847, 0.017987417057156563, 0.017900727689266205, -0.0009116825531236827, 0.015234672464430332, 0.003903067670762539, 0.03380595147609711, 0.02452627569437027, 0.006844331976026297, 0.007830970920622349, -0.014451352879405022, 0.011966877616941929, 0.01109853945672512, -0.02719438448548317, 0.032973483204841614, 0.03175901994109154, 0.0344773605465889, 0.016525736078619957, -0.015464546158909798, -0.026403753086924553, -0.0076086269691586494, -0.03920699656009674, 0.0053866771049797535, -0.04230213165283203, -0.013919605873525143, -0.023425795137882233, -0.0018446632893756032, -0.014022729359567165, -0.002939082682132721, -0.002700589597225189, -0.013729765079915524, 0.015144231729209423, -0.007545025087893009, -0.024972064420580864, -0.01487075537443161, 0.02344135381281376, -0.01550854928791523, 0.03190271183848381, 0.0004462951037567109, 0.012230304069817066, -0.017752762883901596, -0.019180387258529663, 0.006015899125486612, -0.002265468705445528, -0.027491196990013123, 0.0185359138995409, 0.019596247002482414, -0.019323917105793953, -0.006753896828740835, -0.03886570781469345, 0.006842147558927536, -0.030328702181577682, -0.038484591990709305, -0.0007942516240291297, -0.013069413602352142, 0.003108084434643388, 0.0014800727367401123, 0.002218699548393488, 0.013715780340135098, 0.013466166332364082, 0.017877230420708656, 0.0048629180528223515, 0.026998598128557205, -0.026818322017788887, 0.0039801583625376225, -0.014380882494151592, 0.018004870042204857, -0.05138261243700981, -0.009553328156471252, 0.008997892960906029, 0.008747412823140621, 0.019760025665163994, 0.009646155871450901, 0.030434126034379005, 0.01627996936440468, 0.029817279428243637, 0.011879184283316135, -0.01775299571454525, -0.00514932069927454, 0.03079000860452652, -0.034028004854917526, -0.016216076910495758, 0.006814245600253344, 0.023545559495687485, 0.06860893964767456, 0.013511667028069496, -0.007686551660299301, -0.0009944167686626315, 0.019690413028001785, 0.0008368000271730125, -0.018420789390802383, -0.0006276082713156939, -0.03653028607368469, -0.006441554985940456, -0.008588642813265324, -0.004747913219034672, -0.04049951583147049, 0.008144885301589966, -0.010801061987876892, 0.002298303646966815, -4.7992558393161744e-05, 0.0010295860702171922, -0.0032341363839805126, -0.006997457705438137, -0.01586255244910717, -0.002403415273874998, 0.017587115988135338, -0.027110805734992027, 0.03183861821889877, 0.0039099459536373615, -0.008247926831245422, 0.022231625393033028, 0.03086550347507, -0.0037057374138385057, -0.008087493479251862, 0.014704777859151363, 0.0037698866799473763, -0.015410985797643661, -0.0029801144264638424, 0.0018851951463147998, -0.014677317813038826, 0.0131107522174716, -0.008457270450890064, -0.004466222133487463, 0.00986806396394968, 0.011732720769941807, 0.04079771414399147, 0.002590378513559699, 0.004466094076633453, 0.020537618547677994, 0.0033470713533461094, 0.022398408502340317, 0.015201772563159466, 0.0030097314156591892, 0.002615739591419697, 0.03095996007323265, -0.016022631898522377], "layers.0.mlp.down_proj.weight": [0.02113535813987255, -0.019097620621323586, -0.0012336961226537824, -0.03055000863969326, -0.018329786136746407, -0.003449270036071539, 0.02952888235449791, -0.029117219150066376, -0.02519058622419834, -0.011730940081179142, -0.022306939586997032, -0.03180915117263794, -0.01993488520383835, 0.012690789066255093, -0.011976592242717743, -0.005708760116249323, 0.007840590551495552, 0.013222603127360344, 0.018339430913329124, 0.01504865288734436, 0.029585950076580048, -0.016984721645712852, -0.009060869924724102, -0.021691925823688507, -0.022748243063688278, 0.03953598439693451, -0.0061080604791641235, -0.022751420736312866, -0.010227100923657417, 0.01707124523818493, 0.027302905917167664, -0.0018467226764187217, -0.013213057070970535, 0.033013444393873215, 0.007273330353200436, 0.002931227907538414, 0.03572964295744896, -0.019598377868533134, 0.03778115287423134, 0.00018373328202869743, -0.022143257781863213, 0.013876453042030334, -0.012049778364598751, -0.022122668102383614, -0.027440007776021957, 0.0027446735184639692, 0.004307858645915985, -0.00543579924851656, 0.01746712066233158, 0.0013077703770250082, -0.021448712795972824, 0.020381875336170197, -0.01169286947697401, 0.01473986729979515, 0.023496760055422783, -0.02141743339598179, -0.011012286879122257, -0.02055939845740795, 0.014535605907440186, 0.026880726218223572, 0.013324524275958538, -0.001192559371702373, 0.009003461338579655, 0.017628611996769905, 0.014742115512490273, 0.020429886877536774, -0.027576858177781105, 0.007261684164404869, 0.021557044237852097, 0.010117599740624428, 0.013841102831065655, -0.013746670447289944, -0.006468581035733223, 0.013332701288163662, 0.0030976568814367056, -0.02458072081208229, 0.01337386667728424, 0.002346690511330962, 0.02265273965895176, -0.023444052785634995, -0.04166676849126816, 0.027492042630910873, 0.01188389677554369, 0.007422511000186205, 0.004124702885746956, 0.010803244076669216, -0.0057226610369980335, -0.011251803487539291, 0.0063392468728125095, 0.02372307889163494, 0.005495307967066765, -0.04621892049908638, -0.008819607086479664, -0.011693944223225117, 0.0026361357886344194, -0.010497888550162315], "layers.0.input_layernorm.weight": [1.0, 1.0, 1.0, 1.0, 1.0, 1.0, 1.0, 1.0], "layers.0.post_attention_layernorm.weight": [1.0, 1.0, 1.0, 1.0, 1.0, 1.0, 1.0, 1.0], "layers.0.post_self_attn_layernorm.weight": [1.0, 1.0, 1.0, 1.0, 1.0, 1.0, 1.0, 1.0], "layers.0.post_mlp_layernorm.weight": [1.0, 1.0, 1.0, 1.0, 1.0, 1.0, 1.0, 1.0], "layers.1.self_attn.q_proj.weight": [-0.017749372869729996, -0.012104912661015987, -0.027529720216989517, -0.023166043683886528, -0.023769330233335495, -0.0462813638150692, -0.0008994104573503137, 0.005715147592127323, 0.012795955874025822, -0.015209474600851536, 0.005814990494400263, 0.03264167159795761, -0.014971829019486904, 0.01497088186442852, 0.014407218433916569, -0.035517849028110504, -0.051014773547649384, -0.02716517634689808, 0.0006110647227615118, -0.04051615670323372, -0.014538276940584183, -0.00224896427243948, -0.02844288945198059, 0.03305566683411598, 0.017369801178574562, -0.017664214596152306, -0.01966811902821064, 0.004982806742191315, -0.0014836007030680776, 0.01856166496872902, 0.015834147110581398, -0.015116973780095577, 0.015246580354869366, 0.007963249459862709, -0.005216730758547783, 0.03308829292654991, 0.01624717377126217, 0.007641902193427086, -0.05247771739959717, 0.049806781113147736, -0.011453724466264248, 0.047921065241098404, 0.02432791143655777, 0.004119678866118193, -0.028087986633181572, -0.008435974828898907, 0.026337990537285805, 0.030765002593398094, -0.03887757286429405, -0.0029005040414631367, -0.016774652525782585, -0.013154282234609127, -0.0023920221719890833, 0.024524513632059097, 0.025532318279147148, -0.009739185683429241, -0.018131224438548088, -0.0004859896143898368, -0.0068308631889522076, -0.01144313532859087, -0.050190672278404236, 0.016659345477819443, 0.023814937099814415, 0.01064673624932766, 0.016747863963246346, 0.01686258800327778, -0.005063964519649744, 0.017211241647601128, 0.0103600500151515, 0.016879010945558548, -0.0027218814939260483, 0.022775471210479736, -0.006502792704850435, -0.0165358055382967, 0.0010998706566169858, 0.04064888879656792, -0.016713125631213188, -0.025734340772032738, 0.0039695510640740395, -0.002873368561267853, 0.023049337789416313, 0.012818108312785625, 0.006938331760466099, 0.006027105264365673, 0.01452364306896925, -0.019569240510463715, -0.020140601322054863, -0.006450515240430832, 0.02480253018438816, 0.04112850874662399, 0.009327403269708157, -0.005444110371172428, -0.029770217835903168, 0.005627873819321394, -0.028222087770700455, -0.0016070175915956497, -0.03567308560013771, -0.019631600007414818, -0.003405175404623151, 0.015321280807256699, 0.014816230162978172, -0.004846114665269852, -0.018456103280186653, -0.023584196344017982, -0.012875622138381004, 0.01354055106639862, 0.0016744256718084216, 0.020497391000390053, 0.003066543024033308, -0.019887732341885567, -0.005543311592191458, -0.010616563260555267, -0.011691789142787457, 0.0153473149985075, 0.02151796594262123, 0.020228134468197823, 0.012861526571214199, 0.00903812050819397, 0.05046969652175903, -0.01859429106116295, -0.008271225728094578, -0.010269523598253727, -0.011155937798321247, -0.013144750148057938, 0.02016381174325943, -0.02095666155219078, -0.05564507469534874, 0.01826523430645466, -0.015255230478942394, 0.009525028988718987, 0.0003000657306984067, 0.022997168824076653, 0.02609005570411682, -0.03316405788064003, -0.013186505995690823, 0.014202987775206566, -0.026726773008704185, 0.0013452183920890093, 0.020351888611912727, -0.01600160077214241, -0.0014965587761253119, -0.011818917468190193, -0.00278743589296937, -0.00814288854598999, -0.02652955800294876, 0.008749588392674923, -0.027467506006360054, -0.027649540454149246, -0.020896468311548233, -0.010857530869543552, -0.00799154955893755, -0.02545989491045475, 0.015719709917902946, 0.017940163612365723, 1.303618773818016e-05, 0.0006510940729640424, -0.002465968020260334, -0.021687431260943413, 0.010817098431289196, 0.0021892075892537832, -0.026362966746091843, 0.03846818208694458, -0.004525248426944017, 0.00726153003051877, 0.014437302015721798, -0.005688261706382036, -0.007899952121078968, 0.03428402915596962, 0.017052743583917618, -0.012060620822012424, 0.03054196760058403, 0.04148060828447342, 0.0008139514247886837, 0.01179101224988699, 0.010884121060371399, -0.01069637481123209, -0.004948253743350506, 0.027357839047908783, 0.049134787172079086, -0.027322636917233467, 0.022346824407577515, 0.019719621166586876, -0.027709146961569786, -0.018433868885040283, -0.01477841567248106, -0.014391330070793629, -0.017806626856327057, 0.011726717464625835, -0.0050175986252725124, -0.00373529433272779, 0.022235840559005737, -0.015604748390614986, 0.006385629530996084, -0.004918382037431002, 0.023861639201641083, -0.008848849684000015, -0.00360566726885736, -0.027734676375985146, 0.021527213975787163, -0.023078883066773415, -0.002510226098820567, 0.012486749328672886, -0.0043533798307180405, -0.0059102061204612255, 0.03047729842364788, 0.0033247231040149927, 0.018773751333355904, 0.007657424546778202, 0.006857023574411869, -0.01278721634298563, -0.016420915722846985, -0.03797039017081261, -0.049164097756147385, 0.007818651385605335, -0.015519710257649422, -0.020689282566308975, 0.018676811829209328, -0.008529240265488625, -0.026541676372289658, 0.00924613419920206, 0.043963875621557236, 0.027601702138781548, 0.02322782762348652, -0.002755312481895089, 0.012516777962446213, -0.009457013569772243, 0.020245086401700974, -0.015668122097849846, 0.008824187330901623, 0.02255254052579403, 0.005668500903993845, 0.005142028909176588, -0.0111178457736969, 0.008993297815322876, 0.023404650390148163, 0.026658441871404648, -0.0020985989831387997, 0.027237853035330772, 0.008111697621643543, 0.015178315341472626, -0.004197567235678434, -0.031267255544662476, -0.0022048004902899265, -0.010442054830491543, -0.024844033643603325, 0.027549440041184425, -0.00970382522791624, 0.013778657652437687, -0.03905561938881874, 0.009348660707473755, -0.009366080164909363, -0.021117348223924637, -0.009386355988681316, -0.00221664784476161, 0.023687968030571938, -0.037211887538433075], "layers.1.self_attn.k_proj.weight": [-0.004118782002478838, -0.014454596675932407, -0.04030131548643112, -0.016518646851181984, 0.033700164407491684, -0.00959564745426178, 0.04466632753610611, 0.036120325326919556, 0.0030950247310101986, -0.00023129845794755965, -0.0031295025255531073, -0.003732195822522044, -0.013634934090077877, 0.03428497537970543, -0.0031877770088613033, -0.0006801789859309793, -0.005045387428253889, 0.009620619006454945, -0.003608484286814928, 0.0108192702755332, 0.03724684938788414, -0.019412746652960777, 0.04110776260495186, 0.026091687381267548, 0.026990294456481934, -0.0064582363702356815, 0.035122066736221313, 0.020024318248033524, 0.004458495415747166, -0.007275900803506374, 0.011927221901714802, -0.02438127063214779, -0.0030000105034559965, -0.02725098468363285, 0.014534316025674343, -0.0063758064061403275, 0.0064623551443219185, 0.0093641122803092, 0.009196004830300808, 0.002792725805193186, -0.02030220255255699, 0.032298993319272995, -0.04031015932559967, -0.017866332083940506, 0.015120468102395535, -0.006757443770766258, -0.020781541243195534, 0.0022952810395509005, -0.008470605127513409, -0.031292252242565155, -0.011351866647601128, -0.00971786305308342, 0.00015218289627227932, -0.012506667524576187, 0.021132132038474083, -0.003133852034807205, -0.01604773849248886, 0.02293534018099308, 0.0036173700354993343, 0.0015682586235925555, 0.021098190918564796, -0.04099768027663231, 0.027082839980721474, 0.010747219435870647, 0.0033953918609768152, -0.01054775808006525, -0.0317203663289547, -0.012818166054785252, -0.005992643069475889, 0.01664920151233673, -0.025478491559624672, 0.004864585120230913, -0.01037320215255022, 0.02858664281666279, -0.0034436010755598545, 0.04329977557063103, 0.01260017603635788, -0.04633660614490509, -0.010964632034301758, -0.005502031184732914, 0.0021225069649517536, -0.016515057533979416, 0.03474294766783714, 0.02644437551498413, 0.02092178724706173, -0.02811753749847412, -0.03522810712456703, 0.0025783225428313017, 0.005321400240063667, 0.019437691196799278, 0.01633790321648121, 0.013100313022732735, -0.007725924253463745, -0.013007234781980515, -0.010503300465643406, -0.002982668112963438, 0.004214181099087, 0.016696013510227203, 0.025710195302963257, 0.03643687814474106, -0.02106069214642048, 0.03870566934347153, -0.040412548929452896, -0.00865420512855053, -0.030829889699816704, 0.03703513741493225, 0.03126513957977295, 0.00016059921472333372, -0.01322864182293415, 0.02557973563671112, 0.012635378167033195, -0.0395803265273571, -0.022660573944449425, -0.018398817628622055, 0.024436410516500473, -0.01678018644452095, 0.03158541023731232, -0.027569729834794998, 0.0008619085419923067, 0.03413038328289986, -0.030919590964913368, -0.027929512783885002, 0.023278485983610153, -0.030475681647658348, 0.014933343976736069, 0.012130750343203545, -0.019169028848409653, -0.021538250148296356], "layers.1.self_attn.v_proj.weight": [-0.014525039121508598, -0.003913158550858498, 0.02783426269888878, 0.004495630040764809, -0.006397046148777008, 0.022337226197123528, -0.0020054939668625593, 0.015303846448659897, 0.02771157957613468, -0.04158651828765869, -0.01654992066323757, 0.0306240227073431, -0.01626368798315525, 0.013578854501247406, 0.01911042258143425, -0.028339479118585587, -0.001893689390271902, 0.0007673375075682998, -0.013177803717553616, 0.034776266664266586, 0.02225511521100998, 0.024705329909920692, 0.025879334658384323, -0.003138504922389984, 0.008745185099542141, -0.011340786702930927, 0.005736302584409714, 0.011290224269032478, 0.008024557493627071, 0.008574436418712139, -0.010906943120062351, -0.029918553307652473, -0.044093575328588486, 0.002027887152507901, 0.021697089076042175, 0.03372979164123535, 0.011774860322475433, -0.012625101953744888, 0.0002914993674494326, 0.03408215567469597, -0.0030275778844952583, 0.005498276092112064, 0.009627265855669975, 0.004598835948854685, -0.030638370662927628, 0.034778203815221786, -0.034331291913986206, 0.0013814640697091818, 0.02901441790163517, -0.00990099273622036, -0.02142871543765068, -0.017058344557881355, -0.01927473209798336, 0.005497435107827187, -0.005653989966958761, -0.0046851965598762035, 0.03213261440396309, 0.026753557845950127, 0.004332401789724827, 0.012234301306307316, 0.0056456588208675385, -0.0157475546002388, -0.004774582106620073, 0.026995865628123283, -0.008531557396054268, -0.030344674363732338, 0.0061457776464521885, 0.00033701679785735905, -0.00836543645709753, -0.0038781235925853252, -0.01829497329890728, -0.027254294604063034, -0.04522830992937088, 0.02125431038439274, -0.04613189771771431, -0.012741129845380783, 0.005187807139009237, -0.007610382046550512, -0.014111035503447056, -0.005735853686928749, 0.007823807187378407, -0.005774355493485928, -0.043177712708711624, 0.0019072338473051786, -0.004642297513782978, 0.0033093446400016546, -0.0028731520287692547, -0.012543697841465473, 0.040661148726940155, 0.007640900555998087, 0.027413463220000267, -0.028765469789505005, -0.011259864084422588, 0.04447406530380249, -0.011312915943562984, 0.03843247517943382, 0.02369399555027485, 0.0061996448785066605, 0.015504314564168453, -0.01035891193896532, -0.007109283469617367, 0.0012571332044899464, 0.0006875784602016211, -0.014030303806066513, -0.0008888898300938308, -0.025274893268942833, 0.0350213460624218, -0.0153401680290699, 0.026966189965605736, 0.05942818522453308, 0.014602752402424812, -0.006534176878631115, -0.04326421022415161, 0.02070656232535839, -0.005823988933116198, -0.03068717196583748, 0.02047693356871605, -0.009570972993969917, -0.0294807069003582, -0.010821079835295677, -0.007636499125510454, -0.014211936853826046, 0.021849509328603745, 0.011505539529025555, 0.0008609489304944873, 0.03584970906376839, 0.012943657115101814, -0.0002971151261590421], "layers.1.self_attn.o_proj.weight": [-0.0017531077610328794, -0.009461683221161366, 0.00878952443599701, -0.00292677478864789, 0.028294602409005165, -0.009157323278486729, 0.0014094088692218065, 0.00609085476025939, -0.013320129364728928, 0.018161160871386528, -0.06030159443616867, 0.006304599344730377, -0.021641582250595093, -0.015181900933384895, 0.012224720790982246, 0.022811688482761383, 0.006578360218554735, -0.02907097339630127, 0.015320654958486557, -0.004892491269856691, -0.026661597192287445, -0.00998312421143055, 0.03453189879655838, 0.03011956810951233, 0.008654101751744747, -0.009585184045135975, -0.0022432669065892696, 0.010308393277227879, 0.05357905104756355, -0.0022305173333734274, 0.033065903931856155, 0.03243988752365112, -0.0083910608664155, -0.014261203818023205, 0.049776509404182434, -0.0170702263712883, -0.021755296736955643, -0.012004810385406017, -0.03536307066679001, 0.019932925701141357, -0.03561130166053772, -0.0071741617284715176, 0.00857856310904026, 0.021814502775669098, -0.015322567895054817, 0.004099184647202492, -0.003435543505474925, 0.01337603759020567, 0.01564568467438221, -0.03179123252630234, -0.004397219978272915, 0.021799763664603233, -0.023249618709087372, 0.010316086001694202, 0.0005938067333772779, -0.02630149945616722, 0.010713932104408741, 0.021300408989191055, -0.02251221425831318, -0.008179760538041592, -0.012077766470611095, 0.016157757490873337, 0.013873710297048092, 0.021625852212309837, 0.01753181591629982, 0.04729824140667915, 0.013534600846469402, 0.006673014722764492, -0.004926304332911968, 0.03798416629433632, 0.023040616884827614, -0.016079867258667946, 0.0013390610693022609, -0.02835400588810444, 0.02813689224421978, -0.016732139512896538, 0.013356144540011883, -0.005934987682849169, -0.031171301379799843, -0.003173358738422394, -0.013035956770181656, 0.008888393640518188, -0.023178186267614365, 0.028270801529288292, -0.011079942807555199, 0.01975061185657978, -0.010350116528570652, -0.026056818664073944, -0.020561346784234047, 0.03450498357415199, 0.010831642895936966, 0.05270368978381157, 0.012211098335683346, -0.017159955576062202, -0.02698606438934803, 0.012349965050816536, 0.012214678339660168, 0.02744855172932148, 0.006926811300218105, -0.010737350210547447, 0.0029654440004378557, -0.012093876488506794, -0.018970316275954247, 0.021922657266259193, -0.00423540361225605, -0.0021134454291313887, 0.042315248399972916, -0.030491743236780167, -0.009530420415103436, 0.004080112557858229, -0.04676647111773491, -0.0010148910805583, 0.02033253200352192, 0.003167860209941864, -0.006078019738197327, 0.02430112287402153, -0.023420600220561028, -0.025293489918112755, -0.02776118740439415, -0.029353391379117966, -0.010929815471172333, 0.02620348334312439, 0.03558715805411339, 0.020046880468726158, 0.01065607275813818, 0.002818132983520627, 0.010702398605644703, -0.020515721291303635, 0.005996663589030504, -0.015191275626420975, -0.015655653551220894, 0.02491394430398941, 0.010123454965651035, -0.014641299843788147, -0.002185817575082183, -0.017277853563427925, 0.0159771628677845, -0.00952865555882454, 0.0032905610278248787, 0.0018483641324564815, -0.0060360245406627655, 0.010258493945002556, 0.0038798588793724775, 0.00122164748609066, -0.00012911856174468994, -0.04896433651447296, -0.03693275898694992, -0.020565215498209, -0.011455399915575981, -0.0010886220261454582, -0.008344332687556744, 0.0011595234973356128, 0.013476593419909477, -0.0006678339559584856, 0.0031993426382541656, -0.032426219433546066, 0.005836018361151218, 0.014176837168633938, -0.027386164292693138, -0.01030421070754528, 0.01734273135662079, -0.021878594532608986, 0.012464409694075584, -0.01062953844666481, -0.019941816106438637, -0.0010792663088068366, -0.0052824486047029495, 0.005501570645719767, -0.005713790655136108, -0.014771991409361362, 0.028351232409477234, 0.007298929616808891, -0.0014009162550792098, 0.021167553961277008, 0.0013175156200304627, 0.0011853602482005954, -0.0040378449484705925, -0.026655403897166252, 0.00647116219624877, -0.04173830896615982, -0.011841105297207832, -0.01182527281343937, 0.03693101182579994, 0.016611402854323387, -0.009821067564189434, 0.019650539383292198, -0.010775401256978512, -0.02633635886013508, 0.012713591568171978, -0.025339381769299507, 0.006548765115439892, -0.003293985966593027, 0.003366319229826331, 0.008838276378810406, 0.00851813331246376, -0.011617346666753292, 0.026320699602365494, -0.029944149777293205, -0.013794532977044582, 0.01333776954561472, -0.010708346962928772, 0.009523383341729641, 0.009180658496916294, 0.0165285412222147, -0.006867936812341213, -0.01969727873802185, 0.01365340780466795, 0.013296911492943764, 0.0080763204023242, -0.003551267785951495, -0.023721380159258842, 0.005985991097986698, 0.007645611185580492, -0.014455643482506275, 0.03873948007822037, -0.02498379349708557, 0.0018103038892149925, 0.01930629275739193, 0.04053373634815216, -0.01268803607672453, -0.032733622938394547, 0.019170109182596207, 0.004966952838003635, -0.02829912304878235, -0.011829310096800327, -0.0008365779649466276, 0.034261614084243774, -0.03979170322418213, 0.05285167694091797, 0.013856072910130024, -0.010822802782058716, 0.008074305020272732, -0.000284999463474378, 0.00109730358235538, 0.02074437402188778, -0.02474447526037693, -0.044030673801898956, 0.04457959160208702, 0.006872347556054592, -0.0042146253399550915, 0.009475781582295895, -0.021065816283226013, -0.003545742016285658, -0.016507411375641823, 0.003105718409642577, -0.01007605530321598, -0.013078232295811176, -0.021838413551449776, -0.002714062575250864, 0.02598872408270836, 0.004598769824951887, 0.003224255982786417, 0.008949529379606247, 4.724106111098081e-05, -0.005095298867672682, 0.03394104912877083], "layers.1.mlp.gate_up_proj.weight": [-0.008929485455155373, -0.032151978462934494, 0.007166420109570026, 0.022105297073721886, -0.0013793190009891987, -0.02863643504679203, -0.025124482810497284, -0.042578089982271194, -0.011764094233512878, -0.008741470053792, 0.0012928855139762163, 0.011701511219143867, 0.0014924228889867663, -0.03773440420627594, -0.000311829149723053, -0.0009997151792049408, 0.0005459426320157945, -0.02138311043381691, -0.009369107894599438, -0.012859012000262737, -0.0021536247804760933, 0.028185905888676643, 0.02102140337228775, 0.039161231368780136, -0.009961334057152271, -0.009014424867928028, -0.027021700516343117, -0.019445247948169708, 0.0025349187199026346, -0.013479992747306824, 0.013406725600361824, -0.015012715943157673, 0.001618961221538484, 0.035221267491579056, -0.006987863685935736, 0.002144907135516405, -0.004006719216704369, -0.013759848661720753, -0.013734418898820877, 0.028178181499242783, 0.022087998688220978, 0.010636133141815662, 0.027761131525039673, 0.017049819231033325, 0.005758441984653473, -0.00977571215480566, 0.01505261193960905, -0.007206115406006575, -0.008905703201889992, -0.0017162795411422849, -0.01906411163508892, -0.017039772123098373, 0.005463298410177231, -0.01534211728721857, 0.018596075475215912, 0.00037453355616889894, 0.012729761190712452, 0.005303722340613604, -0.008102917112410069, 0.01166208740323782, 0.011512218043208122, 0.03610611706972122, -0.013658367097377777, 0.027636732906103134, -0.02079736441373825, 0.007028952240943909, 0.023282036185264587, 0.0034035169519484043, -0.013443008065223694, -0.009818392805755138, 0.009361586533486843, -0.011689608916640282, -0.007107872981578112, 0.0034149223938584328, -0.021298442035913467, 0.020260624587535858, 0.0014352904399856925, 0.021583935245871544, 0.018443124368786812, -3.361814742675051e-05, 0.012556738220155239, 0.004054334480315447, -0.036940690129995346, 0.005482541862875223, 0.013181712478399277, -0.002375988056883216, 0.012866399250924587, -0.025382257997989655, 0.013323858380317688, -0.012726911343634129, 