{"config": {"vocab_size": 20, "hidden_size": 8, "intermediate_size": 10, "moe_intermediate_size": 6, "num_hidden_layers": 2, "num_attention_heads": 2, "num_key_value_heads": 2, "n_shared_experts": 2, "n_routed_experts": 4, "num_experts_per_tok": 2, "first_k_dense_replace": 1, "rope_theta": 10000.0, "rms_norm_eps": 1e-06, "norm_topk_prob": false, "routed_scaling_factor": 1.0}, "weights": {"embed_tokens.weight": [0.032552361488342285, 0.0017238728469237685, 0.03127095475792885, 0.02985454723238945, -0.0318831168115139, 0.017279086634516716, 0.01448365394026041, 0.016207149252295494, -0.012920308858156204, -0.047484107315540314, -0.009276265278458595, 0.020954370498657227, -0.01858886517584324, -0.008424719795584679, -0.003635094966739416, -0.015651682391762733, 0.027876487001776695, -0.016058290377259254, 0.016863325610756874, -0.0030862679705023766, -0.028453640639781952, 0.016474898904561996, 0.00997165311127901, -0.01288111973553896, -0.027190756052732468, 0.00126143719535321, 0.006883991416543722, 0.019243653863668442, -0.02270832285284996, 0.011378718540072441, -0.018857555463910103, -0.02132716402411461, -0.005126932170242071, -0.01784600131213665, 0.022397462278604507, 0.005566960666328669, -0.03358904644846916, -0.00683041475713253, 0.04529589042067528, 0.0013829413801431656, 0.02787589654326439, -0.04190274327993393, -0.01854344643652439, -0.03295609727501869, 0.004410549998283386, 0.013240236788988113, -0.0005082323332317173, 0.0044042873196303844, -0.0018992676632478833, -0.004002962727099657, -0.012937893159687519, -0.027920708060264587, 0.023146897554397583, 0.0012037381529808044, -0.02119024656713009, -0.011732782237231731, -0.02309037186205387, -0.021309461444616318, 0.0018833173671737313, 0.00624560983851552, 0.006634742487221956, 0.0048314849846065044, -0.008354767225682735, -0.025657331570982933, 0.03227396309375763, -0.016735557466745377, 0.00038893616874702275, -0.017864078283309937, -0.024679793044924736, -0.013206995092332363, -0.013802926056087017, -0.01052950881421566, 0.005861417390406132, 0.007013257127255201, -0.01945118047297001, 0.015098887495696545, 0.03663250803947449, -0.00259614665992558, 0.00031352488440461457, -0.020449316129088402, 0.017965855076909065, 0.010668231174349785, 0.01894068904221058, -0.011656638234853745, 0.007872325368225574, -0.0251897145062685, 0.03027985990047455, -0.006891416385769844, -0.007064296398311853, 0.010179257020354271, -0.011712306179106236, -0.012965680100023746, -0.009623518213629723, 0.016249101608991623, -0.028818892315030098, 0.012173477560281754, -0.0009972696425393224, -0.015114085748791695, 0.05236728489398956, -0.012565288692712784, 0.002259225584566593, 0.0014408795395866036, 0.0160230565816164, 0.0006508661899715662, -0.006366537883877754, 0.013250526040792465, -0.007931445725262165, 0.02064596675336361, 0.007263582665473223, -0.013014501892030239, -0.0005245672655291855, 0.00399550748988986, -0.00955847930163145, 0.012381598353385925, 0.014117855578660965, -0.04207893833518028, 0.017189430072903633, 0.013544028624892235, 0.009195624850690365, 0.019518470391631126, -0.024245521053671837, 0.0021370877511799335, -0.027545610442757607, 0.014209689572453499, 0.007198530714958906, -0.040030527859926224, 0.018261263146996498, -0.004262710455805063, 0.02190416492521763, -0.023809919133782387, 0.002479412592947483, -0.03523166477680206, 0.01623751036822796, 0.006666244938969612, -0.005905718542635441, -0.011758183129131794, -0.0023926161229610443, 0.019868645817041397, 0.022199897095561028, 0.027423139661550522, -0.008945886045694351, -0.017307905480265617, 0.008564569987356663, -0.006533846724778414, 0.03985036909580231, -0.02949150651693344, 0.01421719416975975, 0.038516297936439514, 0.019862722605466843, -0.006097113247960806, -0.005170865450054407, -0.0004261173598933965, 0.00029749044915661216, 0.005053210537880659, 0.02525898814201355, -0.0038696296978741884, -0.0020706928335130215, 0.024906687438488007, 0.004003828391432762, -0.002902597188949585], "layers.0.self_attn.q_proj.weight": [-0.034909989684820175, 0.04146771505475044, 0.005018703639507294, 0.014175977557897568, -0.010911541059613228, -0.005281719844788313, -0.010246869176626205, 0.014194662682712078, -0.021274885162711143, -0.021384291350841522, -0.00265896157361567, 0.0017138479743152857, 0.012312698177993298, 0.014957007020711899, 0.023730861023068428, -0.04111503064632416, 0.0320199690759182, 0.03689582273364067, 0.023108409717679024, -0.005902656354010105, 0.028498243540525436, 0.0045990245416760445, -0.016407310962677002, 0.007958724163472652, 0.012563344091176987, -0.009526718407869339, 0.000455169181805104, 0.004598348867148161, 0.040552012622356415, 0.028668303042650223, 0.010755643248558044, -0.015554607845842838, 0.022456306964159012, -0.01208485011011362, -0.05984830856323242, 0.00498533109202981, 0.017201192677021027, 0.0038698422722518444, -0.0025670891627669334, -0.008029220625758171, 0.009782452136278152, 0.015026938170194626, -0.017752395942807198, 0.007928609848022461, 0.0009431068901903927, 0.029648592695593834, 0.028062548488378525, -0.0035270103253424168, -0.030725089833140373, -0.004779510200023651, 0.027837315574288368, 0.0005198144936002791, -0.01732547953724861, 0.036257535219192505, 0.010864602401852608, 0.03644152730703354, -0.022987885400652885, -0.01683061756193638, 0.006698336917907, -0.0024640948977321386, -0.012308276258409023, 0.01982974074780941, 0.014640851877629757, -0.007940085604786873], "layers.0.self_attn.k_proj.weight": [0.002109004184603691, 0.008449654094874859, -0.026604944840073586, 0.00034656227217055857, 0.0215644259005785, -0.01765030063688755, 0.007814067415893078, -0.01490752026438713, -0.004876470193266869, 0.007733154110610485, 0.014543908648192883, -0.010882820002734661, -0.0014965843874961138, -0.02971615642309189, 0.0021725574042648077, -0.003738507628440857, -0.007722950540482998, -0.010067080147564411, -0.04808425158262253, 0.03839004039764404, -0.004276956431567669, 0.011038737371563911, -0.024441232904791832, 0.011072708293795586, 0.0002950629568658769, 0.039428792893886566, 0.003734563011676073, -0.012198446318507195, 0.027111103758215904, -0.034296344965696335, -0.00913933664560318, -0.03213781118392944, 0.0015743569238111377, 0.030128203332424164, -0.011213261634111404, 0.004193482920527458, 0.022164857015013695, -0.008741808123886585, 0.0005614766851067543, 0.022362643852829933, 0.008241254836320877, -0.027712911367416382, -0.003278732765465975, -0.00783900823444128, 0.019903432577848434, -0.008271652273833752, -0.007664232049137354, -0.02111891657114029, -0.0015920595033094287, -0.024630911648273468, -0.009461619891226292, 0.0035006129182875156, -0.001521088182926178, 0.020782839506864548, -0.03263615816831589, 0.014619874767959118, 0.003859768621623516, 0.006439626216888428, -0.001140774809755385, 0.012782875448465347, 0.016965968534350395, 0.015060105361044407, 0.013788753189146519, 0.01722915843129158], "layers.0.self_attn.v_proj.weight": [-0.0070534879341721535, -0.030494632199406624, 0.013528147712349892, 0.0002704070066101849, -0.024624759331345558, -0.02027829922735691, 0.018581703305244446, -0.008770216256380081, 0.007583095692098141, 0.02113674208521843, -0.008674129843711853, -0.03380053862929344, 0.01478282455354929, -0.019184257835149765, -0.008970296010375023, 0.03815089538693428, -0.0015002411091700196, -0.008952337317168713, 0.009012277238070965, -0.034987013787031174, -0.00976040679961443, 0.0017937610391527414, -0.014078733511269093, -0.02021658606827259, -0.009257212281227112, -0.03594185411930084, 0.005370035767555237, 0.056015849113464355, -0.0012574525317177176, -0.007038699463009834, -0.006537515204399824, -0.01934831775724888, 0.02325258031487465, -0.006063683424144983, 0.0032397136092185974, -0.002305608708411455, 0.033869579434394836, 0.0006853347294963896, 0.011337129399180412, -0.00433187372982502, -0.026212582364678383, 0.005140605382621288, 0.009660410694777966, -0.02690775878727436, -0.034145914018154144, -0.005415903404355049, 0.007865152321755886, -0.005116539541631937, 0.007499664090573788, -0.02563829906284809, 0.054797906428575516, -0.0084338104352355, -0.020162874832749367, 0.015323926694691181, 0.01237217616289854, 0.01900676265358925, -0.017148109152913094, 0.033235836774110794, 0.012644242495298386, -0.0007514163153246045, -0.039057694375514984, -0.02810983546078205, 0.05597135052084923, -0.013085143640637398], "layers.0.self_attn.o_proj.weight": [-0.017965495586395264, 0.029572758823633194, -0.014627998694777489, -0.0200735442340374, -0.009000279940664768, 0.0030763293616473675, -0.03882630541920662, -0.043820641934871674, 0.01610756292939186, 0.01755574345588684, -0.01881023868918419, 0.033497404307127, 0.01083353254944086, -0.012832749634981155, 0.010759953409433365, -0.0021326306741684675, 0.0026355551090091467, -0.02686004899442196, -0.039732590317726135, -0.002410976216197014, -0.03857603669166565, -0.0168790053576231, 0.021793749183416367, -0.007932585664093494, 0.01176468376070261, 0.009005692787468433, 0.005002714227885008, 0.0012144490610808134, -0.011850222945213318, -0.005314980633556843, 0.004861355293542147, 0.0037617599591612816, -0.018104607239365578, -0.0057516456581652164, -0.009109058417379856, 0.02881220541894436, -0.025333749130368233, 0.028963305056095123, -0.001637285458855331, -0.00038966082502156496, 0.0012485916959121823, 0.0001648377365199849, -0.027878426015377045, -0.008138266392052174, -0.015332062728703022, -0.03756357729434967, -0.012021586298942566, -0.0019874898716807365, -0.0005977391847409308, -0.019439591094851494, 0.025962671265006065, 0.008148446679115295, 0.008729513734579086, -0.02056945115327835, 0.01980241760611534, 0.04349727928638458, 0.009880856610834599, 0.010585389100015163, -0.004443452227860689, -0.010736044496297836, 0.03570842370390892, 0.00373659934848547, -0.022122250869870186, -0.0028884245548397303], "layers.0.mlp.gate_proj.weight": [0.015789728611707687, -0.0005290831322781742, 0.004310091026127338, -0.054371122270822525, -0.029353195801377296, -0.037274736911058426, 0.01224545855075121, 0.0016164821572601795, -0.012398508377373219, -0.048590924590826035, -0.0035636622924357653, 0.016637444496154785, 0.014780474826693535, -0.018916649743914604, 0.025233039632439613, 0.014275697991251945, 0.011245498433709145, 0.0030835834331810474, -0.027535371482372284, -0.009218904189765453, -0.011668015271425247, -0.04100128635764122, 0.008624742738902569, -0.01016239169985056, 0.02628806047141552, 0.00042318852501921356, 0.02272769808769226, -0.006179629825055599, 0.021229226142168045, -0.011682916432619095, -0.015125501900911331, 0.022770924493670464, -0.025313040241599083, -0.011020001024007797, 0.0062966239638626575, -0.011140075512230396, 0.021314075216650963, -0.004850277677178383, -0.00432566786184907, 0.02143723890185356, -0.040049150586128235, -0.006506463512778282, 0.04322219267487526, 0.009633076377213001, -0.030700402334332466, -0.0027789869345724583, -0.02659372054040432, -0.013064397498965263, 0.02509894222021103, 0.02260301075875759, 0.03655555099248886, -0.016126004979014397, -0.015160392969846725, 0.01676684059202671, -0.027761343866586685, 0.00013376436254475266, -0.024806058034300804, -0.03964906185865402, -0.04203540086746216, 0.024155378341674805, 0.02745416760444641, -0.019769497215747833, -0.004071999806910753, -0.012580765411257744, 0.026590874418616295, 0.017725922167301178, -0.011386736296117306, 0.011312390677630901, 0.008191886357963085, 0.018435778096318245, 0.016917428001761436, -0.028927678242325783, -0.018749520182609558, 0.012218344025313854, 0.0003688207652885467, 0.0024130060337483883, 0.005066686775535345, -0.024675149470567703, 0.02504110336303711, -0.007995963096618652], "layers.0.mlp.up_proj.weight": [-0.0019242183770984411, -0.02314622886478901, 0.01069277711212635, 0.016429981216788292, 0.04798988625407219, -0.07475028187036514, -0.00025135063333436847, 0.027089379727840424, -0.0033785903360694647, -0.0024230359122157097, 0.019476262852549553, 0.018084360286593437, 0.025923075154423714, 0.024500463157892227, -0.02272568643093109, -0.015591450966894627, 0.022207925096154213, -0.0006168613908812404, -0.003840502118691802, -0.019732099026441574, -0.015318992547690868, 0.01238201279193163, 0.05261144042015076, 0.044734977185726166, -0.035064730793237686, 0.002781979739665985, -0.008124804124236107, -0.029403112828731537, 0.027049310505390167, -0.019633369520306587, 0.01438158005475998, 0.01061759702861309, 0.0043400670401751995, -0.028716662898659706, 0.002719906158745289, -0.03464466705918312, -0.0023273639380931854, -0.004119368270039558, -0.016719281673431396, -0.012983731925487518, 0.020734071731567383, 0.006137109361588955, 0.03020978346467018, 0.02019352652132511, -0.014133228920400143, 0.010764685459434986, -0.001964034978300333, 0.016829829663038254, -0.0001827047672122717, -0.018966123461723328, -0.011105326935648918, -0.015645550563931465, 0.003922797739505768, 0.021574199199676514, 0.009769277647137642, 0.01209054421633482, -0.02393508329987526, 0.006650587078183889, -0.015074294060468674, 0.0004991702735424042, -0.02130417339503765, -0.006645265035331249, 0.010656733065843582, -0.03167266026139259, 0.00711720809340477, -0.021992193534970284, -0.0071714166551828384, 0.0010298345005139709, -0.02811957150697708, 0.011230421252548695, 0.002941393293440342, -0.010387401096522808, -0.01512134913355112, 0.010368668474256992, 0.03535366803407669, -0.013562411069869995, -0.010619401931762695, 0.0033420175313949585, -0.035978395491838455, 0.02133629471063614], "layers.0.mlp.down_proj.weight": [-0.005209653172641993, -0.010734077543020248, -0.03748217225074768, 0.01749754324555397, -0.002193318447098136, 0.02889571152627468, -0.020071476697921753, -0.0027426579035818577, -0.02008701115846634, -0.021733079105615616, -0.03546508774161339, -0.009041992947459221, 0.00784171000123024, 0.010313129983842373, -0.033290691673755646, -0.01081360038369894, 0.02197146601974964, -0.00634388905018568, -0.003570503555238247, 0.019304808229207993, 0.020660536363720894, -0.031537435948848724, 0.011230206117033958, 0.006532177794724703, -0.028346966952085495, 0.017804933711886406, -0.013677217997610569, 0.0295465886592865, -0.025439640507102013, 0.003351054387167096, 0.020622175186872482, 0.02098398655653, 0.010007587261497974, -0.006716716568917036, -0.0012910158839076757, 0.012197724543511868, -0.0029930630698800087, 0.0201764777302742, -0.009979775175452232, -0.019777050241827965, 0.04028167203068733, -0.029623840004205704, 0.013094322755932808, 0.004192844498902559, -0.0014676611172035336, 0.0387372188270092, 0.02154599130153656, -0.02510465495288372, 0.006828854326158762, 0.018430497497320175, 0.0034891783725470304, 0.00172510277479887, -0.020381027832627296, 0.011113526299595833, -0.011115221306681633, -0.01295225229114294, 0.01079324446618557, -0.010124883614480495, -0.030818302184343338, -0.012325000949203968, -0.0167640820145607, 0.02274099551141262, 0.0018717303173616529, 0.04148782044649124, 0.008303922601044178, -0.0052811442874372005, -0.006651696283370256, 0.004521748051047325, 0.013917030766606331, -0.018612902611494064, 0.011177284643054008, -0.02293962985277176, -0.018508149310946465, 0.005321400240063667, 0.0009400094859302044, -0.001919907284900546, 0.022279800847172737, -0.018934644758701324, -0.004432768560945988, 0.011050684377551079], "layers.0.input_layernorm.weight": [0.011149696074426174, -0.01722986437380314, 0.009331909008324146, 0.027927180752158165, -0.0038426294922828674, 0.007872043177485466, -0.021388061344623566, -0.010717717930674553], "layers.0.post_attention_layernorm.weight": [-0.008375727571547031, 0.0390840545296669, 0.02166849747300148, 0.007063703611493111, -0.013419879600405693, -0.02171349711716175, -0.013010409660637379, -0.001077239285223186], "layers.1.self_attn.q_proj.weight": [-0.004896968137472868, -0.027390357106924057, 0.01037283893674612, 0.001556692528538406, -0.03591335564851761, 0.014775062911212444, -0.0187578983604908, -0.02174396440386772, 0.013617882505059242, 0.029926132410764694, 0.0018571398686617613, -0.007514201104640961, 0.015525773167610168, -0.00940006785094738, 0.002667234744876623, 0.0023105612490326166, 0.009686065837740898, -0.0027288594283163548, -0.021353645250201225, 0.014045353047549725, 0.004206055775284767, -0.009498942643404007, 0.04216688498854637, -0.011355363763868809, -0.014178239740431309, -0.009556694887578487, 0.02193697728216648, -0.012683941051363945, 0.024621974676847458, 0.01453147642314434, -0.007642540615051985, 0.00715421000495553, -0.00301465205848217, -0.0014608767814934254, -0.017873141914606094, 0.02441820316016674, -0.03660527244210243, -0.033045411109924316, -0.022703642025589943, 0.004695574752986431, 0.0010357474675402045, -0.008186602033674717, 0.021488290280103683, -0.008577561005949974, -0.0068242852576076984, -0.02920425869524479, 0.023484215140342712, -0.017873132601380348, -0.03763728216290474, 0.029203888028860092, 0.018020693212747574, -0.004977575968950987, 0.009734606370329857, -0.027912413701415062, 0.0015746722929179668, 0.026190949603915215, -0.008712627924978733, 0.00977616012096405, -0.007702047470957041, 0.008185683749616146, 0.020921416580677032, -0.02499842271208763, 0.004154558293521404, 0.03784419596195221], "layers.1.self_attn.k_proj.weight": [0.004459506366401911, -0.012735789641737938, -0.005352596752345562, 0.0030468436889350414, 0.008265494368970394, -0.01744438335299492, -0.027156636118888855, 0.008761048316955566, -0.01305723749101162, 0.009638848714530468, 0.010913693346083164, 0.052261605858802795, 0.013604535721242428, -0.019004281610250473, -0.010435939766466618, 0.029725331813097, 0.00906448159366846, -0.02451232634484768, 0.02110222727060318, 0.01894497498869896, 0.00566878542304039, -0.04582821577787399, 0.008971991017460823, 0.016919447109103203, 0.0030276323668658733, 0.047481898218393326, -0.018615389242768288, -0.0073466794565320015, -0.009956351481378078, -0.028560757637023926, -0.01019288506358862, -0.023060083389282227, 0.03602876886725426, 0.016993103548884392, -0.04375404119491577, -0.013317211531102657, -0.012398489750921726, 0.0032891782466322184, -0.010502432473003864, 0.0025629308074712753, 0.00144674361217767, 0.0032318374142050743, 0.005010960157960653, -0.013281431049108505, -0.03295784816145897, -0.002743722405284643, -0.003746720729395747, -0.040493179112672806, -0.04274986311793327, 0.002220605965703726, -0.030268840491771698, -0.0018710490548983216, -0.0004156063369009644, 0.008834981359541416, 0.024521589279174805, -0.03118710219860077, -0.0050929537974298, -0.016196010634303093, -0.03079339861869812, -0.014881117269396782, -0.015543192625045776, -0.0008487114100717008, 0.012729366309940815, 0.021511752158403397], "layers.1.self_attn.v_proj.weight": [0.003685228992253542, 0.015542621724307537, -0.0299699530005455, -0.03947921097278595, -0.011639624834060669, -0.007378841284662485, 0.005052897613495588, 0.001711245276965201, 0.023028409108519554, 0.010880526155233383, 0.0006455476977862418, -0.01924043707549572, 0.04299090430140495, -0.0018952598329633474, 0.004464761354029179, 0.00771655049175024, 0.002051615621894598, 0.006614066660404205, -0.03373575955629349, -0.004309398587793112, 0.037900324910879135, -0.0031141159124672413, -0.010866782627999783, -0.0177591722458601, -0.008515371941030025, 0.0044972277246415615, -0.048178501427173615, -0.0037593406159430742, 0.013468382880091667, -0.0004728002240881324, -0.002012956654652953, 0.016403324902057648, -0.030490662902593613, 0.026028763502836227, 0.011254707351326942, -0.029637176543474197, -0.003790853777900338, 0.0005054546636529267, -0.006286825984716415, 0.03236875683069229, 0.002402986166998744, -0.007597476709634066, -0.044461172074079514, -0.03735989332199097, 0.03562324121594429, -0.0254325270652771, 0.009318581782281399, 0.007011669687926769, 0.010096516460180283, 0.031585339456796646, 0.002878693165257573, 0.007403381168842316, -0.01668226346373558, -0.005496155004948378, -0.007583239581435919, -0.01757223904132843, -0.011045154184103012, 0.004955003038048744, 0.027090588584542274, 0.008091706782579422, 0.0487179234623909, -0.01836518757045269, -0.004600582178682089, 0.002291523152962327], "layers.1.self_attn.o_proj.weight": [-0.019193291664123535, 0.01189965195953846, 0.018163271248340607, -0.03465469926595688, 0.0007750720251351595, -0.04534916952252388, -0.010300517082214355, -0.004194995854049921, 0.025452736765146255, 0.055820662528276443, -0.008676955476403236, 0.01607058010995388, -0.026182567700743675, -0.0033645196817815304, 0.0005650088423863053, -0.0151726258918643, -0.017026696354150772, -0.006799317430704832, 0.0037088426761329174, -0.008764166384935379, -0.020620077848434448, 0.026044011116027832, -0.0012799740070477128, -0.004919970408082008, -0.025916963815689087, -0.004288220778107643, -0.023552604019641876, 0.02561330422759056, 0.008566604927182198, 0.005512122996151447, -0.00547371432185173, -0.005553449969738722, 0.014908532612025738, -0.00614600395783782, -0.01967797800898552, 0.009641698561608791, 0.0233615729957819, 0.014531699009239674, -0.0011839339276775718, -0.020183471962809563, -0.004320838488638401, -0.020414618775248528, -0.035662099719047546, -0.03533630073070526, 0.013030673377215862, -0.007581332232803106, -0.0035771983675658703, 0.04176661744713783, -0.031028741970658302, 0.004623405635356903, -0.019055478274822235, -0.0075896368362009525, -0.030192174017429352, -0.025394679978489876, 0.0009109957027249038, 0.005173868965357542, -0.0032874245662242174, -0.011455557309091091, 0.0005498938262462616, 0.008947430178523064, 0.052055519074201584, -0.02530813403427601, -0.025454606860876083, 0.015538303181529045], "layers.1.mlp.experts.0.gate_proj.weight": [-0.0025056067388504744, 0.008211336098611355, -0.011888326145708561, -0.017781222239136696, 0.003401495749130845, -0.0056704143062233925, -0.008687029592692852, 0.00017737010784912854, 0.013901060447096825, 0.019712306559085846, 0.002157901879400015, -0.0014515527291223407, -0.02103370614349842, -0.018349800258874893, 0.03298546001315117, 0.029827428981661797, -0.03447677195072174, -0.0003869149659294635, 0.020482422783970833, -0.008935012854635715, -0.0027601011097431183, -0.0037510229740291834, 0.034341420978307724, -0.025440175086259842, -0.014410956762731075, -0.017327377572655678, -0.00665022898465395, 0.01628321222960949, -0.043365009129047394, 0.003193372394889593, -0.0031089880503714085, 0.02448233775794506, 0.001349254627712071, 0.021021859720349312, -0.050316207110881805, 0.030544333159923553, 0.008127300068736076, 0.0035720448940992355, 0.031450726091861725, 0.008669027127325535, -0.007924778386950493, -0.023399339988827705, -0.0077301207929849625, 0.019941918551921844, -0.012101251631975174, -0.0069910697638988495, 0.011123981326818466, -0.00502088712528348], "layers.1.mlp.experts.0.up_proj.weight": [0.03356844559311867, -0.004343508277088404, 0.03963623195886612, 0.01045085396617651, 0.005656924098730087, 0.007855521515011787, -0.025839723646640778, -0.01144343987107277, -0.007487183436751366, 0.006590735167264938, 0.003638903610408306, -0.004276467952877283, 0.017910219728946686, -0.010683253407478333, -0.015431213192641735, 0.03556282818317413, -0.031192297115921974, 0.033738214522600174, 0.012438727542757988, -0.01696990616619587, -0.02381058596074581, 0.004883324261754751, -0.033768679946660995, -0.02108222246170044, 0.012325653806328773, 0.005949624814093113, 0.01816600002348423, 0.017906779423356056, -0.022886378690600395, 0.002738138660788536, -0.004405810497701168, -0.025529341772198677, 0.000875298457685858, -0.023370925337076187, 0.009280256927013397, -0.020106548443436623, 0.004908312112092972, -0.03916550427675247, -0.029770920053124428, 0.00415509520098567, -0.013202561065554619, -0.0043825143948197365, 0.008191251195967197, 0.02194008231163025, 0.005150446202605963, 0.000293180433800444, 0.03710199519991875, 0.03505391627550125], "layers.1.mlp.experts.0.down_proj.weight": [0.015344109386205673, -0.039887718856334686, -0.004202336072921753, 0.016780052334070206, -0.0010613508056849241, -0.046511199325323105, 0.030067887157201767, -0.03730934113264084, 0.0031585621181875467, -0.025746354833245277, 0.007997855544090271, -0.00047326646745204926, -0.0011373702436685562, 0.0328068882226944, -0.0024855886586010456, 0.013174986466765404, -0.021687591448426247, -0.015606115572154522, 0.02890000306069851, 0.014904126524925232, -0.01290000881999731, -0.027742406353354454, -0.0009694303153082728, 0.02459520846605301, 0.012397064827382565, -0.0025590965524315834, 0.024847015738487244, 0.018739750608801842, 0.019425231963396072, 0.008653550408780575, -0.011155012995004654, 0.002284481655806303, -0.0009752606856636703, 0.019339604303240776, -0.0076330783776938915, 0.0014137770049273968, -0.008286611177027225, 0.01668267324566841, -0.005938760004937649, 0.008328653872013092, 0.013047512620687485, 0.007225438952445984, 0.03197667375206947, -0.01965068094432354, -0.035581763833761215, -0.014414340257644653, -0.003970636520534754, 0.0017515193903818727], "layers.1.mlp.experts.1.gate_proj.weight": [-0.0266581904143095, -0.03077133372426033, -0.043318700045347214, 0.007689967751502991, 0.015883933752775192, 0.03038516454398632, 0.0050446391105651855, 0.0071692741475999355, 0.014574320055544376, 0.01992042548954487, 0.011561466380953789, 0.0024688479024916887, 0.054323725402355194, 0.01746608316898346, 0.0023856961634010077, -0.018320884555578232, -0.003796282922849059, 0.024248309433460236, 0.022247981280088425, 0.005830689333379269, 0.005963002797216177, 0.029427768662571907, 9.879095887299627e-05, -0.0007245084270834923, -0.007931008003652096, 0.036511629819869995, 0.01889609731733799, 0.030584992840886116, 6.963168561924249e-05, -0.010960953310132027, 0.031481821089982986, 0.008601403795182705, 0.04179326072335243, -0.020168781280517578, -0.02361295185983181, -0.0016140532679855824, 0.0031592745799571276, -0.03604989871382713, -0.016848651692271233, 0.009831029921770096, 0.03850599378347397, -0.012357660569250584, -0.000318429694743827, -0.0007114642066881061, 0.012328455224633217, -0.02177739329636097, 0.007923155091702938, -0.006816938519477844], "layers.1.mlp.experts.1.up_proj.weight": [0.03324359282851219, -0.010137693956494331, -0.00612955866381526, -0.009800191037356853, 0.06230168044567108, -0.0016499616904184222, 0.0038726867642253637, -0.02033248543739319, -0.019039517268538475, -0.013952210545539856, 0.02379695512354374, -0.01415241789072752, -0.028681566938757896, -0.01035305391997099, -0.0005437941872514784, 0.017124323174357414, -0.01623068004846573, 0.024845890700817108, -0.0288532841950655, -0.0493137389421463, -0.026621216908097267, 0.0030702229123562574, 0.0006461294833570719, 0.006640782114118338, 0.012313502840697765, 0.005126508418470621, -0.007150475867092609, 0.01099899411201477, 0.00022643845295533538, -0.027728617191314697, 0.008345826528966427, -0.029116462916135788, -0.0005488070892170072, 0.0159969013184309, 0.01989595778286457, -0.007278356235474348, -0.03822963684797287, 0.0172598734498024, 0.006141508463770151, -0.017711227759718895, -0.004970226902514696, 0.0208437480032444, 0.05707007274031639, -0.020610492676496506, -0.020416337996721268, -0.021185817196965218, 0.003077818313613534, -0.006551504135131836], "layers.1.mlp.experts.1.down_proj.weight": [-0.014228305779397488, 0.0067614600993692875, -0.0033473719377070665, -0.012982461601495743, -0.04644456133246422, 0.009285597130656242, -0.035903871059417725, 0.0197445135563612, 0.009764483198523521, 0.039090998470783234, 0.00611858768388629, 0.030209055170416832, 0.009409843012690544, -0.01649043709039688, -0.0043545993976294994, -0.009551105089485645, 0.03694615885615349, -0.04109146445989609, -0.029001504182815552, 0.01949496753513813, -0.020673342049121857, -0.0032765930518507957, 0.03403298929333687, 0.020045733079314232, 0.013299703598022461, -0.0032801111228764057, -0.03029654175043106, -0.004334406461566687, 0.0007681274437345564, -0.009125215001404285, 0.02650269865989685, 0.026992691680788994, -0.01691707782447338, -0.01016983762383461, 0.0016898264875635505, -0.002700881101191044, 0.009569711051881313, -0.014341529458761215, 0.01872137002646923, -0.04296685755252838, 0.014277438633143902, 0.01127476803958416, -0.009235062636435032, 0.04297704994678497, -0.016319112852215767, 0.023388080298900604, 0.0203979704529047, 0.01571020856499672], "layers.1.mlp.experts.2.gate_proj.weight": [0.014609882608056068, -0.02176050841808319, -0.026301538571715355, 0.0025833244435489178, 0.026636097580194473, 0.019119758158922195, -0.015564769506454468, 0.0011366939870640635, 0.017348309978842735, -0.009227444417774677, -0.0063678729347884655, -0.014579488895833492, -0.0008385562687180936, 0.02073921635746956, 0.011815527454018593, 0.017305122688412666, -0.027922658249735832, -0.0041117300279438496, -0.014308016747236252, 0.02100268378853798, -0.011285445652902126, -0.01619596965610981, 0.0032650481443852186, -0.0036755164619535208, 0.02209509164094925, -0.008481450378894806, 0.016623610630631447, -0.002448049373924732, -0.037069983780384064, 0.02527415193617344, -0.0009316568030044436, -0.005469316150993109, -0.00807439349591732, -0.008630070835351944, -0.027526991441845894, -0.012739894911646843, -0.00905195064842701, 0.008774658665060997, -0.010920925065875053, -0.010890817269682884, -0.007765027228742838, 0.016183800995349884, 0.01026246603578329, -0.01921338587999344, -0.007847276516258717, 0.024369601160287857, -0.0077082025818526745, -0.029045958071947098], "layers.1.mlp.experts.2.up_proj.weight": [-0.018252557143568993, 0.011696838773787022, 0.009117752313613892, -0.021463625133037567, -0.023937391117215157, 0.03999335318803787, -0.010580379515886307, 0.04583456367254257, -0.002385298488661647, 0.010216895490884781, 0.03402479737997055, 0.03587455302476883, 0.00021579563326667994, 0.01680546998977661, -0.03175592049956322, 0.021214591339230537, -0.010699689388275146, -0.0012485983315855265, 0.02252388931810856, 0.006347537040710449, -0.021279335021972656, 0.0018228100379928946, -0.012579399161040783, -0.0275797788053751, -0.0007994353072717786, 0.00626430194824934, 0.017514556646347046, -0.017976444214582443, -0.03274442255496979, -0.01035279594361782, -0.027191948145627975, -0.008151699788868427, 0.012095783837139606, -0.03142980858683586, 0.006845604162663221, -0.004343781154602766, 0.016608862206339836, -0.0284833163022995, -0.008030916564166546, -0.01173323579132557, -0.02155126817524433, -0.040968045592308044, -0.004382067359983921, -0.02822032943367958, -0.02913384884595871, 0.026171626523137093, 0.006027728319168091, 0.004144072066992521], "layers.1.mlp.experts.2.down_proj.weight": [-0.029353713616728783, 0.03293599933385849, 0.007813521660864353, 0.023015469312667847, 0.01591465249657631, -0.014127243310213089, 0.004909085109829903, -0.058256443589925766, 0.02652573026716709, 0.008942984975874424, 0.011826114729046822, 0.024466680362820625, -0.01364494301378727, 0.00921111274510622, -0.0023824262898415327, 0.015094663947820663, -0.0008738911128602922, 0.015737125650048256, 0.002429095096886158, 0.0270095095038414, -0.004383177030831575, 0.027125397697091103, -0.01592787727713585, -0.03738518804311752, 0.001693271566182375, 0.010104523971676826, -0.03254261612892151, 0.039940621703863144, 0.02250692807137966, -0.02523469179868698, 0.0007969646831043065, -0.00857224315404892, 0.0074971881695091724, 0.0023104033898562193, -0.022768104448914528, -0.00818325113505125, -0.0006003278540447354, -0.01295567024499178, -0.053336016833782196, -0.014763932675123215, 0.007966087199747562, -0.006697321776300669, 0.008161989971995354, -0.024511873722076416, -0.020946526899933815, -0.01621897704899311, -0.009553208947181702, -0.0038093372713774443], "layers.1.mlp.experts.3.gate_proj.weight": [-0.013690358027815819, -0.015370292589068413, 0.04896077886223793, -0.01808411255478859, -0.010076191276311874, 0.020884541794657707, -0.019481811672449112, -0.022949913516640663, -0.029122380539774895, -0.06019901484251022, 0.03430257365107536, 0.023907076567411423, 0.016698503866791725, 0.01552384253591299, 0.00950214359909296, 0.0027533923275768757, 0.006703872699290514, -0.02256583608686924, 0.017412342131137848, 0.004998517222702503, 0.0028468735981732607, -0.010213368572294712, -0.022655129432678223, 0.004632971249520779, 0.02058103121817112, -0.00960424542427063, 0.05915685370564461, -0.002832637866958976, -0.006494984962046146, 0.0023390294518321753, 0.02014780230820179, 0.02284766547381878, 0.010144389234483242, -0.011357614770531654, 0.011037635616958141, -8.262210030807182e-05, -0.01305434200912714, -0.01349328737705946, 0.005109897814691067, -0.013258137740194798, -0.019024992361664772, -0.020144926384091377, 0.014851468615233898, -0.023654745891690254, -0.04280184581875801, 0.021024005487561226, -0.03372453898191452, -0.014770185574889183], "layers.1.mlp.experts.3.up_proj.weight": [0.015348400920629501, -0.0013405699282884598, -0.029066303744912148, -0.03336973488330841, 0.002263400238007307, 0.010783745907247066, 0.01039842702448368, -0.015182259492576122, 0.022780045866966248, 0.010510651394724846, 0.015983304008841515, -0.014240313321352005, 0.002026926027610898, 0.00017199383000843227, -0.011967120692133904, -0.01772630214691162, 0.015503710135817528, -0.022628499194979668, 0.011041777208447456, -0.01652066968381405, 0.010165480896830559, 0.006116796750575304, -0.003416134975850582, 0.0006766444421373308, -0.004583002999424934, -0.005196261219680309, 0.03996441885828972, 0.01019374467432499, -0.0030384862329810858, 0.0023491615429520607, 0.014316129498183727, -0.013108786195516586, 0.005855380091816187, -0.006064847577363253, 0.004135835450142622, 0.025667881593108177, -0.015447957441210747, 0.022999951615929604, -0.005716799292713404, -0.002500245114788413, -0.009541315026581287, 0.005429527256637812, 0.024494897574186325, -0.012000158429145813, -0.009343591518700123, -0.00915206503123045, -0.05287261679768562, 0.009697917848825455], "layers.1.mlp.experts.3.down_proj.weight": [-0.027582043781876564, -0.007929391227662563, -0.018520301207900047, 0.023409482091665268, 0.005870937369763851, 0.011266922578215599, -0.03171120584011078, -0.009825147688388824, -0.0025303103029727936, -0.003941664006561041, -0.005350160412490368, -0.02032323367893696, -0.010650468990206718, -0.020805614069104195, -0.04804961755871773, -0.003245011204853654, -0.01815580576658249, 0.017376523464918137, 0.0002017420920310542, -0.03280364349484444, -0.018429161980748177, 0.003770100651308894, -0.0009487367351539433, 0.0076323277316987514, -0.0018275856273248792, 0.005193029530346394, 0.018529236316680908, 0.024437645450234413, -0.017774857580661774, -0.015491132624447346, 0.003763687564060092, 0.041474614292383194, 0.012567482888698578, 0.0047858236357569695, -0.002835350576788187, -0.015240535140037537, 0.012944534420967102, -0.031972769647836685, 0.00460114935413003, -0.0031186582054942846, -0.010222149081528187, -0.004721300210803747, 0.021731633692979813, 0.012698058038949966, 0.021302377805113792, 0.011049981229007244, -0.027226140722632408, 0.010734835639595985], "layers.1.mlp.gate.weight": [0.019782569259405136, 0.016967445611953735, 0.053936686366796494, 0.05282573401927948, -0.009163480252027512, -0.003271921304985881, 0.016065524891018867, -0.023867683485150337, -0.015204861760139465, -0.004130238201469183, -0.008827244862914085, 0.014835238456726074, 0.043555792421102524, -0.011298269964754581, 0.010950821451842785, 0.006972559727728367, 0.001780621474608779, -0.02844751998782158, -0.006381889805197716, 0.03301798924803734, 0.008999636396765709, 0.012801670469343662, -0.011499086394906044, -0.020978445187211037, 0.049402397125959396, -0.014298269525170326, -0.026882264763116837, 0.0008720176410861313, -0.017479751259088516, -0.04227816313505173, -0.026483997702598572, 0.03776835650205612], "layers.1.mlp.shared_experts.gate_proj.weight": [-0.004407258238643408, 0.0009547786321491003, 0.002883785404264927, 0.0028067524544894695, 0.041754331439733505, -0.009125984273850918, 0.013761903159320354, 9.154598956229165e-05, -0.028544725850224495, -0.0065446230582892895, 0.01617138460278511, 0.0010587424039840698, -0.008842578157782555, -0.019109951332211494, 0.012450098991394043, 0.00901114009320736, -0.026003234088420868, -0.002815412590280175, 0.003772455034777522, -0.022607572376728058, -0.019803650677204132, -0.03139415755867958, -0.0032121799886226654, 0.01940557174384594, -0.02494891919195652, -0.021788859739899635, -0.01369379460811615, -0.010649878531694412, 0.0023602002765983343, -0.009162863716483116, -0.005644605495035648, 0.0063340794295072556, 0.022548625245690346, -0.005152623634785414, -0.010989070869982243, -0.00737282307818532, -0.005421927664428949, 0.02915259450674057, 0.03662293031811714, 0.01127834152430296, 0.013349057175219059, -0.015542234294116497, 0.010119105689227581, 0.026537999510765076, -0.01588965766131878, 0.01204504445195198, -0.01437542773783207, -0.005426282063126564, -0.01564914733171463, 0.01541289035230875, 0.020986242219805717, -0.0006708779255859554, 0.02349129132926464, -0.02226932905614376, -0.007252338342368603, -0.015754489228129387, -0.027241872623562813, -8.000401430763304e-05, -0.005525591317564249, -0.012169556692242622, 0.004029677715152502, -0.02553587593138218, -0.008464312180876732, -0.002332620322704315, 0.007353376597166061, -0.014682848937809467, 0.004756721667945385, 0.009718955494463444, -0.015738826245069504, -0.021026786416769028, -0.009722110815346241, -0.04286781698465347, -0.008712931536138058, -0.028814222663640976, -0.009051180444657803, -0.020328478887677193, -0.0013215892249718308, -0.005058132112026215, -0.013601443730294704, -0.017661502584815025, -0.029282020404934883, 0.006997120101004839, -0.013814224861562252, 0.010992680676281452, 0.00029015884501859546, 0.01929512992501259, -0.03058624640107155, 0.013406183570623398, -0.026934074237942696, -0.010173171758651733, 0.02311396226286888, -0.003937405068427324, 0.00532551808282733, 0.03676691651344299, 0.011389879509806633, -0.000151488755363971], "layers.1.mlp.shared_experts.up_proj.weight": [0.007718640845268965, -0.028841907158493996, 0.019213080406188965, -0.016301337629556656, -0.03077729605138302, 0.0021640746854245663, -0.008036434650421143, 0.004322507884353399, -0.005866565741598606, 0.007291202899068594, -0.017859308049082756, -0.011730113066732883, -0.020593320950865746, 0.007097382564097643, -0.024349404498934746, 0.011194068938493729, 0.026797689497470856, 0.01683630608022213, -0.0020559383556246758, 0.00042942503932863474, 0.0035928564611822367, -0.007769116200506687, -0.03046848066151142, 0.025546705350279808, 0.022263335064053535, 0.0072415792383253574, 0.0029467912390828133, -0.01705974154174328, -0.02182718552649021, -0.015148483216762543, -0.010926421731710434, 0.015561487525701523, -0.02321045659482479, 0.035835955291986465, -0.031113848090171814, 0.0268971286714077, -0.021597983315587044, 0.004883600864559412, -0.007944978773593903, -0.007732703350484371, -0.023794224485754967, -0.002354516414925456, -0.013625988736748695, -0.03417721018195152, 0.0020907006692141294, -0.0017710467800498009, 0.0003039783041458577, 0.008538617752492428, 0.049212872982025146, 0.002431651810184121, 0.028122462332248688, -0.0009535849676467478, 0.025331910699605942, -0.005506562069058418, 0.009279721416532993, 0.011926555074751377, -0.009902873076498508, 0.05666026845574379, -0.019077273085713387, -0.03238153085112572, 0.012157993391156197, -0.016974544152617455, 0.012348160147666931, 0.008054224774241447, 0.009312503971159458, -0.010837775655090809, 0.039349086582660675, -0.016680531203746796, 0.021095234900712967, 0.00028687473968602717, 0.000754600390791893, 0.031025534495711327, -0.028585955500602722, -0.027463069185614586, -0.02333974838256836, 0.029435506090521812, 0.031963516026735306, -0.018742326647043228, 0.013184938579797745, -0.012476624920964241, -0.029769644141197205, -0.012408292852342129, -0.003778081387281418, 0.0312790647149086, 0.010737993754446507, 0.0015428641345351934, -0.033728331327438354, -0.044192392379045486, 0.057641372084617615, -0.009006700478494167, -0.01986224204301834, -0.0005035243229940534, 0.020266762003302574, 0.014234120957553387, 0.01503041572868824, 0.008311586454510689], "layers.1.mlp.shared_experts.down_proj.weight": [-0.015929637476801872, 0.0013056577881798148, 0.04387865960597992, 0.016098957508802414, -0.004433671943843365, -0.015194909647107124, 0.025774339213967323, 0.04332325980067253, -0.01860329508781433, -0.03127655014395714, 0.013245870359241962, 0.009999227710068226, -0.012727128341794014, -0.03411728888750076, -0.005465367808938026, 0.02304128371179104, 0.03797613084316254, 0.031169269233942032, -0.03488769754767418, 0.023396138101816177, -0.012245883233845234, 0.05791807174682617, -0.016811929643154144, -0.003342323238030076, -0.011140086688101292, -0.002916925586760044, 0.020602015778422356, 0.004925725515931845, -0.0033270460553467274, 0.00022855635324958712, 0.024870216846466064, -0.002605489920824766, -0.02894173562526703, 0.01776762120425701, -0.02165173925459385, 0.015359277836978436, 0.011283323168754578, 0.0054825786501169205, 0.002037832047790289, -0.012506553903222084, 0.0028456964064389467, 0.002390393055975437, -0.026475083082914352, -0.006952912081032991, -0.02147914655506611, -0.011653042398393154, 0.037854183465242386, -0.01161138154566288, 0.001039095688611269, -0.008745755068957806, -0.026083020493388176, -0.002000784035772085, 0.001649076002649963, 0.010685665532946587, -0.010740463621914387, 0.03104192391037941, 0.018587801605463028, 0.01524151861667633, 0.004599778447300196, -0.0018137944862246513, -0.02352096326649189, 0.016545269638299942, 0.023702353239059448, 0.004500688519328833, -0.009851489216089249, -0.003107968717813492, 0.007159904111176729, 0.010599366389214993, 0.031482111662626266, 0.0018180813640356064, 0.014665737748146057, -0.004885389003902674, 0.014396675862371922, 0.004641537554562092, -0.016275307163596153, -0.012380818836390972, 0.029936978593468666, 0.006823638919740915, -0.010216803289949894, -0.0206373892724514, 0.018359806388616562, 0.007170917000621557, 0.007650364656001329, -0.009256310760974884, -0.04256628826260567, -0.013804254122078419, 0.007145263254642487, -0.03582959622144699, 0.015048871748149395, 0.025344688445329666, -0.03031095676124096, 0.02722550369799137, -0.017335135489702225, 0.011276811361312866, -0.0032947631552815437, 0.016809294000267982], "layers.1.input_layernorm.weight": [-0.00749737536534667, 0.026522884145379066, 0.006814158521592617, -0.02413470856845379, -0.03654095530509949, -0.005670796614140272, 0.003880697302520275, -0.0026216486003249884], "layers.1.post_attention_layernorm.weight": [-0.010015548206865788, 0.0129365473985672, -0.013211972080171108, -0.020342998206615448, 0.014520456083118916, 0.03373943641781807, 0.021420976147055626, 0.004916120786219835], "norm.weight": [0.040703628212213516, -0.024288304150104523, -0.01626926101744175, 0.03506093844771385, -0.0014308169484138489, -0.010191649198532104, 0.03170222043991089, -0.0031749301124364138]}, "lm_head_weight": [-0.021770481020212173, 0.005793177522718906, 0.009331468492746353, 0.017839785665273666, -0.006980860605835915, -0.007667506113648415, -0.01621171459555626, 0.024690400809049606, -0.013218154199421406, -0.002745001344010234, 0.001123968861065805, 0.002351069822907448, -0.0070060607977211475, 0.010754567570984364, -0.026191534474492073, 0.03223312646150589, 0.0030402124393731356, 0.014149324968457222, 0.012640127912163734, -0.002434320282191038, -0.018900888040661812, -0.03135555982589722, -0.0010252583306282759, -0.025896362960338593, 0.006436250172555447, 0.010891297832131386, -0.012730986811220646, -0.017245881259441376, 0.012653397396206856, 0.02630729414522648, -0.008126565255224705, 0.004808218218386173, -0.019609836861491203, 0.01617818884551525, 0.002407285152003169, -0.02057991921901703, 0.01394011452794075, -0.0024991976097226143, -0.0063965595327317715, 0.0019690117333084345, -0.035280611366033554, -0.0062826937064528465, -0.016459157690405846, -0.023375604301691055, -0.007687083445489407, -0.012728285044431686, -0.017807845026254654, -0.009925746358931065, 0.0058615789748728275, 0.020843220874667168, -0.0017418920760974288, -0.03255055099725723, 0.008432945236563683, -0.004828675650060177, -0.02082807570695877, -0.02501988783478737, 0.015392761677503586, -0.027106091380119324, -0.003355884226039052, 0.013516608625650406, -0.011808103881776333, -0.01288569439202547, 0.0005822010571137071, -0.016757754608988762, 0.0010415820870548487, -0.01904836669564247, 0.025190088897943497, -0.009992090985178947, 0.017220674082636833, 0.011195333674550056, 0.0011947754537686706, -0.007152515929192305, 0.02716335467994213, -0.017136067152023315, 0.007839387282729149, -0.0027645265217870474, 0.02322440780699253, -0.025009216740727425, 0.02006157673895359, -0.008674860000610352, 0.023283271118998528, -0.009171979501843452, 0.008891419507563114, 0.03863587975502014, 0.002546837320551276, 0.025836434215307236, -0.032529912889003754, -0.005051388405263424, -0.01149533037096262, 0.0041953143663704395, 0.0005989500205032527, 0.007410467602312565, -0.012921237386763096, -0.03903632611036301, -0.020353054627776146, 0.003631889820098877, -0.0018938756547868252, -0.011792642995715141, 0.02401760034263134, -0.030892882496118546, -0.008240647614002228, -0.02513350173830986, -0.030264856293797493, -0.01715150848031044, 0.012390140444040298, -0.026733893901109695, -0.018191257491707802, 0.003931879531592131, 0.01044500432908535, 0.016684843227267265, -0.0045492807403206825, -0.00679853605106473, 0.01709708385169506, 0.0030613511335104704, 0.001870433916337788, 0.027964996173977852, -0.020007433369755745, -0.017505008727312088, -0.005342181771993637, 0.009261704050004482, 0.011053434573113918, 0.005920968949794769, -0.014736431650817394, 0.01201555971056223, 0.018549514934420586, 0.008348528295755386, -0.024635817855596542, -0.01751754805445671, -0.023115864023566246, -0.0070359911769628525, -0.015581403858959675, -0.0012101565953344107, 0.034568771719932556, -0.030347339808940887, -0.03601373732089996, -0.015989141538739204, 0.039001014083623886, 0.050359513610601425, -0.00035376480082049966, -0.026694592088460922, -0.024611540138721466, -0.024516217410564423, 0.0018337504006922245, 0.0015030067879706621, -0.021821340546011925, 0.020907146856188774, -0.025935504585504532, 0.02041400410234928, -0.001450581825338304, 0.02416105940937996, -0.037549927830696106, 0.0009480731096118689, 0.010648639872670174, -0.006636579521000385, -0.0018207686953246593, 0.0003655707696452737, -0.005738515872508287, 0.029676232486963272, -0.029788853600621223, 0.005977936089038849], "input_ids": [1, 5, 3, 7, 2], "hidden_states_per_layer": [[-0.012920308858156204, -0.047484107315540314, -0.009276265278458595, 0.020954370498657227, -0.01858886517584324, -0.008424719795584679, -0.003635094966739416, -0.015651682391762733, 0.02787589654326439, -0.04190274327993393, -0.01854344643652439, -0.03295609727501869, 0.004410549998283386, 0.013240236788988113, -0.0005082323332317173, 0.0044042873196303844, -0.027190756052732468, 0.00126143719535321, 0.006883991416543722, 0.019243653863668442, -0.02270832285284996, 0.011378718540072441, -0.018857555463910103, -0.02132716402411461, -0.02309037186205387, -0.021309461444616318, 0.0018833173671737313, 0.00624560983851552, 0.006634742487221956, 0.0048314849846065044, -0.008354767225682735, -0.025657331570982933, 0.027876487001776695, -0.016058290377259254, 0.016863325610756874, -0.0030862679705023766, -0.028453640639781952, 0.016474898904561996, 0.00997165311127901, -0.01288111973553896], [-0.01287341583520174, -0.047483257949352264, -0.009242936037480831, 0.020939840003848076, -0.018557459115982056, -0.008343620225787163, -0.0036402635741978884, -0.015641450881958008, 0.027966978028416634, -0.041973214596509933, -0.01859397627413273, -0.03296462818980217, 0.0043856059201061726, 0.013266157358884811, -0.0005300879711285233, 0.004442631267011166, -0.027162598446011543, 0.0012387459864839911, 0.006881612353026867, 0.019237155094742775, -0.022709935903549194, 0.011410298757255077, -0.018856119364500046, -0.021311676129698753, -0.023069562390446663, -0.02132955938577652, 0.0018889629282057285, 0.006241125985980034, 0.0066400025971233845, 0.004862804431468248, -0.00835160631686449, -0.025647802278399467, 0.0279107466340065, -0.016078749671578407, 0.01686384528875351, -0.003091686638072133, -0.02845785580575466, 0.016503721475601196, 0.009965826757252216, -0.012869720347225666], [-0.02475818805396557, 0.05412331968545914, 0.0070031979121267796, 0.034506309777498245, 0.001249894849024713, 0.004025387577712536, -0.005480861756950617, 0.002341357059776783, 0.04970972612500191, 0.04453034698963165, 0.013158809393644333, -0.050435248762369156, -0.0002711796259973198, -0.005899912677705288, -0.0006609164411202073, -0.0006101815379224718, -0.06109238788485527, -0.0017031102906912565, -0.006231406237930059, 0.03723727539181709, 0.0017968534957617521, -0.006402179598808289, -0.03299801051616669, 0.0037407136987894773, -0.06207239255309105, 0.03417278453707695, -0.002084027975797653, 0.014468034729361534, -0.0006250289152376354, -0.0032585954759269953, -0.017471082508563995, 0.005384786985814571, 0.0619187206029892, 0.021269071847200394, -0.015011517331004143, -0.00590188754722476, 0.002224152209237218, -0.00916537456214428, 0.017240304499864578, 0.002233194187283516]], "final_hidden_shape": [1, 5, 8], "final_hidden": [-0.02475818805396557, 0.05412331968545914, 0.0070031979121267796, 0.034506309777498245, 0.001249894849024713, 0.004025387577712536, -0.005480861756950617, 0.002341357059776783, 0.04970972612500191, 0.04453034698963165, 0.013158809393644333, -0.050435248762369156, -0.0002711796259973198, -0.005899912677705288, -0.0006609164411202073, -0.0006101815379224718, -0.06109238788485527, -0.0017031102906912565, -0.006231406237930059, 0.03723727539181709, 0.0017968534957617521, -0.006402179598808289, -0.03299801051616669, 0.0037407136987894773, -0.06207239255309105, 0.03417278453707695, -0.002084027975797653, 0.014468034729361534, -0.0006250289152376354, -0.0032585954759269953, -0.017471082508563995, 0.005384786985814571, 0.0619187206029892, 0.021269071847200394, -0.015011517331004143, -0.00590188754722476, 0.002224152209237218, -0.00916537456214428, 0.017240304499864578, 0.002233194187283516], "logits": [0.0016405521892011166, 0.0005212429678067565, 0.000490204431116581, -7.661525160074234e-05, 0.0007148751174099743, -0.00037491050898097456, -0.00010573765030130744, -0.001514317817054689, -0.001181832980364561, -0.001842378405854106, 0.0005962301511317492, 0.0007183396955952048, -0.0014749197289347649, -0.001656172564253211, 0.0006759585812687874, 0.0005090116756036878, 0.00012161557242507115, 0.0007004395592957735, 0.002498071873560548, -0.00033342058304697275, -0.00155841582454741, -0.000947002146858722, 0.0012769068125635386, 0.00135100819170475, 0.0008292420534417033, -0.0009761822875589132, 0.0028935414738953114, -0.0010786795755848289, -2.817512722685933e-05, 0.000963082944508642, -0.0012111776741221547, -0.0005054277717135847, 0.0014358469052240252, -0.0011063562706112862, -0.00029301142785698175, -1.4110351912677288e-05, -0.0014031658647581935, 0.005672138184309006, -0.0016425119247287512, 3.392429789528251e-05, 0.0025901603512465954, 0.0017961490666493773, -0.00027550250524654984, -0.0008341537322849035, 0.0006486055790446699, 0.0020163669250905514, -0.0009550759568810463, -0.0003906007041223347, -0.0006671514129266143, -0.0022746813483536243, 0.0008701726328581572, 0.0018792415503412485, -8.362150401808321e-05, -0.00041500828228890896, 0.0002670159447006881, 0.0005811775336042047, 0.00286119244992733, -0.003402416594326496, 0.0033046165481209755, 0.0001907417317852378, 0.00223351176828146, 0.0013588482979685068, 0.00022570104920305312, -0.00017607219342608005, 0.0015891038347035646, 0.001975312363356352, 0.00012074245023541152, -0.001730242627672851, -0.0010192852932959795, -0.00265824724920094, -0.0007628754246979952, 0.0014733015559613705, -0.0002589895448181778, -0.0016058849869295955, -0.00034318852704018354, 1.806323416531086e-05, 0.001829765154980123, -0.0010141152888536453, 0.003001677803695202, -0.00041917600901797414, -0.001639760215766728, -0.0014013024047017097, 0.0004836482694372535, 0.0005807269481010735, -0.000836768071167171, -0.0021627366077154875, 0.0006725717103108764, 0.00041163526475429535, -0.0007194996578618884, 0.0018234553281217813, 8.185009937733412e-05, -0.0006890109507367015, -0.000894347729627043, 0.000225144496653229, 0.0009751401375979185, 0.0004615402431227267, -0.001641474780626595, 0.0038537834770977497, -0.0015075502451509237, -0.00024160492466762662], "argmax_last": 17, "moe_gate_layer1": {"input_shape": [1, 5, 8], "input": [-0.01287341583520174, -0.047483257949352264, -0.009242936037480831, 0.020939840003848076, -0.018557459115982056, -0.008343620225787163, -0.0036402635741978884, -0.015641450881958008, 0.027966978028416634, -0.041973214596509933, -0.01859397627413273, -0.03296462818980217, 0.0043856059201061726, 0.013266157358884811, -0.0005300879711285233, 0.004442631267011166, -0.027162598446011543, 0.0012387459864839911, 0.006881612353026867, 0.019237155094742775, -0.022709935903549194, 0.011410298757255077, -0.018856119364500046, -0.021311676129698753, -0.023069562390446663, -0.02132955938577652, 0.0018889629282057285, 0.006241125985980034, 0.0066400025971233845, 0.004862804431468248, -0.00835160631686449, -0.025647802278399467, 0.0279107466340065, -0.016078749671578407, 0.01686384528875351, -0.003091686638072133, -0.02845785580575466, 0.016503721475601196, 0.009965826757252216, -0.012869720347225666], "topk_idx": [[2, 3], [3, 2], [0, 2], [2, 1], [0, 2]], "topk_weight": [0.2503783106803894, 0.24995754659175873, 0.2505756616592407, 0.2501748502254486, 0.25033679604530334, 0.25030317902565, 0.25037530064582825, 0.2501157820224762, 0.25040310621261597, 0.250079870223999]}}