{"hidden_size": 32, "n_routed_experts": 64, "num_experts_per_tok": 6, "gate_weight": [0.001485553802922368, -0.007995851337909698, -0.027191700413823128, 0.003921734634786844, 0.015818748623132706, 0.002556877676397562, 0.0014520687982439995, 0.000718277704436332, 0.0328422412276268, 0.03741123899817467, -0.0018582978518679738, 0.024846691638231277, -0.006223984993994236, -0.004719357471913099, -0.015569173730909824, -0.022642726078629494, -0.007688120007514954, 0.02481597103178501, 0.008834500797092915, 0.002321122447028756, -0.017361832782626152, 0.011606565676629543, -0.008048968389630318, -0.00408628536388278, -0.015125881880521774, 0.03383837267756462, 0.00204615481197834, -0.027284882962703705, -0.0006071818061172962, 0.018520478159189224, -0.015616605058312416, -0.014197597280144691, 0.023991843685507774, -0.007409428711980581, -0.019121568650007248, 0.02211238630115986, 0.011242873035371304, 0.00011222199100302532, 0.014353346079587936, -0.002724457299336791, -0.0423368401825428, -0.014463216997683048, 0.008811546489596367, -0.019458089023828506, -0.03243012726306915, 0.0036363841500133276, 0.003288619453087449, 0.03385966271162033, -0.018920212984085083, -0.012915785424411297, 0.013532592914998531, 0.04252730682492256, 0.00987271685153246, -0.008673235774040222, 0.005353859160095453, -0.019380073994398117, 0.013720694929361343, 0.01464649848639965, -0.0009167059324681759, -0.02381284162402153, 0.016998430714011192, 0.005397732835263014, -0.012131795287132263, 0.016629386693239212, -0.012899340130388737, 0.019757511094212532, 0.029337916523218155, 0.000977831776253879, -0.014022288843989372, -0.0023699456360191107, -0.00605411734431982, 0.025447577238082886, 0.006324315443634987, 0.005870025604963303, -0.0022033704444766045, -0.006651037838310003, 0.000451807864010334, -0.0062568578869104385, -0.0365685299038887, -0.019320230931043625, -0.02853020653128624, 0.023333290591835976, -0.0006171146524138749, 0.00822520162910223, -0.014002694748342037, -0.020433103665709496, -0.0034860612358897924, 0.028945837169885635, 0.009529601782560349, -0.020391179248690605, -0.014674625359475613, -0.0026283960323780775, -0.003421599743887782, -0.0072461990639567375, 0.009535735473036766, -0.02316233515739441, -0.03347301483154297, 0.0046412143856287, 0.00125737558118999, -0.0015102067263796926, 0.0053636664524674416, 0.01058877445757389, -0.03442400321364403, -0.009362716227769852, 0.003842914244160056, 0.03816383332014084, -0.01005578227341175, 0.01964668370783329, 0.005828919354826212, 0.022326350212097168, 0.009819861501455307, -0.011523954570293427, -0.001487072091549635, 0.018073795363307, 0.020530488342046738, 0.03903466463088989, 0.004099107813090086, -0.0046556852757930756, 0.0370391309261322, -0.012409633956849575, 0.013000343926250935, 0.008300387300550938, -0.018729686737060547, -0.004452044609934092, -0.005860775709152222, 0.02849610708653927, -0.005745593924075365, -0.02604706957936287, -0.012944468297064304, 0.028891824185848236, -0.026336397975683212, -0.0427948422729969, -0.01187571045011282, -0.04238514229655266, -0.020586518570780754, 0.009163115173578262, -0.02387545444071293, -0.00157617696095258, -0.007241130340844393, 0.006172803696244955, -0.01563662849366665, -0.053318560123443604, -0.02325334958732128, -0.01617003232240677, -0.013913103379309177, -0.03117023967206478, 0.014526464976370335, -0.01176533568650484, 0.014922644011676311, -0.03612856939435005, -0.004215854685753584, -0.026248104870319366, -0.032748375087976456, 0.009263608604669571, 0.008068658411502838, -0.009532240219414234, 0.0026131586637347937, -0.01994932070374489, -0.031001202762126923, -0.051226768642663956, -0.006897407118231058, 0.003117106156423688, -0.013822363689541817, -0.013544938527047634, -0.02590525895357132, -0.01702292077243328, 0.031748462468385696, 0.0025190827436745167, -0.003824824234470725, 0.03565940633416176, 0.002306978451088071, -0.011148440651595592, 0.001716151600703597, 0.01543421670794487, 0.013219637796282768, -0.007267762441188097, -0.015786876901984215, -0.00013280122948344797, -0.0058032451197505, 0.0157930888235569, 0.0014334743609651923, 0.0014999769628047943, 0.0377981998026371, -0.028059743344783783, -0.007707168348133564, 0.04099953919649124, 0.037351205945014954, 0.03135222941637039, 0.0008310939301736653, 0.02202167548239231, 0.03917315974831581, 0.0054970900528132915, -0.018088029697537422, 0.013729510828852654, -0.014898189343512058, -0.0023049458395689726, 0.030891142785549164, 0.009747794829308987, 0.03186167776584625, -0.030375098809599876, 0.01165256928652525, 0.022749360650777817, 0.014424997381865978, 0.004814458079636097, -0.013277053833007812, 0.025064989924430847, 0.01526731252670288, 0.03269712254405022, -0.0012700808001682162, -0.0043085673823952675, 0.009683199226856232, -0.017468933016061783, -0.0035436933394521475, -0.012464516796171665, -0.005528001580387354, -0.00025178774376399815, -0.023940283805131912, 0.0037209861911833286, 0.017619259655475616, -0.025558508932590485, 0.038285866379737854, 0.028744272887706757, -0.011695384979248047, -0.012079000473022461, -0.010298922657966614, -0.02239098772406578, -0.0029400652274489403, -0.00491632055491209, 0.0245742816478014, 0.04952853545546532, -0.0456913523375988, 0.004561913665384054, -0.009266911074519157, 0.012270762585103512, 0.020111752673983574, -0.03171413019299507, -0.008197934366762638, -0.07185772806406021, 0.005074088461697102, 0.002436054637655616, -0.0328751765191555, -0.0035151217598468065, -0.015200762078166008, 0.0032580539118498564, 0.012158893048763275, 0.008534982800483704, -0.02789897471666336, 0.022495273500680923, 0.03273308277130127, -0.01135669369250536, 0.007565723266452551, -0.011301940307021141, -0.039239950478076935, -0.004973832983523607, 0.025649799033999443, 0.0019156471826136112, -0.011226990260183811, -0.049316734075546265, 0.012389598414301872, -0.00906401313841343, -0.02439745143055916, 0.04779191315174103, 0.047667235136032104, 0.021807314828038216, -0.004823795985430479, -0.013887738808989525, 0.004677202086895704, -0.004297252278774977, 0.00025170581648126245, -0.013975399546325207, 0.018997695297002792, 0.007184267975389957, -0.021942462772130966, 0.034194037318229675, 0.041927121579647064, 0.000554446829482913, 0.020579107105731964, -0.051938943564891815, 0.017238957807421684, -0.027039796113967896, 0.014204518869519234, -0.04585537314414978, 0.003411868354305625, 0.0035725589841604233, 0.0249848123639822, -0.010643082670867443, 0.01388274971395731, 0.010022065602242947, 0.04101391136646271, 0.0035410611890256405, -0.011087538674473763, 0.008768846280872822, -0.002645143773406744, -0.00477330619469285, 0.0016315901884809136, -0.008328179828822613, -0.013819201849400997, 0.0027493578381836414, -0.03123713843524456, -0.019797014072537422, -0.02098941057920456, -0.02751477248966694, -0.03204457461833954, 0.0015744391130283475, 0.0014328618999570608, -0.010530997067689896, -0.028701484203338623, 0.01671796478331089, 0.04559103026986122, 0.002275809645652771, 0.02661854960024357, 0.00660782540217042, -0.02061971090734005, 0.0015697359340265393, 0.007805152330547571, 0.011294182389974594, -0.0035719643346965313, 0.018096646293997765, 0.0017638183198869228, 0.010703922249376774, -0.017115991562604904, 0.01260179840028286, 0.012889426201581955, -0.02097111940383911, 0.006257849745452404, -2.1986274077789858e-05, -0.01698126271367073, 0.021912697702646255, -0.007238731719553471, -0.01848285272717476, 0.0010176149662584066, 0.024798009544610977, -0.005224492866545916, -0.016161561012268066, -0.022362446412444115, -0.004190541338175535, 0.021246254444122314, -0.046027056872844696, -0.01983221434056759, -0.018466414883732796, -0.0070753926411271095, -0.013160169124603271, 0.012528927996754646, 0.012160238809883595, -0.00779404491186142, 0.009256490506231785, -0.002926543587818742, -0.007071410771459341, -0.006715445313602686, 0.04704058915376663, -0.002918720245361328, -0.025712421163916588, 0.008375586941838264, 0.011596296913921833, -0.013676874339580536, -0.010124458000063896, -0.016000375151634216, 0.004647327587008476, 0.010087594389915466, 0.0027324354741722345, 0.017034634947776794, -0.004999184515327215, -0.011462895199656487, 0.036447618156671524, -0.0033573471009731293, 0.007046244107186794, 0.02304282784461975, -0.03630930185317993, 0.008350647985935211, -0.006882199551910162, -0.004089324735105038, -0.002165872137993574, 0.006368651054799557, -0.023613490164279938, -0.023388253524899483, -0.008906827308237553, 0.006959052756428719, -0.023791879415512085, -0.012425312772393227, -0.018960129469633102, -0.042970675975084305, -0.0034944633953273296, 0.012500683777034283, -0.026684589684009552, -0.006170971784740686, 0.02687021717429161, -0.025511715561151505, 0.017241284251213074, -2.896385922213085e-05, -0.004587136209011078, 0.007856994867324829, -0.0027747061103582382, 0.04083860293030739, -0.02313994988799095, -0.03140125423669815, -0.02499236725270748, 0.021258069202303886, -0.012071904726326466, -0.02190730720758438, 0.004397551529109478, -0.016449611634016037, 0.0015072288224473596, 0.07121899724006653, -0.008051984012126923, 0.01422087661921978, -0.014830326661467552, -0.03491625934839249, 0.019235512241721153, 0.020199930295348167, -0.026401273906230927, -0.028399156406521797, -0.03314582258462906, 0.005531430244445801, -0.005332385189831257, 0.024198926985263824, 0.0087360804900527, -0.02402782067656517, -0.03127877414226532, 0.006566896103322506, -0.0029249503277242184, -0.0017510835314169526, 0.009325914084911346, 0.02300003543496132, 0.0009428241173736751, 0.01579735241830349, -0.020774751901626587, -0.01672380603849888, 0.017946995794773102, 0.02494708076119423, 0.008262882940471172, -0.0026580169796943665, -0.0033333126921206713, -0.006951452232897282, -0.010332767851650715, -0.01542543526738882, -0.03436044976115227, -0.019351257011294365, 0.003778692102059722, -0.026173098012804985, 0.03388042375445366, 0.01876141130924225, -0.038198988884687424, -0.03562881425023079, 0.015838302671909332, 0.03066553920507431, 0.03778089955449104, -0.001185148605145514, -0.00520310876891017, 0.005290695931762457, 0.004260052926838398, 0.0065403953194618225, 0.01036739069968462, 0.005850500892847776, -0.02711729146540165, -0.008247274905443192, -0.006089566741138697, -0.017893433570861816, -0.04280177131295204, -0.0025902509223669767, 0.02843087539076805, 0.016544101759791374, -0.038884881883859634, -0.010272576473653316, 0.012700069695711136, 0.020077742636203766, 0.004713813774287701, -0.04117719084024429, -0.021094905212521553, 0.03379947692155838, 0.0019271648488938808, 0.007120904047042131, 0.0134131396189332, 0.0009021200239658356, 0.02464105375111103, 0.023237450048327446, -0.010377367958426476, -0.003529565641656518, 0.039570629596710205, 0.00750594912096858, 0.036215558648109436, -0.028272494673728943, -0.03898852318525314, -0.010417415760457516, 0.007982281036674976, -0.005925385747104883, 0.005908643361181021, -0.012840128503739834, -0.013851413503289223, 0.0234170313924551, 0.009356512688100338, -0.01885521411895752, 0.012962116859853268, -0.017383519560098648, 0.013689080253243446, -0.03741982951760292, 0.004173653200268745, 0.017406295984983444, -0.03425820171833038, -0.026022791862487793, 0.020503263920545578, 0.028737345710396767, 0.0075981044210493565, 0.015874123200774193, -0.024797486141324043, -0.01890033297240734, -0.008151134476065636, -0.016276024281978607, 0.003137327032163739, 0.01847604662179947, 0.011677172966301441, -0.004882149863988161, 0.007639098446816206, 5.171085649635643e-05, -0.005820415448397398, 0.02878173068165779, 0.03060341067612171, 0.020187659189105034, -0.006792486645281315, -0.018337860703468323, -0.0060533625073730946, 0.023446837440133095, 0.0048379674553871155, 0.006482427474111319, 0.017726019024848938, -0.0005843656254000962, -0.0012648488627746701, -0.00535240676254034, -0.01103810966014862, 0.005982517264783382, -0.013154160231351852, 0.029217900708317757, -0.006981065031141043, -0.00377979245968163, 0.006644734181463718, 0.02430439367890358, 0.001112070633098483, 0.005764932371675968, 0.016328169032931328, 0.006154135335236788, -0.025147585198283195, 0.003533379640430212, 0.009069390594959259, -0.01192544586956501, -0.002576662227511406, 0.01824876107275486, -0.013995504938066006, 0.029255760833621025, 0.011624563485383987, 0.0062425401993095875, -0.005286925472319126, 0.017814256250858307, -0.03299783170223236, 0.00112605607137084, 0.024437610059976578, 0.003180022817105055, 0.01290533971041441, -0.013201892375946045, -0.0004029712872579694, -0.003402290167286992, 0.0034460544120520353, -0.024759547784924507, -0.0479816272854805, -0.011195138096809387, 0.038166847079992294, 0.01112203299999237, -0.0023401849903166294, -0.01571415364742279, -0.003871997818350792, -0.01238658744841814, 0.005882656667381525, -0.012980538420379162, -0.017391890287399292, 0.012337058782577515, 0.0053589860908687115, 0.009682469069957733, 0.0017905810382217169, -0.031814660876989365, 0.0004297294362913817, 0.006040312349796295, 0.02450786717236042, 0.028253838419914246, -0.02198534831404686, -0.016409898176789284, -0.009991399943828583, 0.021718190982937813, -0.011996092274785042, 0.010249167680740356, -0.025321023538708687, 0.024303192272782326, -0.020040374249219894, 0.02910710498690605, 0.023151228204369545, 0.013952039182186127, 0.019374454393982887, 0.036595605313777924, 0.0130509864538908, -0.03704451769590378, -0.04785921052098274, -0.030476881191134453, -0.04892091825604439, -0.016772668808698654, 0.034001801162958145, 0.03423739969730377, -0.0018375534564256668, 0.020149921998381615, -0.022843245416879654, 0.008891352452337742, 0.04752838611602783, 0.028958115726709366, -0.010408857837319374, 0.02616201899945736, -0.030421769246459007, -0.013612844981253147, -0.023642834275960922, 0.023550229147076607, 0.014323174953460693, 0.0009032272500917315, -0.015501185320317745, 0.038803864270448685, 0.005704096518456936, 0.02011162042617798, 0.004642424639314413, 0.008901895023882389, -0.02920038439333439, 0.028233127668499947, -0.0451609306037426, -0.001524989027529955, 0.015830017626285553, -0.006864091381430626, -0.0135226771235466, -0.0011998915579169989, -0.031224610283970833, -0.02863108180463314, 0.001202707877382636, 0.024117812514305115, -0.003206256777048111, -0.0009529392700642347, 0.011963971890509129, 0.025842901319265366, -0.027354763820767403, -0.02789897471666336, -0.00890553928911686, -0.008018579334020615, 0.014123518019914627, 0.02066178247332573, -0.017410235479474068, -0.03154037520289421, 0.016627943143248558, -0.0010273256339132786, 0.016284996643662453, -0.012497064657509327, 0.018378686159849167, 0.016037240624427795, -0.011843591928482056, 0.034271739423274994, 0.04277033731341362, 0.005047565791755915, 0.005764008034020662, -0.019999584183096886, -0.009087015874683857, -0.024151960387825966, -0.012672469019889832, -0.012903861701488495, -0.006162864621728659, -0.002932880073785782, 0.05082883685827255, -0.013735044747591019, -0.03177545592188835, -0.05127396807074547, -0.013561001978814602, 0.016459478065371513, 0.04679000377655029, 0.007040437310934067, -0.045844484120607376, -0.012107674963772297, -0.004781021736562252, 0.01818770542740822, -0.0032981187105178833, -0.017471976578235626, -0.044007282704114914, 0.011375043541193008, -0.0014484717976301908, 0.005431750789284706, -0.016285400837659836, 0.02702677622437477, 0.006772925145924091, 0.006679714657366276, 0.00012978445738554, 0.031653787940740585, -0.0025435825809836388, -0.029409045353531837, -0.0007398578454740345, 0.007684557698667049, 0.010382117703557014, -0.017375506460666656, 0.016732655465602875, 0.015695655718445778, -0.016950102522969246, -0.022853029891848564, -0.017257386818528175, 0.010933936573565006, 0.003102462273091078, 0.005134384147822857, 0.044631656259298325, 0.019295288249850273, 0.03337313234806061, 0.013150287792086601, -0.02190006710588932, -0.0004907022812403738, 0.025028130039572716, -0.002104929881170392, 0.008304440416395664, 0.011333734728395939, -0.014179293997585773, 0.0052508143708109856, -0.010549341328442097, 0.008905436843633652, 0.0076690237037837505, 0.016911983489990234, -0.02170909382402897, -0.0015327681321650743, 0.040218476206064224, 0.0044677830301225185, -0.02136899158358574, -0.022462472319602966, -0.002733070868998766, 0.003123297356069088, 0.011614039540290833, -0.02707117237150669, -0.03615974634885788, 0.00215223734267056, -0.009363891556859016, 0.010758766904473305, 0.007089528255164623, 0.0034595823381096125, -0.03199620917439461, -0.005709437187761068, 0.021639397367835045, 0.010066529735922813, 0.015205010771751404, -0.01805744506418705, 0.058336418122053146, 0.026758307591080666, 0.0005161649314686656, 0.009216727688908577, -0.0010178787633776665, -0.009249807335436344, 0.0011916115181520581, 0.0031394006218761206, -0.005899513140320778, -0.004596225451678038, 0.01779797300696373, 0.005566976498812437, -0.023919252678751945, -0.008834034204483032, 0.013316952623426914, -0.009670666418969631, 0.004841968417167664, 0.04480704665184021, -0.01909533515572548, -0.004781749099493027, 0.000257745647104457, -0.03582313656806946, 0.00877723004668951, 0.00387930148281157, 0.019748736172914505, 0.03185966983437538, -0.026400718837976456, -0.012241717427968979, -0.03163985162973404, 0.013553701341152191, -0.04461684077978134, 0.03132212162017822, -0.023543348535895348, 0.007658614777028561, 0.007883233949542046, 0.02819366194307804, -0.022651979699730873, -0.006882949732244015, 0.03174035996198654, 0.0146104097366333, -0.014330031350255013, -0.022066185250878334, -0.011767622083425522, 0.02801353856921196, 0.0034258835949003696, -0.01941508799791336, -0.02590620517730713, 0.04105101898312569, 0.010002785362303257, 0.0036030798219144344, -0.019437415525317192, 0.0034135242458432913, 0.0051564425230026245, -0.009091376326978207, -0.026491805911064148, 0.0002655723656062037, 0.007699805311858654, 0.007046087644994259, -0.03407411649823189, -0.027628527954220772, 0.007777465041726828, -0.04246945306658745, 0.037896912544965744, -0.014594296924769878, 0.009809489361941814, -0.010960963554680347, -0.017180006951093674, -0.0018062571762129664, 0.005360582377761602, 0.023588208481669426, 0.0016507123364135623, -0.01950938068330288, 0.029743222519755363, -0.007630191743373871, 0.0033124794717878103, -0.008941229432821274, -0.00636579655110836, -0.010242068208754063, -0.03162806108593941, -0.007035713642835617, -0.011366890743374825, 0.0030958186835050583, -0.0067793261259794235, -0.004146620165556669, -0.04400093853473663, -0.008515681140124798, -0.022031785920262337, 0.03352316841483116, 0.017105799168348312, 0.025208231061697006, 0.0022942160721868277, 0.03656196594238281, 0.00902561005204916, 0.00579834496602416, 0.025477837771177292, -0.024347692728042603, -0.02543778531253338, -0.0013807053910568357, -0.0072481376118958, 0.02622240036725998, -0.0035618820693343878, 0.008801450952887535, -0.010518411174416542, 0.03644358739256859, 0.0009794862708076835, 0.015702489763498306, -0.014909561723470688, -0.006959295831620693, 0.0015414144145324826, 0.02309214510023594, -0.008403248153626919, -0.01183372363448143, -0.008563616313040257, -0.027124900370836258, 0.03013218380510807, -0.014754154719412327, -0.020047174766659737, 0.008381105959415436, -0.02313447929918766, -0.02661219984292984, 0.04224226251244545, -0.01859942078590393, 0.01776512898504734, 0.025738490745425224, 0.021178897470235825, 0.004179643467068672, 0.0021352400071918964, 0.02862340211868286, -0.0049873171374201775, 0.025812914595007896, 0.02137809433043003, -0.004023008048534393, -0.011999228969216347, -0.022410692647099495, 0.011608078144490719, -0.025686871260404587, -0.011679990217089653, -0.02123003825545311, -0.0013172498438507318, -0.006041631102561951, 0.00773557648062706, 0.010541374795138836, -0.009350482374429703, -0.006057088728994131, -0.0019205720163881779, 0.0034190756268799305, 0.007070052903145552, 0.0095683503895998, 0.0027087251655757427, 0.004794206935912371, -0.007898219861090183, 0.0009257803903892636, 0.003539938246831298, 0.00883522816002369, 0.028171831741929054, -0.019765950739383698, -0.020570261403918266, 0.0096574816852808, 0.03442230075597763, -0.0054359156638383865, 0.03962869569659233, -0.001959654502570629, -0.028132043778896332, 0.025817593559622765, -0.02417353168129921, -0.009641159325838089, -0.02214161865413189, -0.02936553582549095, 0.026633460074663162, -0.010852979496121407, -0.005960132461041212, -0.03924022242426872, 0.0036120049189776182, 0.01346016488969326, -0.014411347918212414, -0.014121285639703274, 0.00866502895951271, 0.0016974281752482057, 0.020377887412905693, 0.018463028594851494, 0.021758215501904488, -0.0026032808236777782, -0.0007747521158307791, 0.029349343851208687, 0.02245124988257885, -0.006821728311479092, -0.0038184281438589096, 0.0020877898205071688, -0.015724536031484604, 0.027244823053479195, 0.029617253690958023, 0.005426375195384026, -0.026725629344582558, 0.005563166458159685, -0.012257074005901814, -0.00485770171508193, -0.000789818586781621, 0.01918015442788601, 0.00802639126777649, 0.005204382352530956, 0.007924642413854599, -0.03129204362630844, -0.013017323799431324, -0.01050181221216917, 0.02158975601196289, 0.0028816410340368748, 0.0035021963994950056, -0.01868976093828678, -0.019885344430804253, 0.019833525642752647, -0.003746587783098221, 0.03348920866847038, 0.005183578468859196, 0.007404749281704426, 0.01725899800658226, -0.03129638731479645, -0.000798522203695029, 0.0063223461620509624, -0.03224554285407066, -0.03715630993247032, 0.014653623104095459, -0.012889723293483257, -0.0036214774008840322, -0.017873559147119522, -0.0001984218106372282, 0.04804694652557373, -0.005458131432533264, -0.03208054602146149, 0.003200103063136339, 0.02562311664223671, -0.007176296319812536, -0.0262964628636837, -0.01563281938433647, -0.024112893268465996, -0.028534814715385437, -0.004134907387197018, -0.019314458593726158, -0.014432805590331554, 0.026178814470767975, -0.00022329617058858275, -0.0016651478363201022, 0.03945476561784744, 0.020638300105929375, 0.010246853344142437, -0.025334984064102173, 0.00924114789813757, -0.028421500697731972, 0.00829386617988348, 0.0200498104095459, -0.005186453927308321, -0.025061428546905518, -0.012073229067027569, 0.04304748401045799, -0.005705009680241346, -0.00914514809846878, -0.017142534255981445, 0.014646775089204311, -0.028626075014472008, 0.005706664174795151, 0.020509690046310425, -0.009044376201927662, 0.011554022319614887, -0.027976948767900467, 0.003805753542110324, 0.017443882301449776, -0.018353529274463654, 0.03004559502005577, 0.008429878391325474, 0.022388441488146782, 0.02090442180633545, -0.009671610780060291, 0.00725205522030592, -0.01648635044693947, -0.004799015820026398, 0.008635018952190876, -0.02097802609205246, 0.03159955516457558, -0.04776083678007126, 0.016579123213887215, 0.02022841013967991, 0.01324357558041811, -0.015338881872594357, 0.028302296996116638, -0.015577410347759724, -0.009864858351647854, 0.021436862647533417, 0.0453907810151577, 0.029452595859766006, -0.0066002486273646355, -0.010057074017822742, -0.016979066655039787, 0.010555324144661427, 0.024094827473163605, -0.017518792301416397, 0.010455174371600151, 0.011447864584624767, -0.02078155055642128, 0.006533669773489237, -0.01699160970747471, -0.05366182327270508, 0.018699724227190018, -0.0017095363000407815, 0.012297541834414005, -0.0061278878711164, 0.009358985349535942, -0.008783960714936256, -0.03817102313041687, 0.030811626464128494, -0.012805144302546978, -0.021413473412394524, -0.008139773271977901, 0.0003020590520463884, -0.021892061457037926, 0.007084115408360958, 0.009916729293763638, -0.001590209431014955, -0.028149042278528214, -0.04397675022482872, -0.011202136985957623, -0.023854494094848633, 0.011099607683718204, 0.007647489197552204, 0.010661066509783268, -0.006104839965701103, 0.001599383307620883, -0.011155295185744762, 0.02172761783003807, -0.025980902835726738, 0.015403331257402897, -0.02913670800626278, 0.0173905398696661, -0.018190376460552216, -0.005459800362586975, 0.028165332973003387, 0.02909415401518345, 0.03340538591146469, 0.019975295290350914, 0.002423432655632496, 0.0011112658539786935, 0.021421419456601143, -0.0208079032599926, -0.010239244438707829, 0.013510365970432758, -0.012226246297359467, 0.023841947317123413, 0.03658637776970863, -0.00981082022190094, 0.026913687586784363, -0.04382416605949402, 0.02377050183713436, 0.023308832198381424, 0.00786570180207491, -0.023090118542313576, -0.00850075762718916, -0.00844492856413126, 0.021025046706199646, -0.004802749492228031, -0.014827197417616844, 0.007887073792517185, 0.022184111177921295, -0.016103573143482208, 0.022430045530200005, 0.028329147025942802, -0.003350213635712862, 0.023668810725212097, 0.0032558178063482046, 0.011052489280700684, 0.0020516752265393734, 0.017481133341789246, -0.03081018291413784, -0.019689584150910378, -0.022276096045970917, -0.015320256352424622, -0.00415734201669693, 0.011727307923138142, 0.010890109464526176, 0.0005986054893583059, -0.007710081059485674, -0.040544189512729645, 0.04457055404782295, -0.0030253937002271414, 0.021292749792337418, -0.01846345327794552, 0.0006084148189984262, -0.014974726364016533, -0.011569251306355, 0.0011933528585359454, -0.005133193451911211, 0.02426040917634964, -0.011440187692642212, -0.0034883234184235334, -0.004128806758671999, -0.013818027451634407, 0.007949483580887318, 0.02129601500928402, -0.020723702386021614, -0.0055621019564569, -0.03875252977013588, -0.027866147458553314, 0.025647684931755066, 0.008532949723303318, -0.02372857555747032, 0.008471458218991756, -0.027930965647101402, -0.030671754851937294, 0.04024755209684372, 0.01277736946940422, 0.004122550133615732, 0.005242060869932175, 0.02027968131005764, -0.0023910515010356903, 0.020114295184612274, 0.0035263001918792725, 0.022912731394171715, 0.022181455045938492, 0.011878290213644505, -0.014493334107100964, 0.01645660400390625, 0.020513493567705154, -0.03943484276533127, 0.0016434913268312812, -0.026754800230264664, -0.009274199604988098, -0.00029729021480306983, 0.003924161195755005, 0.015544786117970943, -0.0008401080267503858, -0.019299451261758804, -0.002606184221804142, -0.03250614553689957, -0.004507964942604303, -0.021664954721927643, -0.006761948112398386, 0.013603858649730682, -0.037855688482522964, 0.005687934812158346, -0.0015006597386673093, 0.0031444125343114138, 0.008588530123233795, 0.01769726723432541, -0.010426531545817852, -0.01567712426185608, 0.03330616280436516, -0.007477237842977047, 0.010713573545217514, -0.03600769117474556, -0.0009479193249717355, -0.0017097070813179016, 0.04146268591284752, -0.013359216041862965, 0.012449998408555984, -0.011424518190324306, -0.009938211180269718, 0.013488544151186943, 0.03205517679452896, -0.024108104407787323, -0.029535429552197456, -0.014795273542404175, -0.009670739062130451, -0.004741032142192125, 0.01618124730885029, -0.01350044459104538, -0.0012393598444759846, -0.001192293013446033, -0.02343996800482273, -0.0025676987133920193, 0.009124456904828548, 0.010924950242042542, -0.02489813230931759, -0.02734393998980522, 0.01319338008761406, 0.02927643060684204, -0.012936901301145554, 0.055583056062459946, -0.02812652848660946, -0.004369437228888273, 0.026310600340366364, -0.00012379152758512646, 0.01980413869023323, 0.013422699645161629, -0.003640108508989215, -0.01745755784213543, -0.0012603217037394643, 0.021029099822044373, 0.011023778468370438, 0.031337227672338486, -0.00021842059504706413, -0.007524869404733181, 0.01714210957288742, -0.010287156328558922, -0.0005288931424729526, -0.0021146456710994244, 0.024882784113287926, -0.007305530831217766, -0.011684193275868893, 0.020030193030834198, -0.0064500379376113415, 0.02810746431350708, 0.0011525069130584598, -0.016149412840604782, 0.01479033101350069, -0.009007634595036507, 0.004365785513073206, -0.034257419407367706, -0.024395206943154335, -0.003596610389649868, 0.02867877669632435, -0.005653678439557552, -0.004778822883963585, 0.005779052618891001, -0.015338811092078686, 0.027390340343117714, -0.0022960922215133905, 0.04133707284927368, 0.008898917585611343, 0.014539678581058979, -0.01916692405939102, -0.020189713686704636, -0.021371381357312202, 0.048366136848926544, 0.005178100895136595, 0.022173332050442696, -0.012944582849740982, -0.005368854384869337, 0.0017376376781612635, 0.0035369587130844593, -0.014874952845275402, -0.0380956269800663, -0.05320580303668976, 0.03115876391530037, -0.03462614119052887, -0.019123608246445656, -0.01556906383484602, -0.017020821571350098, -0.0042001246474683285, 0.003293205052614212, 0.038579922169446945, -0.05258053168654442, 0.0016300537390634418, -0.0055364337749779224, 0.0041005611419677734, -0.030544081702828407, -0.0071044848300516605, 0.005859899800270796, -0.030355248600244522, 0.05442645028233528, -0.017236296087503433, -0.060157064348459244, -0.022106537595391273, -0.03642613813281059, -0.02450808510184288, 0.008080786094069481, -0.018735582008957863, -0.0010961928637698293, 0.03967819735407829, -0.011172040365636349, -0.027267586439847946, -0.01508154347538948, -0.024733709171414375, -0.034794457256793976, 0.024037746712565422, 0.011554105207324028, 0.0443759560585022, 0.028496822342276573, 0.001955091254785657, 0.006371750496327877, 0.005323844030499458, -0.008186561986804008, 0.01622573286294937, -0.021428806707262993, -0.008961008861660957, -0.04453473165631294, -0.015252000652253628, 0.016604414209723473, 0.019962288439273834, 0.040472231805324554, -0.0017259586602449417, 0.007346684578806162, 0.012599997222423553, -0.0032471856102347374, -0.008893298916518688, -0.002326937159523368, 0.005095391068607569, -0.03277074918150902, -0.007749711629003286, 0.008668540976941586, -0.003081253031268716, 0.029118873178958893, -0.01671086810529232, -0.01708214171230793, 0.001678725122474134, -0.04566279426217079, -0.02377118356525898, 0.03347105532884598, -0.002410630462691188, -0.006883751135319471, -0.022488581016659737, -0.03049466945230961, -0.028108427301049232, 0.014623920433223248, 0.0021690884605050087, 0.007438120897859335, -0.0339420884847641, 0.026246150955557823, -0.00686469255015254, -0.0026402552612125874, 0.008959867060184479, -0.005944202188402414, -0.009983716532588005, 0.0023090976756066084, 0.00961233302950859, -0.026226766407489777, -0.019384825602173805, -0.00753942783921957, -0.01256569754332304, 0.013263638131320477, -0.00978910643607378, 0.00038801252958364785, -0.0029053783509880304, -0.011142462491989136, -0.01721886359155178, 0.01940746232867241, 0.016275150701403618, 0.021149592474102974, 0.01515986304730177, -0.0022083919029682875, 0.0013777242274954915, -0.01414144691079855, 0.014994576573371887, -0.021386517211794853, 0.006513388827443123, -0.035328686237335205, -0.011000177823007107, 0.016525620594620705, -0.00915435142815113, 0.00693169143050909, 0.03799943998456001, -0.025651967152953148, -0.007288303226232529, -0.04158434271812439, 0.014436622150242329, -0.013499077409505844, -0.03421583026647568, -0.007378309965133667, -0.02115810289978981, -0.030170565471053123, -0.023969538509845734, 0.03480576351284981, -0.013295098207890987, 0.03188792243599892, -0.00018418909166939557, -0.015717778354883194, -0.02232060767710209, -0.013424533419311047, -0.021862531080842018, -0.0046164002269506454, -0.020384695380926132, -0.013352496549487114, -0.013673937879502773, -0.039172880351543427, 0.007686778903007507, 0.019943377003073692, -0.005659553688019514, 0.017565464600920677, 0.00815079640597105, 0.025842344388365746, -0.011015051044523716, -0.005147753283381462, 0.04884038865566254, -0.027442432940006256, -0.01944388635456562, 0.005331775639206171, 0.017577774822711945, 0.010212497785687447, 0.003915773704648018, -0.052729811519384384, -0.01801575906574726, -0.020450454205274582, 0.001884494093246758, 0.013038435019552708, 0.006875146646052599, -0.0100588733330369, 0.0019950419664382935, 0.007190679665654898, -0.01285505946725607, 0.005174876190721989, 0.014061912894248962, 0.03162206709384918, 0.008227020502090454, 0.004847350064665079, 0.026000985875725746, -0.015941103920340538, 0.010945103131234646, -0.027905995026230812, -0.03183329850435257, 8.222395263146609e-05, 0.009627686813473701, 0.03055611066520214, -0.0004985523992218077, 0.024301802739501, 0.011835468001663685, -0.007832536473870277, -0.012107518501579762, 0.013910920359194279, -0.03573395311832428, -0.05358682945370674, -0.0032537581864744425, -0.01939297839999199, 0.010666554793715477, -0.0024172316771000624, -0.006101950071752071, -0.006506818812340498, 0.024115633219480515, -0.03057468868792057, -0.00610997062176466, 0.0020265402272343636, 0.032600827515125275, -0.005078362766653299, 0.01466088742017746, -0.007762117311358452, -0.034470103681087494, -0.021701442077755928, 0.0007341752061620355, 0.00425600865855813, 0.04075590521097183, 0.007603851612657309, 0.0006808792822994292, -0.04837722331285477, -0.025037871673703194, 0.0062318043783307076, -0.0026901867240667343, 0.004243422765284777, -0.015282741747796535, 0.022141681984066963, 0.004413039423525333, -0.01061165425926447, 0.025422021746635437, 0.029513148590922356, 0.011444782838225365, -0.012042204849421978, 0.00198020925745368, -0.03325379639863968, 0.01375091914087534, 0.016876375302672386, 0.0027630163822323084, -0.018455972895026207, -0.01065127830952406, 0.016167471185326576, 0.004042229615151882, -0.0063789645209908485, 0.0013333428651094437, 0.03503674268722534, -0.01497109979391098, -0.021601442247629166, 0.004918853752315044, 0.0026923806872218847, 0.01393038034439087, 0.014884894713759422, 0.00535476952791214, 0.032006680965423584, 0.010018362663686275, -0.05581090971827507, -0.022946681827306747, 0.0062606618739664555, -0.018514955416321754, -0.0035099368542432785, 0.0029453232418745756, -0.005228732246905565, 0.004386087413877249, 0.011908532120287418, 0.004168028477579355, 0.007687495090067387, 0.028760602697730064, 0.018769513815641403, 0.00498867267742753, -0.021742822602391243, 0.011075847782194614, -0.025133883580565453, 0.015805263072252274, -0.018292421475052834, 0.07126077264547348, 0.0031073756981641054, -0.009390604682266712, 0.007822120562195778, -0.017170138657093048, 0.038897573947906494, -0.016210079193115234, 0.0012434525415301323, 0.029519306495785713, 0.05971075966954231, -0.02589668519794941, 0.04534437879920006, -0.019971156492829323, -0.03134331479668617, -0.003399642650038004, -0.00960543006658554, -0.009799324907362461, -0.025754129514098167, 0.0032113625202327967, 0.01791044883430004, 0.03702475130558014, 0.01987561210989952, 0.04344544932246208, -0.04046111926436424, 0.018304774537682533, -0.012512203305959702, 0.009854414500296116, 0.0252786073833704, 0.0433613583445549, -0.011489884927868843, 0.00806375965476036, 0.01531164813786745, 0.013946746475994587, -0.007945707999169827, 0.003543041180819273, 0.05728505551815033, 0.009465706534683704, 0.02310003899037838, 0.003642517840489745, 0.008040166459977627, 0.018587956205010414, 0.009905808605253696, 0.03797341138124466, 0.016210447996854782, -0.0026237331330776215, -0.006841215770691633, -0.01617870107293129, -0.007658577524125576, -0.01155199483036995, 0.04810993745923042, -0.0007641106494702399, -0.006095631513744593, -0.00619535194709897, -0.010669371113181114, 0.0012750700116157532, 0.009059528820216656, 0.010296180844306946, -0.06921428442001343, 0.015023377723991871, -0.028804605826735497, -0.008830870501697063, -0.0051150694489479065, 0.013798041269183159, -0.0021170915570110083, 0.009075322188436985, -0.01644195429980755, 0.0056902323849499226, -0.021008655428886414, -0.015484524890780449, 0.008765028789639473, 0.021060556173324585, -0.043420419096946716, 0.038974881172180176, -0.02383708953857422, 0.03672172129154205, -0.004829759243875742, -0.02934531308710575, 0.007532421033829451, 0.019421186298131943, 0.0029366472736001015, -0.025643453001976013, -0.006254125852137804, 0.030432501807808876, -0.019846342504024506, 0.02069729007780552, -0.027473943307995796, -0.0010890046833083034, 0.0027414646465331316, -0.0005393255269154906, 0.0011223803739994764, -0.01223220769315958, 0.002934228628873825, -0.006132407579571009, -0.0015995417488738894, -0.019753584638237953, -0.012227588333189487, 0.011839892715215683, -0.008853679522871971, -0.0005986306350678205, -0.00864352472126484, -0.010150979273021221, 0.018406033515930176, -0.007439482491463423, -0.015481880865991116, 0.017946790903806686, -0.03649916499853134, -0.00965960044413805, 0.04169069230556488, 0.013153497129678726, 0.012194565497338772, 0.012143696658313274, 0.019445875659585, 0.013272691518068314, -0.02182556875050068, -0.02695017121732235, -0.005877638701349497, 0.03325238451361656, 0.00012556978617794812, -0.020781952887773514, -0.0015892043011263013, 0.007309355773031712, 0.02172509767115116, -0.010804492980241776, 0.01352024171501398, 0.02849484421312809, -0.013246677815914154, 0.0027863052673637867, 0.009144567884504795, -0.02394452691078186, -0.009893557988107204, 0.00867381226271391, -0.02742603048682213, 0.007733970880508423, 0.01227265689522028, 0.004788723774254322, -0.04796755313873291, 0.016291391104459763, 0.04580779746174812, -0.007948007434606552, -0.009216736070811749, 0.032612886279821396, -0.0027816544752568007, -0.022326787933707237, 0.016696808859705925, -0.011260918341577053, -0.006436478812247515, -0.028004199266433716, -0.029362807050347328, 0.004329679533839226, 0.0037338046822696924, -0.0050923628732562065, 0.02902064472436905, -0.009462549351155758, -0.025438217446208, 0.004425662569701672, 0.0005957635585218668, 0.0013442744966596365, -0.057097114622592926, -0.008425471372902393, 0.012139041908085346, -0.006781425327062607, 0.0013619932578876615, -0.02757573500275612, 0.0026453430764377117, 0.010755004361271858, -0.0011008860310539603, 0.02060292474925518, 0.010059064254164696, -0.003789701731875539, 0.02259720489382744, 0.04773293808102608, 0.02885034680366516, -0.0020416935440152884, 0.02456739917397499, -0.0018899431452155113, -0.014720593579113483, 0.00332759041339159, -0.0032956732902675867, -0.0008822024683468044, -0.013044125400483608, 0.009654002264142036, 0.011344432830810547, -0.02002083696424961, 0.025620562955737114, 0.02118838205933571, 0.002086797496303916, 0.003303797449916601, 0.03054956905543804, 0.008408279158174992, 0.003330404171720147, 0.021570080891251564, 0.03164803981781006, 0.03877950459718704, -0.002328733215108514, -0.01086196955293417, -0.025336038321256638, -0.009284920059144497, 0.007970756851136684, -0.03200101852416992, 0.005867757834494114, 0.04005350172519684, 0.02711404301226139, -0.000841422937810421, 0.0030897515825927258, -0.02643158845603466, -0.009642639197409153, 0.014296148903667927, -0.01593894138932228, -0.03286994993686676, 0.02906232327222824, -0.023715678602457047, -0.014571486040949821, -0.021318728104233742, 0.021387597545981407, 0.002939268946647644, -0.01783004403114319, 0.007725754752755165, -0.011021964251995087, 0.0258206557482481, -0.020686490461230278, -0.019331293180584908, -0.013979014940559864, 0.023864950984716415, 0.001943980110809207, -0.015385421924293041, 0.010765605606138706, -0.007715580984950066, 0.03597015142440796, -0.016507811844348907, -0.013539486564695835, 0.03836560994386673, -0.0044259545393288136, -0.004843138158321381, -0.0009957539150491357, 0.002580478088930249, 0.0040344176813960075, -0.013312047347426414, 0.012282194569706917, -0.008513129316270351, -0.00838374625891447, 0.011805660091340542, 0.027851328253746033, -0.03200148791074753, -0.024322664365172386, 0.0234393123537302, -0.03267085924744606, 0.012944238260388374, 0.013829105533659458, -0.007330691441893578, 0.013782537542283535, 0.022333528846502304, 0.01120959222316742, 0.009960010647773743, 0.0018889171769842505, 0.010358517989516258, 0.023261159658432007, -0.008349830284714699, 0.031743068248033524, 0.003354923101142049, 0.030837690457701683, 0.0008708920213393867, -0.005217723082751036, -0.0023413384333252907, 0.030622189864516258, -0.01899172179400921, -0.024739660322666168, 0.011459002271294594, 0.03428573161363602, -0.01548023335635662, 0.0046188500709831715, 0.013029755093157291, 0.01863306760787964, 0.01697663962841034, -0.01615438610315323, -0.0023503836710006, -0.024299578741192818, 0.004825315438210964, 0.009398212656378746, -0.007659263908863068, -0.01482323370873928, 0.028858138248324394, 0.0015842192806303501, -0.011405566707253456, 0.031109396368265152, 0.018190523609519005, 0.005057685077190399, 0.024516072124242783, -0.011866318993270397, -0.0026706575881689787, 0.008275353349745274, -0.010026580654084682, 0.01057480089366436, -0.013381926342844963, 0.006100472528487444, -0.03334270045161247, 0.0032737846486270428, 0.003314527217298746, -0.0023717335425317287, -0.002473794622346759, -0.028979498893022537, -0.023393047973513603, -0.019365794956684113, -0.012816703878343105, -0.00651164585724473, -0.04471948370337486, 0.010361699387431145, -0.011907211504876614, -0.033707741647958755, -0.008739322423934937, 0.007673913147300482, -0.0160603616386652, -0.010861683636903763, -0.006051516626030207, -0.009091912768781185, -0.014085604809224606, -0.009031618945300579, -0.022727133706212044, -0.024341966956853867, 0.01301975455135107, -0.01575050875544548, -0.008065697737038136, -0.0836247131228447, -0.022302433848381042, -0.011315655894577503, -0.007119426503777504, -0.0003991159319411963, -0.02399618551135063, -0.01894240453839302, 0.0015742339892312884, -0.029121220111846924, 0.02478475496172905, -0.016262568533420563, -0.013543263077735901, 0.030736008659005165, -0.031804706901311874, -0.0034372734371572733, -0.0006260107038542628, -0.02373342402279377, 0.02430613711476326, -0.011380089446902275, -0.03503083437681198, -0.009797552600502968, -0.024627339094877243, -0.0039653293788433075, 0.05468994006514549, -0.0055066379718482494, -0.011253339238464832, 0.012271210551261902, 0.0059982528910040855, 0.009969527833163738, -0.026122281327843666, 0.026303606107831, -0.0187369417399168, -0.004151786677539349, 0.030671361833810806, -0.01743871346116066, 0.012504123151302338, -0.026463333517313004, -0.01167312078177929, 0.019524917006492615, -0.0038258214481174946, 0.006691773422062397, 0.006951993331313133, 0.0008158498094417155, 0.002952423645183444, -0.02276451513171196, -0.000215887586819008, 0.01637658104300499, -0.024284955114126205, 0.004998593591153622, -0.0020011202432215214, -0.009755115024745464, -0.011481370776891708, -0.010189400985836983, 0.0008643983164802194, 0.004041041247546673, -0.020151572301983833, -0.018735531717538834, -0.03906195983290672, -0.013481052592396736, -0.0026258586440235376, -0.020993925631046295, 0.02726944349706173, 0.03505244478583336, 0.007475253194570541, 0.005597570911049843, 0.007053712848573923, -0.004933217074722052, 0.03066283091902733, 0.009180640801787376, -0.013248728588223457, -0.019176779314875603, -0.021805457770824432, -0.014302490279078484, 0.00166214257478714, -0.0012423238949850202, 0.014925907365977764, 0.0027047842741012573, -0.007726501207798719, -0.04381956160068512, 0.007712503895163536, 0.0016951528377830982, -0.01293549407273531, -0.004851610399782658, 0.02809671126306057, 0.025434961542487144, 0.012848155573010445, -0.0270396675914526, -0.0024529583752155304, -0.011845841072499752, -0.027473870664834976, 0.00794847309589386, 0.02518155239522457, 0.01794617250561714, 0.024526121094822884, 0.03052866831421852, 0.002903519431129098, 0.02152177132666111, -0.00949019007384777, 0.00702667748555541, 0.035362359136343, 0.03412412852048874, 0.015380986966192722, -0.004739715717732906, -0.00433197570964694, 0.0047801644541323185, 0.03987427428364754, -0.00726398965343833, 0.0008732785354368389, -0.007458750624209642, 0.030530409887433052, 0.00660105561837554, 0.00638185441493988, 0.005348226521164179, -0.002447315026074648, -0.010060410015285015, 0.012150108814239502, 0.023831157013773918, -0.004005307797342539, 0.03623369336128235, 0.0019008060917258263, 0.029865311458706856, 0.014030284248292446, 0.02003052830696106, 0.04614527150988579, -0.013395484536886215, -0.005726540926843882, 0.008453745394945145, -0.0036300139036029577, 0.03392872214317322, 0.022923413664102554, -0.0244872085750103, -0.040830422192811966, -0.018622934818267822, -0.014009280130267143, -0.01942586340010166, -0.012589196674525738, 0.01820375584065914, -0.011331654153764248, -0.019424038007855415, -0.014086274430155754, -0.019839759916067123, 0.030624978244304657, 0.01907641626894474, 0.002887909533455968, 0.04392607882618904, 0.02693244442343712, 0.014048483222723007, 0.0246440302580595, -0.03101062960922718, -0.0007841254700906575, -0.0395195372402668, -0.017352400347590446, -0.0005092233186587691, 0.03990425914525986, 0.010396411642432213, -0.06379607319831848, 0.02825314551591873, 0.014847003854811192, -0.004015560727566481, 0.01147492229938507, -0.037493765354156494, -0.028742870315909386, 0.06114973872900009, 0.029893500730395317, -0.0012283859541639686, 0.011884335428476334, -0.021017028018832207, 0.0010745014296844602, -0.000797501124907285, 0.0017530655022710562, 0.0001449407427571714, -0.01871667616069317, -0.004469231702387333, -0.02400078810751438, -0.036305129528045654, -0.020360395312309265, -0.0001459616469219327, 0.0068908557295799255, 0.009679563343524933, -0.011044281534850597, -0.02940320037305355, -0.0017175821121782064, -0.0068381535820662975, 0.0031348380725830793, -0.014790017157793045, -0.008579034358263016, 0.008548016659915447, 0.010777431540191174, 0.03466861695051193, -0.0007686439203098416, 0.03190021216869354, -0.032342929393053055, 0.010410272516310215, 0.013300602324306965, 0.01069347932934761, 0.010515834204852581, -0.0360678993165493, -0.012127358466386795, 0.02614196389913559, -0.021866129711270332, 0.000630040536634624, 0.012883126735687256, 0.015404107049107552, -0.011920551769435406, -0.01472529023885727, 0.057765863835811615], "input_shape": [4, 32], "input": [-0.018724054098129272, 0.08351656049489975, 0.001948786317370832, -0.01611468940973282, -0.10130947828292847, 0.10154552757740021, 0.099980428814888, 0.040442269295454025, -0.13791154325008392, -0.021462587639689445, 0.018457502126693726, 0.22766128182411194, -0.17709067463874817, -0.05531797558069229, 0.011214806698262691, 0.12979494035243988, -0.14024783670902252, 0.02098977565765381, -0.043069493025541306, -0.019693350419402122, -0.022033698856830597, -0.11509090662002563, 0.0727858766913414, -0.045395877212285995, -0.015392317436635494, -0.0388295017182827, -0.13936038315296173, 0.06435175985097885, -0.0039823949337005615, 0.10560490190982819, -0.12283672392368317, -0.049388863146305084, 0.04334859177470207, -0.05703544244170189, 0.04689588397741318, 0.016258642077445984, -0.24865496158599854, 0.09728991240262985, -0.1451949179172516, -0.20290468633174896, 0.12330861389636993, -0.09979670494794846, 0.07720153778791428, 0.1331690400838852, -0.13859501481056213, 0.11897008866071701, 0.19746384024620056, 0.03818405792117119, -0.07809149473905563, -0.06747182458639145, -0.1239304319024086, -0.08382032811641693, -0.07152574509382248, -0.0605558417737484, 0.08073601126670837, -0.03714091330766678, -0.18727293610572815, 0.0010253805667161942, 0.25267553329467773, -0.1213909387588501, 0.16514861583709717, -0.10969644784927368, -0.14744170010089874, -0.011382992379367352, 0.09839987754821777, 0.19693335890769958, -0.004320995882153511, 0.05952068045735359, -0.08895763009786606, -0.11954893916845322, -0.12592925131320953, -0.07795945554971695, -0.1291094571352005, 0.14680130779743195, -0.014979838393628597, 0.01721501350402832, -0.039598189294338226, 0.14213614165782928, 0.043229639530181885, 0.0064210714772343636, -0.15541605651378632, 0.07398654520511627, -0.0869775339961052, 0.01854388229548931, 0.08467993885278702, -0.19672150909900665, -0.006963707040995359, -0.1701258271932602, -0.04598081484436989, 0.03734966367483139, -0.01213731337338686, 0.043209508061409, -0.18343038856983185, 0.17253784835338593, -0.11914955824613571, -0.04237041249871254, 0.030319854617118835, 0.16464844346046448, 0.1306087225675583, -0.14263664186000824, 0.029988080263137817, -0.009440521709620953, -0.20433270931243896, 0.03042410872876644, -0.15157276391983032, 0.13376109302043915, -0.10300958156585693, 0.08280709385871887, -0.11978127807378769, 0.053261127322912216, 0.044012632220983505, -0.12071509659290314, 0.002558677224442363, 0.04896552115678787, -0.07921480387449265, -0.06675545126199722, -0.06384781748056412, 0.08236152678728104, 0.03265542909502983, 0.12889765202999115, -0.08940780907869339, 0.03546306490898132, 0.15785573422908783, -0.09607233852148056, 0.0802224799990654, 0.013765372335910797, 0.06487689912319183, 0.08010788261890411], "topk_idx": [[37, 23, 8, 30, 4, 62], [47, 43, 28, 51, 6, 25], [45, 56, 5, 3, 4, 38], [35, 49, 45, 62, 22, 44]], "topk_weight": [0.015927549451589584, 0.01592913828790188, 0.01590268686413765, 0.015872374176979065, 0.015833655372262, 0.01582474075257778, 0.016169384121894836, 0.016129029914736748, 0.015957694500684738, 0.016048748046159744, 0.0159552413970232, 0.015953578054904938, 0.01616177335381508, 0.01605132408440113, 0.015874290838837624, 0.01594248227775097, 0.015920527279376984, 0.015868406742811203, 0.016011372208595276, 0.015949808061122894, 0.015907052904367447, 0.01589350774884224, 0.01589250937104225, 0.015859927982091904]}