{"patch_embed": {"kernel": 2, "in_chans": 3, "embed_dim": 8, "weight": [0.014245906844735146, -0.005903988145291805, 0.01163407415151596, 0.008011208847165108, 0.015511632896959782, -0.008113867603242397, 0.00361375673674047, 0.02748231403529644, -0.015188008546829224, 0.004182835109531879, 0.0072264233604073524, -0.012398133985698223, 0.03990582749247551, 0.022723086178302765, -0.02420632541179657, -0.010027127340435982, -0.04366344213485718, 0.011549865826964378, -0.002335995202884078, -0.018838610500097275, -0.014882613904774189, 0.0025993757881224155, 0.005352077540010214, -0.031512439250946045, -0.02944391407072544, -0.006737180054187775, 0.01667402684688568, -0.0077151767909526825, -0.004398867022246122, -0.015107684768736362, -0.039698146283626556, 0.0031567986588925123, 0.005255337804555893, 0.0008569356868974864, 0.011832053773105145, -0.018670473247766495, -0.006441378965973854, -0.015561633743345737, 0.011381869204342365, -0.008335452526807785, 0.023985976353287697, -0.008025373332202435, 0.004933032672852278, -0.0059404149651527405, -0.00917108915746212, -0.02920576184988022, -0.023998714983463287, -0.010945453308522701, -0.03538988158106804, -0.000366277527064085, -0.020842373371124268, 0.00846149306744337, -0.019427049905061722, -0.018982017412781715, -0.03245249390602112, -0.03495421260595322, 0.023531148210167885, 0.03621666133403778, -0.020100703462958336, 0.006814219988882542, -0.00516575388610363, -0.00531404186040163, -0.020229406654834747, -0.003116000909358263, -0.020131226629018784, -0.006135399919003248, -0.003815373405814171, 0.024200545623898506, -0.014265995472669601, -0.002533850260078907, -0.00489718746393919, 0.03682427853345871, -0.005356005392968655, -0.022827211767435074, -0.011930981650948524, 0.019275464117527008, 0.02440384030342102, 0.03858000040054321, -0.014593512751162052, 0.02083461917936802, -0.02394231967628002, -0.0057483846321702, 0.01086402591317892, -0.00878491997718811, 0.04530806839466095, -0.018691927194595337, 0.012040815316140652, 0.04011612385511398, 0.006846937350928783, -0.0021737718489021063, -0.01495545357465744, -0.028639279305934906, 0.011483303271234035, 0.030173420906066895, -0.01081803161650896, 0.02681947685778141], "bias": [0.0394047275185585, 0.01817203126847744, 0.03165985643863678, 0.029450155794620514, 0.01703474670648575, -0.01711289770901203, 0.009111030027270317, 0.0055971709080040455], "input_shape": [1, 16, 16, 3], "input": [-0.25487515330314636, 0.2850937843322754, 0.361610472202301, -0.08217273652553558, 0.08641807734966278, 0.3083062767982483, -0.13476769626140594, -0.43575620651245117, -0.5319565534591675, 1.4157226085662842, -0.08478701114654541, 0.14036598801612854, 0.0023991824127733707, 0.31443846225738525, -0.5284363031387329, 0.6265215277671814, 0.41461047530174255, 0.42050379514694214, 0.7709257006645203, 0.27068421244621277, -0.42102915048599243, -0.4081157147884369, 0.5374786257743835, -0.28462135791778564, 0.06176864355802536, -0.25203225016593933, 0.56476891040802, -0.6110916137695312, 0.2724857032299042, -0.08799336850643158, 0.20078465342521667, -0.04373645782470703, -0.09163685142993927, -0.3650338053703308, 0.3598913252353668, -0.3311625123023987, 0.05868580937385559, -0.18272143602371216, 0.13237397372722626, 0.09699168056249619, -0.0421752855181694, -0.6607341766357422, -0.2595497667789459, -0.08895532041788101, 1.2820338010787964, 0.9557496309280396, -0.6438597440719604, -0.3348855674266815, -0.6717811822891235, -0.5404970645904541, -0.4756181538105011, -0.5443134307861328, 0.6998347640037537, 0.17307664453983307, 0.26118555665016174, -0.034597717225551605, -0.5249571800231934, 0.7067474126815796, -0.6744465827941895, -0.353925883769989, -0.22147147357463837, -0.7614826560020447, 0.5428250432014465, 0.1310645043849945, 0.6004282832145691, -0.2734447419643402, -0.547667384147644, 0.84498131275177, 0.1846940517425537, 0.704228401184082, -0.3964124023914337, 0.01096818782389164, -1.1401240825653076, -0.365080863237381, 0.6415122151374817, 0.563936710357666, -0.5285581946372986, -0.4927792251110077, -0.25770846009254456, -0.6087528467178345, -0.5815625190734863, 0.3505263328552246, -0.2653020918369293, 0.7883210182189941, 0.523935854434967, 0.2077975571155548, -0.7412742972373962, -0.8509386777877808, 0.7847623825073242, -0.8253619074821472, 0.44897031784057617, 0.5054649114608765, -0.8870129585266113, 0.40518516302108765, -0.34674686193466187, 0.2769659161567688, -0.01894756592810154, -0.28834015130996704, -0.001798343611881137, -0.4729803502559662, -0.35951972007751465, 0.2468394786119461, 0.6170364618301392, 0.09106704592704773, 0.6532259583473206, 0.1501326560974121, 0.13991163671016693, 1.0036630630493164, 0.25122442841529846, -0.04839964210987091, -0.487754762172699, 0.05880467966198921, -0.5478238463401794, 0.4385279715061188, 0.7993009090423584, 0.887213408946991, 1.022682785987854, 0.68246990442276, -0.7366864085197449, -0.6500850915908813, -0.3398268222808838, -0.31080567836761475, 1.0798275470733643, 0.23026885092258453, 0.3352673053741455, 0.31115221977233887, -0.23246489465236664, 0.22627754509449005, 0.23603564500808716, 0.4667976498603821, 0.8198696374893188, 0.7501675486564636, -0.4600081741809845, 0.17644968628883362, -0.40166929364204407, -0.07997268438339233, -0.4599741995334625, 0.10969841480255127, -0.514404833316803, 0.2991260588169098, 0.19654414057731628, -0.16246278584003448, 0.058279410004615784, -0.360034316778183, 0.9819529056549072, -0.58857262134552, -0.11937857419252396, -0.08172687143087387, 0.22943998873233795, -0.14409230649471283, -0.07095835357904434, 0.089047372341156, -1.018703579902649, -0.8403556942939758, 0.5005060434341431, -0.5274466872215271, 1.0814632177352905, 0.2965536117553711, 0.3627084791660309, 0.46572551131248474, -0.4758851230144501, -0.02040056511759758, -0.012219770811498165, 1.2341549396514893, -0.3398856818675995, 0.3208785653114319, -0.8412294387817383, -0.6250966787338257, 0.6691609621047974, 0.4281935393810272, 0.8060700297355652, -0.427737832069397, 0.06892433762550354, 0.322339802980423, -0.3587597906589508, 0.9542590975761414, 0.6144750118255615, -0.8971179127693176, -0.4987066090106964, -0.19179733097553253, -0.22442755103111267, 0.24211366474628448, 0.13385507464408875, 0.5882769227027893, -0.5475510358810425, -0.45569854974746704, -0.16280589997768402, 0.2018650472164154, -0.11464045196771622, 0.4502566456794739, 0.4393489956855774, 0.06157820671796799, -0.3428517282009125, -0.6542821526527405, -0.024157917127013206, -0.46666237711906433, 0.023400217294692993, -0.3325515687465668, 0.33339810371398926, 0.13315701484680176, 0.1612405776977539, 0.004123324528336525, 0.2716543674468994, -0.15016022324562073, -0.07301347702741623, -0.5168684720993042, 0.7854467034339905, -0.12929998338222504, -0.055530913174152374, -0.13171087205410004, -0.6490594148635864, -1.223662257194519, 0.798025906085968, -0.16914410889148712, -0.5190025568008423, 0.16963884234428406, -0.457540363073349, -0.6879926919937134, -0.6530622243881226, -0.7354822158813477, 0.28821712732315063, 0.24607135355472565, 0.5422487854957581, -0.37743255496025085, -0.042230602353811264, -0.5971331596374512, 0.2822900712490082, -1.1977102756500244, -0.5120111107826233, -0.04481129348278046, 0.30827873945236206, -0.6293772459030151, 0.647684633731842, 0.2625259757041931, -0.561036229133606, -0.4231283664703369, -0.31937897205352783, 0.05197501555085182, 0.44874870777130127, -0.37470543384552, 0.8891555070877075, 0.396824449300766, 0.03718715161085129, -0.25204363465309143, 0.8899269700050354, 0.5742211937904358, -0.04094075411558151, 0.19765053689479828, -0.4601280093193054, -0.2759864628314972, -0.4398704171180725, 0.6128739714622498, -0.19684965908527374, 0.4049329161643982, -0.4559507668018341, -0.1695432811975479, 1.071166753768921, -0.8985833525657654, -0.5027800798416138, 0.03967927768826485, -0.28140321373939514, 0.5346317291259766, -0.177394837141037, 0.7045491337776184, 0.2920326888561249, -0.5841721296310425, 0.11486860364675522, -0.3421151041984558, -0.21072125434875488, 0.07962482422590256, 0.5402073264122009, -0.7287788391113281, -0.08036653697490692, 0.06011173129081726, -0.04057411476969719, -0.16673609614372253, -0.2710447907447815, -0.38987118005752563, 0.6094725131988525, 0.5188775658607483, -0.19443126022815704, -0.17129020392894745, -0.9785028696060181, -0.011862805113196373, -1.0453647375106812, 0.24896037578582764, 0.1874006688594818, 0.13727056980133057, 0.3963549733161926, -0.24051544070243835, 0.29009541869163513, 0.6845731735229492, 0.29314956068992615, 1.3656550645828247, -0.15336637198925018, -0.20989800989627838, 0.19871561229228973, -0.08272795379161835, 0.5828540921211243, -0.11874835938215256, -0.6874900460243225, -0.16841734945774078, 0.02933833934366703, 0.2560572028160095, 0.19534167647361755, 0.2180994749069214, 0.3998071253299713, 0.5758517980575562, -0.3760826289653778, 0.19145467877388, -0.5999950766563416, 0.20854614675045013, -0.30623453855514526, -1.1888329982757568, -0.339619517326355, 0.028032582253217697, -0.4474979043006897, -0.20154468715190887, 0.3034697473049164, -0.23294401168823242, 0.18243150413036346, -0.19594109058380127, -0.22769899666309357, -0.3241935074329376, 0.20813319087028503, -0.3504330813884735, 1.017590045928955, -0.3067028522491455, -0.8144158720970154, 0.28957149386405945, -0.5966697931289673, -0.1708908975124359, -0.6227848529815674, -0.8877381682395935, 0.06574606150388718, -0.1568460464477539, -1.094456672668457, -0.6022981405258179, -0.27944713830947876, 0.27849113941192627, 0.37044188380241394, -1.5943970680236816, -0.7273717522621155, -0.5493870973587036, -0.12175363302230835, -0.22215640544891357, -0.3228028118610382, -0.27632445096969604, -0.776438295841217, -0.03995531424880028, -0.7002460360527039, 0.07175824046134949, -0.4513818621635437, 0.48485037684440613, 0.20086173713207245, -0.8609623908996582, -0.12313386797904968, 0.8516936302185059, -0.24387331306934357, -0.2283993661403656, 1.3504695892333984, -0.07159649580717087, 0.2003174126148224, 0.5062040686607361, -1.0730347633361816, -0.3759867250919342, 0.3053692579269409, 0.0746300145983696, 0.10965596139431, -0.36746054887771606, -0.32163259387016296, -0.49372899532318115, 0.7935394644737244, -0.35618072748184204, -0.5202299356460571, 0.3190820813179016, -0.5639843344688416, 0.07927361130714417, 0.15518204867839813, 0.4545230567455292, 0.21153858304023743, 0.35662734508514404, 0.2254936844110489, 1.1837520599365234, -0.19285964965820312, 1.1337075233459473, -0.6293815970420837, 0.5093507170677185, 0.9698934555053711, 0.5346655249595642, -0.4272083640098572, -0.15947319567203522, 0.18515631556510925, -1.0361796617507935, 0.12106060981750488, 0.19314594566822052, -0.05668075382709503, 0.7839799523353577, -0.1957940310239792, -0.29912441968917847, 0.6696943640708923, -0.36453306674957275, -0.16951069235801697, -0.6037864685058594, 0.020278476178646088, -0.03179230913519859, -0.0123640988022089, 0.2228824347257614, -0.8449804186820984, -0.19122318923473358, 0.5666632652282715, -0.22919517755508423, -1.089380145072937, -0.46575480699539185, -0.4300905168056488, -0.46801453828811646, -1.0620753765106201, 0.41948041319847107, 0.41340410709381104, -0.36742261052131653, 0.16284485161304474, -0.6222596764564514, 0.7998798489570618, -0.48961302638053894, -0.5681494474411011, 0.8537406921386719, -1.2783262729644775, -0.15484508872032166, -0.6816169023513794, 1.0638666152954102, -0.6968791484832764, -0.22304536402225494, 0.5384125709533691, 0.9274664521217346, -0.677682638168335, 0.45664486289024353, 0.6119885444641113, 0.15206384658813477, 0.5594618320465088, -0.6008445024490356, -0.4041459858417511, 0.39424142241477966, 0.10426110774278641, -1.1290203332901, 0.651385486125946, -0.2339927852153778, 0.023929160088300705, -0.06401625275611877, -1.0791987180709839, 0.010792342014610767, -0.46205902099609375, -0.30346429347991943, 0.6726123094558716, -0.7649447917938232, -0.39536041021347046, -0.07532311975955963, 0.16841170191764832, 0.9831217527389526, 0.20015642046928406, 0.47448232769966125, -0.5753582715988159, -0.4386613965034485, -0.2612937390804291, 0.5387814044952393, 0.08883744478225708, 0.23484738171100616, 0.21483759582042694, 0.10285602509975433, 0.11790692061185837, -0.7653214335441589, 0.14850132167339325, -0.7610592842102051, 0.9311494827270508, 0.36067017912864685, -0.09264020621776581, 0.7008439898490906, -0.13859766721725464, 0.1256294548511505, 0.1863808035850525, -0.02647332288324833, 0.21278895437717438, -0.2533935606479645, -0.28950342535972595, 0.2951640486717224, -0.7665619254112244, -0.616348147392273, 0.4963454604148865, -0.4836444556713104, 0.20638731122016907, 0.18986652791500092, -1.0578694343566895, -0.0012980831088498235, -0.3116457164287567, 0.4136432707309723, 0.3949607312679291, 0.4564666450023651, 0.44705575704574585, 0.8245664238929749, 0.46912235021591187, -0.1347178816795349, -0.5293540358543396, -0.38535135984420776, 0.4509223997592926, -0.20655930042266846, -0.530188262462616, 0.9957870841026306, -0.76961350440979, -0.6116200089454651, 0.4611690938472748, -0.3975863456726074, 0.7481527328491211, 0.20655052363872528, -0.3558512032032013, 0.33055436611175537, 0.06682587414979935, 0.10803736746311188, -0.15074357390403748, -0.017890330404043198, 0.3453002870082855, -0.4667263627052307, 0.3938334286212921, 0.6473979353904724, 0.8133203387260437, -0.04843829944729805, -0.5085920691490173, -0.23708148300647736, 0.31665337085723877, 0.3505729138851166, -0.4136943519115448, 0.3229931592941284, -0.9942991137504578, 1.270200490951538, -0.050689514726400375, -0.6492675542831421, -0.47409865260124207, -0.09250672161579132, 0.06721802800893784, 1.2699333429336548, -0.4611840546131134, 0.0431087464094162, -0.4342622756958008, -0.9563344120979309, -0.13239005208015442, -0.42887088656425476, 0.355380117893219, 0.6365485191345215, 0.19428732991218567, -0.9541209936141968, -0.27874642610549927, 0.029182059690356255, -0.16870903968811035, 0.1711113154888153, -0.12246423959732056, -0.8061032891273499, -0.9395938515663147, 0.36119019985198975, -0.3470936417579651, 0.14691495895385742, 1.215944766998291, -0.07771631330251694, -1.0272921323776245, 0.2533723711967468, 0.4481556713581085, -0.044822994619607925, 0.1258985847234726, -0.7586746215820312, 0.07442180812358856, -0.2441648691892624, 0.06654838472604752, -0.03724902123212814, 0.6605512499809265, 0.4831670820713043, -0.23890456557273865, -0.1773279458284378, -0.12330251932144165, 0.47025683522224426, -0.3412097990512848, 0.20961666107177734, -0.10970066487789154, 0.06645333766937256, 0.19352655112743378, -0.3366852104663849, -0.12199735641479492, -1.0960230827331543, 0.5965873003005981, 0.23260284960269928, -0.7945104241371155, 0.23715953528881073, 0.8559491038322449, -0.28304171562194824, 0.702819287776947, -0.16432248055934906, -0.5671166181564331, 0.3285512328147888, -0.6529313325881958, -0.34235191345214844, 0.2606757581233978, 0.12949612736701965, 0.39800184965133667, 0.8425104022026062, -0.8589670062065125, -0.058744825422763824, 0.2267737239599228, -0.9282823801040649, 0.513717770576477, 0.5764210820198059, 0.561288058757782, 0.189385324716568, 0.1692730337381363, 0.444720596075058, 0.4663561284542084, -0.2909051179885864, -0.7854176163673401, 0.34616369009017944, -0.3157601058483124, 0.11493996530771255, -0.2668590843677521, -0.23559920489788055, 0.42395922541618347, 0.6547930836677551, -0.8265429139137268, 0.5253793001174927, -0.08821099996566772, -0.582439124584198, 0.5837607383728027, -0.36559170484542847, -0.09688659757375717, 0.8220050930976868, 0.18454240262508392, -0.03234126418828964, -0.23576244711875916, 0.20293734967708588, -0.5090144872665405, -0.3154750466346741, -0.08538297563791275, 0.4053148627281189, 0.524856448173523, -0.24644231796264648, 0.41933301091194153, 0.8152971863746643, -0.650269627571106, -0.13651131093502045, -0.10167115181684494, 0.5618844032287598, -0.0013810937525704503, -0.46664875745773315, -0.38983699679374695, -0.8539307117462158, 0.269563227891922, -0.5211470723152161, 0.09999876469373703, 0.009412207640707493, 0.14631381630897522, 0.38354888558387756, 0.5763123631477356, 0.34867793321609497, -1.2385280132293701, 0.16446195542812347, 0.8145987391471863, -1.0858821868896484, 0.21943730115890503, -0.24983151257038116, -0.33003315329551697, -0.8268844485282898, 0.23225140571594238, -0.5332900881767273, 0.07128006964921951, -0.2680009603500366, -0.3384779393672943, 0.06988661736249924, 0.826382577419281, 0.0008761896751821041, -0.0501239188015461, -0.015892762690782547, 0.5681036710739136, -0.09602301567792892, -0.3971870541572571, 0.604913055896759, 0.33292070031166077, -0.8030206561088562, -1.091036319732666, 0.8723661303520203, -0.352908730506897, 0.25782930850982666, 0.4733358919620514, 0.4986420273780823, 0.14086461067199707, 0.1518484205007553, 0.16779467463493347, -0.2687280476093292, -0.34633132815361023, 0.09219805896282196, 0.20899096131324768, 0.7397640943527222, -0.046930745244026184, -0.5498663783073425, -0.9673886895179749, -0.2039344310760498, -0.1833271086215973, -0.5942181944847107, 0.23722952604293823, -0.6346181631088257, 0.21408313512802124, 0.17140115797519684, -0.017708243802189827, -0.5318030118942261, -0.24853800237178802, -1.088904857635498, 0.4420803189277649, 0.2846156358718872, -0.262362003326416, 0.10399448126554489, 0.5431095957756042, -0.16732294857501984, 0.4037093222141266, 0.2596251368522644, 0.7087237238883972, 0.8963411450386047, 0.6141376495361328, -0.5764997601509094, -1.5179227590560913, -0.15494614839553833, -0.20847783982753754, 0.10010446608066559, 0.11094360053539276, -0.251870721578598, 0.08494759351015091, -0.40319880843162537, 0.0071285744197666645, 0.26524847745895386, -0.27087488770484924, 0.4763070344924927, -0.19947850704193115, 0.04484567418694496, -0.6814712285995483, -0.09230520576238632, 1.000410556793213, -0.1805715560913086, 0.08232836425304413, 0.21082058548927307, -0.32245856523513794, 0.1787029653787613, 0.8744087219238281, 0.1770295947790146, -0.3492768704891205, -0.5032442808151245, 0.7791231274604797, -0.30307537317276, 0.49631887674331665, -0.37255859375, -0.5759282112121582, 0.7568368911743164, 0.2864933907985687, -0.0006107281660661101, 0.36095714569091797, -0.5037122368812561, 0.7414871454238892, -0.06130609288811684, 0.4317769408226013, -0.5540363192558289, 0.2676212787628174, 0.2981932461261749, -0.4583662450313568, -0.44531649351119995, -0.25940337777137756, -0.28543201088905334, -0.3534456193447113, -0.8784146308898926], "pos_embed_shape": [1, 8, 8, 8], "pos_embed": [-0.008320193737745285, 0.011609602719545364, 0.0042363116517663, 0.0006209065904840827, -0.004607085604220629, 0.009214048273861408, 0.014747241511940956, -0.016306152567267418, -8.577053085900843e-05, 0.0005670614191330969, 0.011398568749427795, -0.031446922570466995, 0.02758461982011795, 0.004747891332954168, 0.006331129465252161, 0.012103456072509289, -0.013876941986382008, 0.001113494043238461, 0.015426156111061573, 0.028511039912700653, 0.004391627851873636, 0.02546539157629013, -0.03600586950778961, -0.04174969717860222, 0.0013750040670856833, -0.031210146844387054, -0.03757188096642494, 0.011027972213923931, -0.06728856265544891, -0.007357891649007797, -0.027828577905893326, 0.002681143581867218, 0.04195508360862732, -0.025789959356188774, 0.01815180480480194, 0.012605523690581322, -0.010561722330749035, 0.0075535462237894535, -0.029907409101724625, 0.01401923131197691, 0.037376563996076584, 0.030918767675757408, 0.02674761787056923, 0.023884281516075134, 0.006157541647553444, -0.03432789072394371, -0.0076890867203474045, 0.019390102475881577, -0.00921645201742649, -0.01355440728366375, -0.011412759311497211, 0.013253682292997837, -0.03024919144809246, 0.006413036026060581, 0.022419361397624016, 0.005665695760399103, -0.028427381068468094, 0.0020769673865288496, -0.012530660256743431, 0.03396840766072273, 0.041126661002635956, 0.001840735785663128, -0.004956055898219347, 0.02325502783060074, -0.00757098663598299, 0.011983497068285942, 0.004777240101248026, -0.0035009034909307957, -0.00590141024440527, 0.0165738333016634, -0.028776850551366806, 0.03494779393076897, -0.010750677436590195, -0.05745359882712364, 0.021764425560832024, -0.02523994632065296, -0.005900278687477112, -0.017768824473023415, 0.0019657269585877657, 0.011782090179622173, 0.0015005716122686863, -0.006989133078604937, -0.014259991236031055, 0.015291547402739525, -0.0011723691131919622, 0.02826141007244587, 0.018260575830936432, -0.0057135713286697865, 0.010310373269021511, -0.03917447850108147, 0.01713663898408413, 0.01026112399995327, -0.02071731723845005, 0.0310763418674469, 0.009132510051131248, 0.014996406622231007, 0.017703909426927567, -0.01624683476984501, 0.012198437936604023, -0.007375173270702362, -0.001061398652382195, -0.019088827073574066, 0.0004246701137162745, -0.007812264375388622, -0.008753573521971703, -0.025262832641601562, 0.0065678078681230545, -0.005590277723968029, -0.007526505272835493, 0.006830895785242319, -0.007653272710740566, 0.031081808730959892, 0.005348541773855686, 0.02581670694053173, 0.015513058751821518, 0.004501801449805498, 0.005679293069988489, -0.010736571624875069, -0.01887359283864498, 0.020769573748111725, -0.004906728398054838, 0.03395533189177513, 0.02067437767982483, -0.024339620023965836, 0.025362340733408928, 0.0061770169995725155, -0.021706389263272285, -0.014597635716199875, 0.013073568232357502, -0.004066693130880594, 0.028679145500063896, 0.007496813777834177, -0.015947973355650902, 0.013439423404633999, 0.01666073687374592, -0.018021974712610245, 0.02974763512611389, 0.01388887595385313, 0.009181593544781208, 0.0015313590411096811, -0.002063086489215493, -0.026484111323952675, 0.009564514271914959, -0.011673957109451294, -0.0034117321483790874, 0.018040696159005165, -0.03432958573102951, 0.03362104669213295, 0.04280383884906769, 0.020654689520597458, 0.003453956451267004, -0.008274201303720474, 0.014381342567503452, -0.0034616603516042233, -0.01920761726796627, -0.012912924401462078, 0.03971023112535477, 0.008140042424201965, -0.005184055306017399, 0.004019580315798521, 0.015947798267006874, -0.0021003580186516047, -0.012858152389526367, 0.016881324350833893, 0.01138034462928772, -0.005811552982777357, 0.02786877565085888, -0.0028569966088980436, 0.004989383276551962, 0.019949086010456085, 0.009601968340575695, 0.0037801044527441263, -0.0021975459530949593, 0.01213840488344431, -0.009146775119006634, -8.989615162136033e-05, 0.009059539064764977, -0.026852771639823914, 0.018786918371915817, 0.0050980160012841225, -0.047607794404029846, 0.008814573287963867, -0.01394401490688324, 0.03658219054341316, -0.023642219603061676, -0.02197919599711895, 0.03041326068341732, 0.00832580029964447, -0.01109837181866169, 0.002762868069112301, -0.005081441719084978, -0.010412141680717468, 0.03594869375228882, 0.004453405272215605, -0.008486256003379822, 0.009192563593387604, 0.008570925332605839, -0.006286362651735544, 0.030589597299695015, -0.004882759414613247, -0.015714816749095917, -0.02378598414361477, 0.019154520705342293, -0.015343215316534042, 0.014175696298480034, -0.028806332498788834, -0.016257794573903084, 0.010122379288077354, 0.0012741793179884553, -0.0069002932868897915, -0.016162611544132233, -0.00384603813290596, 0.0366303026676178, -0.01099298894405365, -0.010046538896858692, -0.012895403429865837, -0.001178546342998743, -0.009361790493130684, 0.021533271297812462, 0.008927322924137115, 0.04344481974840164, -0.036052871495485306, -0.0356578603386879, 0.008154265582561493, -0.0009332887711934745, -0.013023074716329575, -0.00619486253708601, -0.01976436749100685, -0.03669753298163414, 0.018027564510703087, -0.03933379426598549, 0.02145894430577755, 0.024296917021274567, -0.00016814624541439116, 0.024195238947868347, 0.0028441997710615396, -0.04158826917409897, 0.012758094817399979, -0.0004359720624051988, -0.0023278635926544666, -0.005966621916741133, 0.012265271507203579, -0.031077196821570396, 0.010039701126515865, -0.01078241690993309, 0.0006381545099429786, 0.015757597982883453, 0.02047162689268589, 0.0023865685798227787, 0.009707075543701649, -0.017375366762280464, -0.011533379554748535, -0.013347107917070389, -0.017388390377163887, 0.03914601728320122, -0.013676023110747337, -0.007225158624351025, -0.01513170450925827, -0.013966096565127373, -0.032831378281116486, -0.011586569249629974, 0.02179352380335331, -0.004768779035657644, 0.013222899287939072, -0.024009602144360542, -0.015304511412978172, 0.010339456610381603, 0.026240274310112, -0.005464006680995226, -0.004040237981826067, -0.025020260363817215, -0.006433653645217419, 0.01784084364771843, 0.02080211043357849, -0.011231869459152222, -0.00998978316783905, -0.030925404280424118, 0.012025496922433376, -0.0009353476343676448, 0.0033985513728111982, -0.009591859765350819, 0.006047443486750126, -0.027325881645083427, 0.007314580027014017, 0.009881860576570034, 0.025485064834356308, -0.006688471883535385, 0.020709138363599777, 0.006066419184207916, -0.01197406742721796, -0.0070086028426885605, 0.001717085251584649, -0.003174808342009783, 0.02422291785478592, 0.010560310445725918, -0.004482364747673273, 0.028138957917690277, -0.00785708986222744, -0.018656795844435692, -0.007659950293600559, -0.002510993042960763, 0.00018482036830391735, -0.002304363762959838, -0.00029141659615561366, 0.02879198268055916, -0.028624076396226883, -0.018107203766703606, 0.0026496094651520252, 0.0026718415319919586, 4.039347913931124e-05, 0.0004140581004321575, 0.003128614742308855, -0.023015810176730156, 0.00011478640226414427, -0.0001064278039848432, 0.01853959448635578, -0.022183576598763466, 0.02867038920521736, 0.0032390698324888945, 0.019827311858534813, -0.008925892412662506, 0.0017838622443377972, 0.02202657423913479, 0.016307003796100616, 0.006558866240084171, 0.008798801340162754, -0.006589906290173531, 0.011940183117985725, 0.03575184941291809, 0.036557503044605255, 0.014192570000886917, 0.017905352637171745, 0.017179906368255615, 0.004996318835765123, 0.01683598756790161, 0.0006961831822991371, 0.04708230495452881, 0.003971045836806297, 0.00764564611017704, 0.015367361716926098, -0.023461701348423958, 0.004192907828837633, 0.02272590436041355, 0.021891150623559952, -0.023348171263933182, -0.0002131134388037026, 0.008348989300429821, -0.006210241932421923, 0.03322620317339897, -0.03095693327486515, 0.0062021613121032715, -0.00511942058801651, -0.003711904399096966, 0.02852669358253479, 0.0167323499917984, -0.034496307373046875, 0.021560465916991234, -0.024215172976255417, -0.018491195514798164, -0.003379938192665577, 0.011331277899444103, -0.015508933924138546, -0.0005371656152419746, -0.02277815341949463, 0.018195247277617455, 0.00920852366834879, -0.03507404401898384, 0.009143986739218235, -0.005968923214823008, 0.010918715037405491, -0.0193866528570652, 0.008173570968210697, -0.01306102704256773, 0.01939285546541214, 0.024198031052947044, 0.006539986003190279, 0.0009691908489912748, -0.014956879429519176, 0.001962154870852828, 0.006577643565833569, 0.0038475554902106524, -0.008532941341400146, -0.006058165337890387, -0.0071331518702209, 0.03363007679581642, -0.003702912013977766, -0.018550975248217583, 0.019610341638326645, -0.011675396002829075, -0.03283429890871048, -0.006951868999749422, 0.010087838396430016, 0.0065460288897156715, 0.003727552480995655, 0.04053155705332756, -0.031247755512595177, 0.0014679885935038328, -0.014324271120131016, -0.01880047470331192, 0.018198007717728615, 0.005013699643313885, 0.0185627993196249, -0.014753499068319798, 0.0002528821351006627, 0.029329365119338036, 0.012227262370288372, -0.0053465887904167175, 0.008530030958354473, 0.0001276525144930929, 0.004540862515568733, 0.0061094146221876144, 0.04095522686839104, 0.013225872069597244, -0.01519886776804924, 0.023303383961319923, 0.01207327377051115, -7.292170630535111e-05, 0.00604043947532773, -0.027850857004523277, 0.018976032733917236, 0.022930804640054703, -0.019024111330509186, -6.735192437190562e-05, -0.002339436672627926, 0.031527627259492874, -6.005529940011911e-05, -0.029734879732131958, -0.03632412105798721, 0.00831154827028513, -0.023339029401540756, -0.020423253998160362, 0.011808101087808609, 0.009602190926671028, -0.025783197954297066, -0.0027721431106328964, 0.016718020662665367, 0.0044722482562065125, -0.02547977864742279, -0.0035506053827703, 0.005308160558342934, 0.03284729644656181, -0.003852726425975561, -0.0011849083239212632, -0.030681291595101357, 0.004151349421590567, 0.04068051278591156, 0.010102320462465286, -0.02850840985774994, 0.022118007764220238, 0.00871003232896328, 0.010200606659054756, 0.0002762145013548434, -0.01594815030694008, 0.018719060346484184, 0.04060424119234085, 0.012332414276897907, -0.012553386390209198, 0.0006790379993617535, -0.010682026855647564, -0.039244797080755234, 0.0011841767700389028, 0.01841435767710209, 0.0073791383765637875, 0.01236848346889019, 0.04867503046989441, -0.01471066102385521, 0.023339631035923958, 0.03946102038025856, -0.013349002227187157, -0.001508844317868352, 0.014127076603472233, 0.019605567678809166, -0.005348278675228357, 0.0049171303398907185, -0.007328795734792948, -0.025243844836950302, -0.051898129284381866, -0.0018964430782943964, 3.937870133086108e-05, 0.010883539915084839, -0.0026699937880039215, 0.008874144405126572, 0.03961467742919922, 0.005945567507296801, -0.03304027393460274, 0.030200188979506493, 0.016137171536684036, 0.006743572186678648, 0.024536533281207085, 0.020041320472955704, -0.008956389501690865, -0.0136738121509552, 0.021324889734387398, -0.03187698498368263, -0.01953081227838993, -0.03287230059504509, -0.033950794488191605, 0.01002584584057331, 0.011195008642971516, 0.014968954026699066, 0.012731144204735756, -0.032658934593200684, 0.019764479249715805, 0.03236962854862213, 0.004076438955962658, 0.020150208845734596, 0.010446945205330849, -0.014095763675868511, 0.002378464210778475, 0.026847153902053833, 0.028813093900680542, -0.010845380835235119], "output_shape": [1, 8, 8, 8], "output": [0.026978138834238052, 0.0035113729536533356, 0.05136440321803093, 0.026402782648801804, 0.047187529504299164, 0.02463202178478241, 0.0402645580470562, -0.03759845718741417, 0.022270439192652702, 0.07958069443702698, 0.036554329097270966, -0.014762379229068756, 0.084885373711586, -0.03680438548326492, -0.023763027042150497, 0.027976233512163162, 0.052696745842695236, 0.03967110812664032, 0.07167959213256836, 0.024005375802516937, 0.006602790672332048, 0.011390232481062412, 0.02978508174419403, -0.05630555748939514, 0.0518416091799736, 0.020700111985206604, -0.08500897884368896, 0.04608345031738281, -0.11289335787296295, -0.03273701295256615, 0.02695605531334877, 0.05676669627428055, 0.056935109198093414, 0.0381946936249733, 0.05824863910675049, 0.013985427096486092, 0.05694262310862541, -0.02244270034134388, 0.014255065470933914, 0.04468630999326706, 0.05454746633768082, 0.03656682372093201, 0.043672822415828705, 0.062342800199985504, 0.05051634460687637, -0.01781880296766758, 0.025538364425301552, 0.08387593924999237, 0.04965799301862717, 0.015589511021971703, 0.035604629665613174, 0.0910985991358757, -0.07480986416339874, -0.024307243525981903, 0.013406544923782349, -0.07499419897794724, -0.024468064308166504, -0.014948408119380474, 0.004434546455740929, 0.07581554353237152, 0.10849038511514664, -0.03683212772011757, -0.09626977145671844, 0.045690931379795074, 0.04973231628537178, 0.005762111395597458, 0.08945445716381073, 0.03424152731895447, 0.024641234427690506, -0.007050052285194397, -0.031002705916762352, 0.0629652887582779, 0.03680907562375069, -0.009043794125318527, 0.037163145840168, -0.002458827570080757, 0.027404334396123886, -0.05202804505825043, -0.022101162001490593, 0.027276694774627686, 0.06425366550683975, 0.006737650837749243, 0.021745149046182632, 0.04134531319141388, 0.003674734616652131, -0.01878332905471325, -0.0025241225957870483, 0.055085018277168274, 0.04762370139360428, -0.009833145886659622, -0.013970965519547462, 0.0840127244591713, -0.04005555808544159, -0.06724930554628372, -0.056542396545410156, 0.04912849888205528, 0.03789619356393814, -0.024273378774523735, 0.055752336978912354, -0.018443934619426727, 0.016390472650527954, -0.051910400390625, -0.031309012323617935, -0.02053932473063469, 0.006194446235895157, 0.02644433081150055, 0.0027633029967546463, -0.008715911768376827, 0.003020165953785181, -0.042144205421209335, -0.009731493890285492, -0.00955495797097683, 0.04624667018651962, 0.04142043739557266, 0.05588335543870926, 0.0453278012573719, 0.053988996893167496, -0.049230076372623444, -0.005393525585532188, 0.027213014662265778, 0.04072992503643036, -0.0002169199287891388, 0.05178166553378105, 0.0212288536131382, 0.033348534256219864, -0.0011044745333492756, 0.015823176130652428, -0.03256320208311081, 0.06635235249996185, -0.036430831998586655, 0.06923604011535645, 0.042184628546237946, -0.04843863844871521, 0.03857681527733803, 0.01832948438823223, -0.0499066486954689, 0.04567661136388779, 0.02980002388358116, 0.0023508043959736824, 0.04244718700647354, 0.014687979593873024, -0.0364973247051239, 0.00026526954025030136, 0.02608548477292061, 0.050767961889505386, 0.051472075283527374, 0.0041929855942726135, 0.06582970917224884, 0.042404673993587494, 0.0025120116770267487, 0.0015324200503528118, -0.06701325625181198, 0.0022907229140400887, 0.0073154461570084095, 0.019138379022479057, -0.02399624139070511, 0.16869640350341797, 0.04266568273305893, -0.05592014640569687, 0.03222354128956795, 0.04371177405118942, 0.024629948660731316, 0.06258614361286163, 0.041628703474998474, 0.06189170852303505, -0.001220399048179388, 0.05937507003545761, -0.004197884351015091, 0.04763505235314369, 0.05705864727497101, 0.06497500091791153, 0.0691257119178772, -0.0317334309220314, -0.01016202848404646, 0.025362029671669006, 0.01879008859395981, 0.03613082319498062, -0.023291246965527534, 0.07876991480588913, 0.009943061508238316, 0.009185794740915298, -0.019087594002485275, 0.05028059333562851, 0.058255650103092194, -0.012996233999729156, 0.010189013555645943, 0.039218686521053314, 0.04990385100245476, 0.04267178475856781, 0.03331596031785011, 0.030623536556959152, -0.04204617068171501, 0.08740536868572235, 0.13399434089660645, 0.03735890984535217, -0.021022826433181763, 0.09323926270008087, -0.05844886973500252, 0.05849957466125488, 0.004784666001796722, -0.008059062063694, 0.03427181392908096, 0.06304263323545456, 0.007042469456791878, 0.07301472872495651, -0.04646042734384537, 0.015645066276192665, 9.106472134590149e-06, -0.00643668370321393, 0.007040772121399641, 0.001468820497393608, 0.01834859885275364, 0.13729818165302277, 0.0013011414557695389, -0.011669575236737728, -0.010260111652314663, 0.06446472555398941, 0.002922634594142437, 0.07785944640636444, 0.046652182936668396, 0.08556917309761047, -0.07646489143371582, -0.012175392359495163, 0.08716036379337311, 0.019576331600546837, 0.04037236049771309, 0.07178275287151337, 0.01177959144115448, 0.016841810196638107, -0.035036250948905945, -0.08839645981788635, 0.05162747576832771, 0.06224215030670166, 0.047968171536922455, 0.06784982979297638, 0.04901384934782982, -0.040044236928224564, -0.032394926995038986, -0.018438998609781265, -0.005502459593117237, 0.015401596203446388, 0.007042969577014446, 0.03145567327737808, 0.04284562170505524, 0.08412879705429077, -0.042989332228899, -0.05146300792694092, 0.1126134917140007, 0.04350532963871956, -0.04783446714282036, -0.002909354865550995, 0.02290351688861847, -0.012169348075985909, 0.027644647285342216, 0.08088268339633942, 0.0006621535867452621, 0.07124663144350052, -0.06035097688436508, -0.0428384467959404, 0.017361517995595932, -0.06798449158668518, -0.010303905233740807, 0.06372442841529846, 0.01993425190448761, 0.031404949724674225, -0.016258973628282547, 0.10833591222763062, 0.08398597687482834, 0.04718140885233879, -0.06142977997660637, 0.0226600281894207, 0.008418823592364788, 0.0429801307618618, 0.01092464104294777, 0.026523660868406296, 0.06286421418190002, -0.02673652023077011, -0.0573013573884964, 0.03914923965930939, 0.04239601641893387, 0.0012732567265629768, 0.07621610909700394, 0.031040454283356667, 0.003924033138900995, 0.06623320281505585, 0.018046554177999496, -0.017993690446019173, -0.0076142288744449615, 0.030491115525364876, -0.03200393542647362, 0.039814241230487823, 0.05896585062146187, 0.046406086534261703, -0.023371495306491852, -0.04132572561502457, -0.030465954914689064, 0.06897953152656555, 0.0386434942483902, -0.014991147443652153, 0.017152760177850723, -0.026108765974640846, 0.01708250492811203, 0.035922255367040634, -0.05554540082812309, 0.07448804378509521, -0.025703703984618187, 0.0644945502281189, -0.013098344206809998, 0.06960241496562958, 0.025121213868260384, -0.0283967312425375, 0.020909491926431656, 0.01147904060781002, -0.004347938112914562, 0.03856759890913963, 0.05817685276269913, 0.008160920813679695, 0.03321254625916481, -0.022241970524191856, -0.07758793234825134, 0.04187721759080887, 0.05268765240907669, 0.0267560426145792, 0.0780898779630661, 0.0325159877538681, -0.01257349830120802, -0.012088240124285221, 0.0356096476316452, 0.07064832746982574, 0.09132319688796997, 0.03365593031048775, 0.02045465260744095, 0.08955720067024231, -0.006319827865809202, -0.016366876661777496, 0.08680848032236099, 0.06856564432382584, -0.006969813257455826, 0.06131836026906967, 0.006364378146827221, 0.05810427665710449, 0.013929538428783417, 0.04747660458087921, 0.03630702197551727, 0.016716010868549347, 0.03988231346011162, 0.05347929149866104, 0.03333239629864693, 0.047747667878866196, -0.037222474813461304, 0.05368930846452713, 0.04493746533989906, 0.03388652577996254, -0.017983339726924896, 0.06460698693990707, 0.061362460255622864, 0.060762979090213776, -0.04018917679786682, 0.07168298959732056, 0.023725025355815887, 0.0893046110868454, -0.00696098618209362, 0.014673137106001377, 0.035061586648225784, -0.017108352854847908, -0.02415597438812256, -0.03191712498664856, 0.06594616174697876, 0.027629902586340904, 0.015834901481866837, 0.05224142596125603, 0.01814541593194008, 0.04977813735604286, -0.0021007955074310303, 0.05492473393678665, 0.03590937331318855, 0.05629534646868706, 0.015422058291733265, -0.014465849846601486, 0.037899356335401535, -0.030786411836743355, -0.022338418290019035, -0.0023411246947944164, 0.05580487474799156, 0.08654879778623581, -0.028291983529925346, 0.035941943526268005, 0.06411011517047882, -0.003181002102792263, -0.06075290963053703, 0.036904700100421906, 0.028946978971362114, 0.008629106916487217, 0.04724191501736641, 0.07096633315086365, -0.02770831435918808, 0.09337301552295685, 0.0061139920726418495, -0.1044912040233612, 0.022442050278186798, 0.04709227755665779, 0.06185300648212433, 0.024301063269376755, 0.0017236192943528295, 0.07816081494092941, -0.04515058174729347, -0.039315029978752136, 0.1263967603445053, 0.01746419072151184, 0.05752898007631302, 0.048002228140830994, 0.0513933040201664, 0.07683457434177399, -0.07053641974925995, 0.012254338711500168, -0.02919749543070793, 0.027779584750533104, -0.0442468598484993, 0.049132101237773895, 0.03691002354025841, 0.09516951441764832, -0.01975083164870739, 0.04981303960084915, 0.016600564122200012, 0.1078510731458664, 0.04028799757361412, -0.022146187722682953, 0.03401177376508713, -0.04667792469263077, -0.08177529275417328, 2.4491921067237854e-05, -0.0027590319514274597, 0.05411987006664276, -0.03622535616159439, 0.07862798124551773, 0.09019557386636734, 0.023057663813233376, -0.05268649756908417, 0.005237539764493704, -0.07879003137350082, 0.11685453355312347, 0.005146570969372988, 0.01793775148689747, 0.030977973714470863, -0.05987292900681496, 0.04026391729712486, 0.05860356613993645, -0.0482252761721611, 0.045501239597797394, 0.052756667137145996, 0.03621258586645126, -0.00030177360167726874, 0.08212870359420776, 0.020911699160933495, 0.043945662677288055, 0.02336300164461136, 0.022858191281557083, 0.08621104806661606, 0.014361840672791004, -0.046476129442453384, 0.03821028023958206, 0.03813116252422333, -0.013545893132686615, 0.04541169852018356, 0.11894571781158447, -0.007982628419995308, 0.02989315241575241, 0.09177777171134949, -0.052990883588790894, -0.009220018982887268, 0.04902331903576851, 0.007471710443496704, 0.043748870491981506, -0.011083448305726051, 0.01773964613676071, 0.012749947607517242, -0.06869632005691528, 0.0019249224569648504, 0.005260417237877846, -0.03829563781619072, 0.037082504481077194, 0.006891945376992226, 0.1338009536266327, 0.04279429465532303, -0.02389223873615265, 0.03252219408750534, 0.08395405113697052, -0.08502065390348434, 0.08478548377752304, 0.04453670233488083, -0.003751978278160095, 0.05442070960998535, -0.041858017444610596, -0.04863516613841057, 0.012723496183753014, -0.08420464396476746, 0.025175277143716812, 0.021140195429325104, 0.037616387009620667, 0.04725373908877373, -0.04814383387565613, -0.055199891328811646, 0.04829180985689163, 0.032040517777204514, 0.019883107393980026, 0.1064598560333252, 0.041444484144449234, 0.023346420377492905, 0.01706732250750065, -0.042528122663497925, 0.035676009953022, -0.03346468135714531]}, "sam_block_windowed": {"dim": 8, "num_heads": 2, "mlp_ratio": 2.0, "window_size": 4, "grid": [8, 8], "weights": {"norm1.weight": [-0.016642648726701736, 0.021355973556637764, -0.003552632872015238, -0.01796199008822441, 0.02230287529528141, -0.01505912747234106, 0.03029993548989296, 0.02939831279218197], "norm1.bias": [-0.01913602091372013, -0.01021390501409769, -0.029663601890206337, -0.04668954759836197, 0.022720498964190483, 0.024219626560807228, -0.009587183594703674, 0.0008659095619805157], "attn.rel_pos_h": [-0.005229698494076729, 0.009331714361906052, 0.007948840968310833, -0.003768743248656392, -0.018949097022414207, -0.02605513483285904, 0.005171271972358227, 0.03763412684202194, 0.03077726811170578, 0.001751567586325109, -0.018719861283898354, -0.016299741342663765, 0.009106873534619808, 0.042430296540260315, 0.03866858407855034, -0.026843825355172157, 0.018363283947110176, -0.013112597167491913, 0.023214347660541534, -0.03633536398410797, 0.0211305133998394, 0.004076357930898666, -0.010488067753612995, 0.006770907435566187, 0.008484947495162487, 0.024886632338166237, 0.015339323319494724, 0.0009572919807396829], "attn.rel_pos_w": [-0.046290285885334015, 0.0035742628388106823, 0.051358722150325775, -0.05413888022303581, -0.012911112047731876, 0.016149770468473434, 0.018033262342214584, -0.014748629182577133, 0.001088833436369896, -0.026968199759721756, -0.0030624063219875097, -0.01362207904458046, -0.002165448386222124, -0.021014682948589325, 0.017788464203476906, -0.004069111775606871, -0.0020565777085721493, -0.01088439766317606, 0.014403842389583588, -0.02352903224527836, -0.028469523414969444, 0.002853453392162919, -0.00809449888765812, 0.02019156888127327, 0.02752232737839222, 0.024594753980636597, -0.0036858266685158014, -0.020317403599619865], "attn.qkv.weight": [-0.005985194817185402, -0.017898060381412506, 0.027086881920695305, -0.004728770814836025, 0.011533833108842373, 0.01216140016913414, 0.020502226427197456, -0.012368790805339813, -0.011507334187626839, -0.016142588108778, 0.00874895416200161, -0.002345882821828127, -0.02179104834794998, -0.014548889361321926, -0.030731799080967903, -0.0004342854372225702, 0.003144631627947092, -0.021880628541111946, 0.02963523380458355, -0.003530812682583928, 0.015604655258357525, -4.580606037052348e-05, 0.020620958879590034, -0.019550519064068794, 0.003567941952496767, 0.024866027757525444, -0.01593821682035923, 0.018254710361361504, 0.012911184690892696, 0.0074109225533902645, -0.007974877022206783, -0.02379344217479229, 0.023672370240092278, 0.004742877557873726, -0.014235659502446651, 0.023376338183879852, 0.020090918987989426, 0.02152338996529579, 0.013453751802444458, 0.014434125274419785, -0.06135670468211174, 0.006280733738094568, -0.01809871755540371, 0.0014488906599581242, 0.0205839890986681, 0.00284643960185349, 0.0029603028669953346, -0.011118751950562, -0.023166365921497345, -0.04403715208172798, 0.025277752429246902, -0.012982092797756195, 0.013989859260618687, 0.02123790979385376, -0.016451725736260414, 0.00848420336842537, 0.013648003339767456, 0.041433077305555344, -0.008785825222730637, -0.01279232557862997, 0.018765095621347427, 0.018359588459134102, 0.016826527193188667, -0.010190611705183983, -0.012093016877770424, 0.007955391891300678, 0.013149695470929146, 0.03345471993088722, 0.0006429812056012452, -0.015447732992470264, -0.011760110966861248, 0.051271796226501465, 0.030714668333530426, -0.0026658563874661922, -0.030731644481420517, -0.01653529703617096, 0.02068503387272358, 0.011802717112004757, -0.03632722049951553, 0.005944154690951109, -0.031760700047016144, 0.002529924502596259, 0.0020340115297585726, -0.014096894301474094, 0.020812129601836205, -0.007840181700885296, 0.01007638406008482, -0.018480271100997925, 0.024572011083364487, 0.0218961238861084, -0.004248129203915596, 6.0654412664007396e-05, -0.009136552922427654, -0.009950701147317886, -0.01957579329609871, -0.0010526966070756316, 0.005129003431648016, 0.024851471185684204, -0.00824738573282957, 0.010442720726132393, -0.0045555830001831055, 0.024997929111123085, 0.006387641653418541, 0.022395389154553413, -0.0015896741533651948, -0.024786176159977913, -0.0012196507304906845, -0.027496851980686188, 0.01695428416132927, -0.016294343397021294, 0.015235370956361294, 0.012636360712349415, 0.03894711658358574, -0.02118796855211258, 0.00424371799454093, 0.013879308477044106, 0.010466355830430984, 0.019924264401197433, -0.036677468568086624, 0.00800597108900547, 0.025646964088082314, 0.013365683145821095, -0.020669205114245415, 0.008438369259238243, 0.00326181435957551, -0.03962906077504158, -0.005352572072297335, -0.010782861150801182, -0.04268568381667137, 0.007981199771165848, 0.0004816549480892718, 0.015806149691343307, -0.011452140286564827, 0.004402534104883671, 0.03624430671334267, 0.02594597265124321, -0.01856335811316967, -0.01883550174534321, -0.023454196751117706, -0.024515900760889053, -0.04107248783111572, 0.059372428804636, 0.026011161506175995, -0.029130572453141212, 0.016749346628785133, -0.0016008089296519756, -0.030740099027752876, 0.024709727615118027, -0.02578587457537651, -0.029669808223843575, -0.002747131511569023, -0.024309877306222916, 0.013056609779596329, 0.03171418234705925, 0.003572404384613037, 0.018931351602077484, -0.015011951327323914, -0.017897868528962135, 0.004801307339221239, 0.015520995482802391, -0.010674891993403435, -0.007245592772960663, -0.021775435656309128, 0.007910434156656265, -0.008519628085196018, 0.001377434586174786, -0.00987099390476942, -0.02837655320763588, -0.020862625911831856, -0.04000183567404747, -0.025602005422115326, -0.0036690665874630213, 0.02658153511583805, 0.004802409093827009, -0.004416302312165499, 0.007963459938764572, 0.0027034510858356953, -0.002175781177356839, -0.0141897676512599, 0.027801087126135826, -0.016463730484247208, 0.03030482679605484, 0.0023747601080685854, 0.0005518285324797034, -0.008410580456256866, 0.021908525377511978, 0.0007848659879527986, -0.008012124337255955, -0.012787973508238792, -0.01456492394208908, 0.019784240052103996, -0.030699146911501884], "attn.qkv.bias": [-0.0216757133603096, 0.03278261795639992, 0.03254218399524689, 0.020612388849258423, -0.010481784120202065, 0.024896487593650818, -0.014314516447484493, -0.019789673388004303, 0.014898535795509815, 0.007037266157567501, -0.009621677920222282, -0.016947384923696518, -0.02276691608130932, 0.020129868760704994, 0.03593088686466217, -0.008463715203106403, -0.01237858273088932, 0.01443791575729847, -0.022182324901223183, 0.008693498559296131, 0.02623567543923855, -0.0031707535963505507, -0.017778335139155388, 0.023760175332427025], "attn.proj.weight": [-0.025643283501267433, -0.0157687496393919, -0.017192399129271507, -0.022429827600717545, -0.00949715543538332, -0.021069014444947243, 0.05537839233875275, -0.01261818129569292, -0.004615219309926033, -0.00930055882781744, 0.03377348184585571, 0.012825651094317436, 0.028215784579515457, -0.00903275329619646, -0.03080068528652191, -0.020591100677847862, 0.013449076563119888, -0.0002838985528796911, 0.04350865259766579, 0.017114125192165375, -0.014836376532912254, 0.02920462377369404, 0.00771449925377965, -0.025435537099838257, -0.030850499868392944, 0.01177029125392437, 0.005784188397228718, 0.06244344636797905, 0.020426401868462563, 0.023359239101409912, -0.03188552334904671, 0.008695499040186405, -0.017034603282809258, -0.002266394905745983, 0.002554479753598571, 0.002562163630500436, 0.010413064621388912, 0.026555463671684265, 0.002275849925354123, 0.01086258701980114, 0.017699334770441055, 0.04500336945056915, 0.025235380977392197, -0.009233720600605011, 0.02588818408548832, 0.013700060546398163, -0.0001629174075787887, 0.013295759446918964, -0.0030581005848944187, -0.00791950337588787, 0.010010306723415852, -0.02685309760272503, 0.006145692430436611, 0.004014399368315935, -0.0026495999190956354, -0.0016644352581351995, -0.03006121888756752, -0.014716173522174358, -0.02955738641321659, 0.006362366024404764, 0.027895867824554443, 0.02110111340880394, -0.02735840529203415, 0.005785052198916674], "attn.proj.bias": [0.0034835312981158495, -0.014218919910490513, 0.009524781256914139, -0.0036188908852636814, 0.014722931198775768, -0.0014476702781394124, -0.041145265102386475, -0.01595667004585266], "norm2.weight": [0.014452620409429073, -0.001916983863338828, -0.013090178370475769, -0.020581204444169998, -0.0011795118916779757, -0.009674669243395329, -0.01655142940580845, 0.001961392816156149], "norm2.bias": [0.002415972761809826, 0.017373522743582726, -0.009707246907055378, -0.012873310595750809, -0.012563269585371017, -0.0013937951298430562, 0.008508812636137009, -0.0012976075522601604], "mlp.lin1.weight": [0.010557438246905804, -0.001212031114846468, -0.025839708745479584, -0.013882105238735676, 0.05790609121322632, 0.013295413926243782, 0.0327969454228878, 0.006570332683622837, 0.0008631357341073453, 0.03485196456313133, -0.004059122875332832, 0.0062766168266534805, 0.0375947505235672, -0.009886611253023148, -0.0076544745825231075, -0.03453725948929787, -0.04080609232187271, -0.007789567578583956, 0.034561462700366974, 0.0027534442488104105, 0.027541378512978554, -0.008363976143300533, 0.043046217411756516, -0.02137877605855465, -0.022372795268893242, -0.024279335513710976, 0.023134328424930573, -0.014829859137535095, -0.0031278773676604033, 0.0024068320635706186, 0.017199259251356125, 0.03361736983060837, 0.007276605814695358, 0.019757002592086792, -0.024540163576602936, 0.02307869866490364, -0.000881605374161154, -0.027033163234591484, -0.026145784184336662, -0.036994609981775284, -0.009290377609431744, -0.002576968865469098, -0.017114508897066116, -0.028945984318852425, -0.02871963381767273, -0.036322545260190964, 0.04375546798110008, -0.024331944063305855, 0.007915601134300232, 0.008300483226776123, 0.018066775053739548, -0.020388487726449966, 0.01855124719440937, -0.013926446437835693, 0.004487894009798765, 0.0330144427716732, 0.032080646604299545, 0.0030911373905837536, -0.013745046220719814, -0.023416191339492798, -0.018598318099975586, 0.017208870500326157, -0.0007981821545399725, -0.02456715516746044, 0.0018312281463295221, -0.030119678005576134, -0.0057490128092467785, -0.022230753675103188, 0.0401485376060009, -0.004538380075246096, -0.03444860130548477, 0.015348745509982109, -0.0025258436799049377, 0.0034972974099218845, -0.012999781407415867, 0.008034011349081993, 0.0015777776716277003, -0.016665803268551826, 0.004775832872837782, 0.0003653103776741773, 0.005382217466831207, -0.02438591606914997, -0.026985036209225655, 0.013854477554559708, -0.020202292129397392, 0.03089003451168537, -0.0177161768078804, 0.014318312518298626, -0.01319782342761755, -0.024844495579600334, 0.02841375768184662, 0.008817190304398537, -0.0071698566898703575, 0.027112632989883423, 0.00964996125549078, 0.023184122517704964, 0.0018186308443546295, 0.033229127526283264, 0.028442250564694405, -0.00011072392226196826, 0.01656915806233883, -0.002636788645759225, -0.054314207285642624, 0.007780138868838549, 0.023603662848472595, -0.023200154304504395, 0.006532436236739159, -0.00211520167067647, -0.010669332928955555, -0.014337928034365177, 0.0002338649646844715, -0.00030702626099810004, 0.01149805262684822, 0.010029026307165623, 0.004600948188453913, 0.006668550428003073, -0.01724662445485592, -0.005016372539103031, 0.019215820357203484, -0.021956922486424446, -0.00219517108052969, -0.004754823166877031, 0.023042436689138412, -0.06478915363550186, 0.009902370162308216, 0.01597536727786064, 0.02387850172817707, 0.010117845609784126], "mlp.lin1.bias": [-0.0009199889027513564, 0.02405817061662674, 0.018918510526418686, 0.013221744447946548, -0.0006267361459322274, -0.01938050054013729, 0.0002627788344398141, -0.01557220984250307, -0.017244575545191765, 0.00821713823825121, 0.01640956662595272, 0.010020439513027668, 0.012937648221850395, 0.02106216549873352, 0.01252503227442503, 0.010942795313894749], "mlp.lin2.weight": [-0.0029901303350925446, 0.008862333372235298, 0.017482351511716843, 0.008517281152307987, -0.05486568808555603, -0.023939168080687523, -0.012761478312313557, -0.0114324064925313, 0.0014706543879583478, 0.0465129129588604, 0.02595081552863121, 0.011253544129431248, 0.028500685468316078, -0.048674002289772034, 0.015515622682869434, 0.0009451094083487988, 0.02295747958123684, -0.0344604067504406, -0.020372441038489342, 0.01577683351933956, 0.004573117941617966, 0.020240657031536102, 0.005194057710468769, 0.003191261785104871, 0.010632427409291267, -0.002789654303342104, -0.037704408168792725, 0.009182827547192574, 0.0007327587809413671, 0.025526978075504303, -0.015148716978728771, 0.021908555179834366, -0.03004452958703041, -0.009588351473212242, -0.009381642565131187, -0.0031424739863723516, -0.006105438340455294, -0.011454769410192966, 0.011852440424263477, -0.010977736674249172, -0.021951908245682716, -0.0008125011227093637, 0.00256823911331594, -0.010952217504382133, -0.01765214465558529, 8.239012822741643e-05, 0.0009202079963870347, -0.041748881340026855, 0.02790796384215355, -0.02335394360125065, 0.002168773440644145, 0.020074257627129555, -0.006180997937917709, -0.006289882119745016, -0.035572152584791183, -0.010429336689412594, -0.02657201513648033, -0.007948393933475018, 0.009050294756889343, -0.019683940336108208, 0.01705235242843628, -0.025637919083237648, 0.003766852430999279, -0.02060518227517605, 0.00763772102072835, 0.02453332580626011, 0.03749845176935196, 0.04122539609670639, -0.011640863493084908, 0.012431821785867214, -0.007074533961713314, -0.0029953618068248034, 0.025514403358101845, -0.009280144236981869, 0.00037002837052568793, 0.016992121934890747, -0.0007039934280328453, -0.03611385449767113, -0.012591300532221794, 0.009524298831820488, -0.02466132864356041, 0.017093075439333916, 0.008249425329267979, -0.011757912114262581, -0.007978773675858974, -0.02922377549111843, 0.012572238221764565, 0.002117126015946269, 0.01732637546956539, -0.012358094565570354, 0.0043828836642205715, -0.029728511348366737, -0.011924867518246174, 0.020480670034885406, 0.004262804985046387, 0.016246991232037544, 0.006936524994671345, 0.010532332584261894, 0.018087606877088547, -0.0009428711491636932, 0.0018065691692754626, -0.009642848744988441, -0.022108273580670357, -0.008995135314762592, 0.021644171327352524, -0.015917282551527023, 0.002079990226775408, 0.0009990292601287365, -0.027619272470474243, -0.023416835814714432, 0.008947847411036491, 0.011466956697404385, -0.0019576838240027428, -0.017826151102781296, 0.01783590391278267, 0.0066296616569161415, -0.02195502445101738, -0.022360775619745255, -0.008693884126842022, -0.020871130749583244, -0.006614188198000193, 0.03588486835360527, 0.012614085339009762, 0.001801475533284247, 0.004348545800894499, -0.010526812635362148, -0.016748571768403053, -0.0009089415543712676], "mlp.lin2.bias": [0.003464659908786416, 0.017200158908963203, -0.020911822095513344, -0.010345454327762127, 0.016687661409378052, -0.03011958859860897, 0.0040921736508607864, 0.021925324574112892]}, "input_shape": [1, 8, 8, 8], "input": [0.05001101642847061, 0.06638462841510773, 0.0955386683344841, -0.039925768971443176, 0.015169692225754261, 0.16236668825149536, 0.16401833295822144, -0.16506749391555786, 0.1494101583957672, 0.007916191592812538, 0.0029842983931303024, 0.08188211172819138, -0.1710241287946701, -0.03262845799326897, 0.036311451345682144, -0.13191895186901093, -0.09402450174093246, -0.0898522362112999, -0.07972882688045502, -0.2206030935049057, 0.2018548548221588, -0.06728889048099518, 0.014367817901074886, -0.0017195692053064704, 0.0641593486070633, -0.11995813995599747, 0.12064571678638458, 0.2381606549024582, -0.09278783947229385, -0.05893734097480774, -0.13135062158107758, 0.0006790465558879077, 0.10715295374393463, -0.05789269134402275, -0.15764784812927246, 0.07884559035301208, 0.0402785949409008, 0.11832933872938156, 0.11357944458723068, 0.17376458644866943, -0.038756102323532104, 0.0010167782893404365, 0.11071882396936417, -0.03402922675013542, 0.09231708198785782, -0.04518186300992966, 0.2761276960372925, 0.08499947935342789, 0.17402464151382446, -0.13994990289211273, 0.13161922991275787, -0.009773435071110725, -0.1821763962507248, -0.18666675686836243, 0.04146261513233185, 0.11701692640781403, 0.02452303282916546, -0.09664072096347809, -0.049462687224149704, -0.049622394144535065, -0.04557083174586296, -0.09751599282026291, -0.037484921514987946, 0.003683893708512187, 0.025642309337854385, -0.04665009304881096, -0.13707499206066132, 0.1748494803905487, 0.06565208733081818, -0.2320406287908554, -0.21659818291664124, 0.07380722463130951, 0.20566149055957794, -0.019426254555583, -0.0682370662689209, 0.1341252475976944, 0.03242715820670128, 0.056026894599199295, 0.10760712623596191, -0.06300502270460129, -0.04337282106280327, -0.07860571146011353, -0.011993693187832832, 0.0493670292198658, -0.07356976717710495, 0.1874881386756897, -0.10879025608301163, -0.08717920631170273, 0.13305310904979706, -0.14128433167934418, -0.13312073051929474, 0.1362067610025406, 0.05244949460029602, 0.15049271285533905, -0.043645501136779785, 0.10170584917068481, 0.1093788892030716, 0.12122482061386108, 0.05547273904085159, -0.14857839047908783, 0.05777719244360924, -0.011461444199085236, -0.013295433484017849, -0.010752428323030472, 0.1634262651205063, -0.03852934017777443, 0.020485524088144302, -0.04184852913022041, 0.2173461765050888, 0.08551370352506638, -0.10757581144571304, -0.15060536563396454, 0.08238180726766586, 0.08492567390203476, -0.1662805676460266, -0.07821281254291534, -0.04575280472636223, 0.1653938740491867, -0.037516575306653976, -0.09798368066549301, 0.14115554094314575, 0.020444845780730247, 0.0007299621356651187, 0.12460396438837051, 0.012881125323474407, -0.10504891723394394, -0.07791990041732788, -0.07587457448244095, -0.056114669889211655, 0.07323616743087769, -0.1654929369688034, -0.2722099721431732, -0.026041800156235695, 0.01374365296214819, 0.11409713327884674, -0.0028559251222759485, 0.10230101644992828, -0.0914703756570816, 0.10052908957004547, -0.06727700680494308, -0.0014654749538749456, -0.021743297576904297, 0.15802735090255737, 0.011092054657638073, -0.09745185822248459, -0.03607984632253647, 0.14854934811592102, -0.12012878805398941, 0.14041642844676971, -0.07348416745662689, 0.16204339265823364, 0.1439839005470276, 0.04769803211092949, -0.014092886820435524, -0.029671940952539444, -0.10589014738798141, 0.049033306539058685, -0.028409505262970924, -0.025011686608195305, -0.02366711013019085, 0.18948526680469513, 0.03533925861120224, 0.0513172447681427, 0.09892304986715317, 0.14686213433742523, -0.06403572112321854, -0.08143188059329987, 0.07168050110340118, -0.06028888747096062, 0.20348866283893585, 0.0458025299012661, 0.039143312722444534, 0.1206669956445694, 0.03737702965736389, -0.06555267423391342, -0.1370258778333664, -0.20950935781002045, 0.10897946357727051, -0.005635546054691076, -0.23160342872142792, 0.05378918722271919, -0.2880927622318268, -0.08377540111541748, 0.02933678589761257, -0.06242727115750313, -0.022880563512444496, 0.0475839339196682, -8.345550304511562e-05, 0.057287365198135376, -0.005690906196832657, -0.040951233357191086, 0.02954300306737423, 0.14504988491535187, -0.18346357345581055, -0.13004665076732635, -0.13173441588878632, 0.09954120963811874, 0.13724657893180847, 0.026747627183794975, -0.13406674563884735, 0.08015183359384537, 0.010036054067313671, 0.028447085991501808, -0.02406795509159565, -0.12879714369773865, 0.0263109989464283, -0.1362665444612503, -0.11809451878070831, 0.014542962424457073, -0.12965841591358185, 0.08157619833946228, -0.1410268247127533, 0.018970554694533348, 0.15399815142154694, 0.056931477040052414, 0.03167153522372246, 0.0902247279882431, -0.11097754538059235, -0.09968844056129456, 0.05895007401704788, 0.17068985104560852, 0.025803590193390846, -0.06557084619998932, -0.07174434512853622, 0.06618086248636246, -0.042209114879369736, 0.040810104459524155, 0.1499922126531601, -0.18347972631454468, 0.009678232483565807, -0.14674372971057892, -0.09169550240039825, -0.07673627138137817, 0.012325853109359741, 0.06408311426639557, -0.029275525361299515, 0.0047919354401528835, -0.026797205209732056, 0.061237551271915436, -0.020609630271792412, 0.060518063604831696, 0.12164389342069626, -0.11039582639932632, 0.05108777806162834, 0.1484224796295166, -0.06858265399932861, -0.11901644617319107, -0.14059945940971375, -0.02767924964427948, 0.06289653480052948, 0.022728530690073967, 0.02454802580177784, 0.08378208428621292, 0.1478263884782791, 0.10022860020399094, 0.14021314680576324, -0.09080587327480316, 0.04630379006266594, 0.1818041354417801, 0.00039034016663208604, 0.14408697187900543, 0.09790223091840744, -0.05906353518366814, 0.2107241153717041, 0.16766196489334106, -0.10775406658649445, -0.13100318610668182, 0.07497730106115341, 0.057366471737623215, -0.11280019581317902, -0.023684777319431305, -0.23557475209236145, 0.11432013660669327, -0.05818012356758118, -0.04715563356876373, -0.10365124046802521, 3.0226383387343958e-05, -0.013747825287282467, 0.019873173907399178, -0.04732746630907059, 0.14180444180965424, -0.04402138292789459, 0.04761238396167755, -0.1485663801431656, -0.06882475316524506, -0.04248680919408798, -0.00940034631639719, -0.01185715850442648, -0.11322543770074844, -0.0404779277741909, 0.02050039730966091, -0.17827941477298737, 0.031678833067417145, 0.010732109658420086, -0.04794909060001373, -0.004640885628759861, 0.018662767484784126, -0.15180091559886932, -0.060496777296066284, 0.05146671459078789, 0.003124644747003913, -0.1145746037364006, -0.08924304693937302, -0.21806076169013977, 0.11675693094730377, 0.20432208478450775, -0.034688759595155716, 0.08270476013422012, -0.19127507507801056, 0.07850372791290283, -0.12230470031499863, 0.016561536118388176, -0.13593700528144836, -0.10322181135416031, 0.08356118947267532, 0.14799116551876068, 0.06611939519643784, -0.028135482221841812, 0.033852577209472656, -0.06814248114824295, 0.09958136826753616, 0.015477056615054607, -0.20866163074970245, -0.05750522017478943, 0.03664118051528931, 0.3394075036048889, -0.059817422181367874, -0.05693960189819336, 0.16883520781993866, -0.21067248284816742, 0.06827915459871292, 0.0973777249455452, -0.21311581134796143, -0.08818930387496948, -0.058464568108320236, 0.005329578649252653, -0.1597047597169876, 0.15700849890708923, 0.04620300605893135, 0.08179952204227448, 0.06455322355031967, -0.024269742891192436, -0.13321855664253235, 0.08132962137460709, 0.1491117775440216, 0.13930200040340424, 0.07619570195674896, 0.1489488035440445, 0.06970991939306259, 0.07710114121437073, 0.07881329208612442, -0.07615846395492554, 0.04376286640763283, 0.06576704978942871, -0.07914545387029648, 0.006573248654603958, -0.03475899249315262, -0.0067617869935929775, 0.03379727527499199, -0.03166359290480614, 0.07352233678102493, -0.10049467533826828, -0.03402898460626602, -0.06108054518699646, -0.060139965265989304, -0.2476501315832138, -0.02394685707986355, 0.13851496577262878, 0.03881538659334183, -0.12020272016525269, 0.05605776235461235, -0.003962452989071608, 0.010694592259824276, 0.15766529738903046, -0.07891601324081421, 0.0048525347374379635, -0.0404244028031826, 0.04418748617172241, -0.05246953293681145, 0.02879956178367138, -0.028141742572188377, 0.2836606204509735, 0.009721081703901291, 0.06486492604017258, -0.025722160935401917, 0.05939901992678642, 0.15423361957073212, -0.011349047534167767, 0.06364237517118454, 0.1461935043334961, 0.06503238528966904, -0.005103609059005976, -0.08715029060840607, -0.07981961965560913, 0.03164142742753029, -0.06476830691099167, -0.08463799208402634, -0.08329291641712189, -0.16840684413909912, -0.1072630062699318, 0.02606613002717495, 0.03960766643285751, 0.2114667445421219, 0.0326836034655571, -0.2144446223974228, 0.12782816588878632, -0.05619068816304207, 0.08522137254476547, -0.0716080442070961, 0.17136691510677338, -0.08353739976882935, -0.07582442462444305, -0.19235850870609283, -0.0838836058974266, 0.2150730937719345, 0.10410096496343613, 0.039476312696933746, -0.04270413890480995, -0.03379790112376213, -0.05660206079483032, 0.07659114897251129, -0.14432844519615173, 0.041320737451314926, 0.11160224676132202, -0.14974592626094818, 0.0677800327539444, -0.06619758158922195, -0.13404624164104462, -0.08875950425863266, -0.16902434825897217, 0.14046445488929749, 0.06391478329896927, 0.2184789627790451, 0.011408387683331966, 0.07821071147918701, 0.0903630256652832, -0.0339042991399765, 0.06982368975877762, 0.04623165354132652, 0.022048838436603546, -0.10743378847837448, -0.03396586701273918, 0.08784803748130798, 0.09168551117181778, 0.11964940279722214, 0.018317604437470436, 0.07742287963628769, 0.04783393070101738, -0.12819482386112213, 0.17960593104362488, 0.11676453799009323, -0.031134262681007385, 0.12965291738510132, -0.03455284610390663, 0.0010043459478765726, 0.03541649505496025, -0.25425514578819275, 0.032697271555662155, 0.026936450973153114, 0.021768923848867416, -0.026349550113081932, -0.06798026710748672, -0.00027373534976504743, -0.026838703081011772, 0.0950264260172844, 0.11333709955215454, 0.10201048105955124, 0.12744194269180298, 0.05713551118969917, -0.010885093361139297, -0.11127382516860962, 0.017781464383006096, -0.09655280411243439, 0.05173777416348457, -0.037885960191488266, -0.06488019227981567, 0.06176578626036644, 0.04933815822005272, 0.0185272004455328, 0.0013003580970689654, 0.11360235512256622, -0.12252875417470932, 0.11328727006912231, -0.1344427615404129, 0.08795756846666336, -0.017871322110295296, -0.06104123219847679, -0.1571570336818695, -0.14737750589847565, 0.1418675035238266, -0.1044483408331871, -0.21299993991851807, -0.05588731914758682, 0.19067014753818512, -0.0468285046517849, 0.014832495711743832, -0.061485856771469116, 0.15383026003837585, -0.2233356237411499, -0.04244168475270271, 0.023855147883296013, 0.05573296174407005, -0.2025337964296341, 0.02674068883061409, -0.11972826719284058, -0.11263064295053482, 0.07413236796855927, -0.12245174497365952, 0.2295105904340744, 0.10077185928821564, -0.04275757446885109, -0.11954014748334885], "output_shape": [1, 8, 8, 8], "output": [0.05655008554458618, 0.06854468584060669, 0.08173279464244843, -0.051811397075653076, 0.04737800359725952, 0.132137730717659, 0.1265323907136917, -0.15637581050395966, 0.15593042969703674, 0.010162283666431904, -0.01090355683118105, 0.06995600461959839, -0.13879330456256866, -0.06284009665250778, -0.0011705425567924976, -0.123258076608181, -0.08743426948785782, -0.08771094679832458, -0.09351753443479538, -0.23246268928050995, 0.2340930998325348, -0.09753488004207611, -0.023105697706341743, 0.0070097846910357475, 0.07068530470132828, -0.11766748130321503, 0.10671458393335342, 0.2262372225522995, -0.06048975884914398, -0.0891740620136261, -0.16880126297473907, 0.009345467202365398, 0.11376029998064041, -0.055671852082014084, -0.17152726650238037, 0.06692074984312057, 0.07253925502300262, 0.08806362748146057, 0.07607615739107132, 0.18247103691101074, -0.032117925584316254, 0.003134341910481453, 0.09690568596124649, -0.04589210823178291, 0.1245259940624237, -0.07545992732048035, 0.23863378167152405, 0.09373096376657486, 0.1806061565876007, -0.13775792717933655, 0.1177540272474289, -0.021663472056388855, -0.14997754991054535, -0.21694672107696533, 0.003972758539021015, 0.12570421397686005, 0.0311054065823555, -0.09443270415067673, -0.06333283334970474, -0.06151851266622543, -0.013356972485780716, -0.1278003603219986, -0.0749741867184639, 0.012372803874313831, 0.0322076641023159, -0.044364191591739655, -0.15100112557411194, 0.16292953491210938, 0.0979754626750946, -0.26227685809135437, -0.2540471851825714, 0.08249978721141815, 0.2121928334236145, -0.017174970358610153, -0.08212529122829437, 0.12218653410673141, 0.06466706097126007, 0.025824489071965218, 0.07011408358812332, -0.05433934926986694, -0.03685154393315315, -0.0763489156961441, -0.025876322761178017, 0.03744984418153763, -0.04127446934580803, 0.15724307298660278, -0.14625141024589539, -0.07849946618080139, 0.13959284126758575, -0.13901636004447937, -0.14701397716999054, 0.12427470833063126, 0.08473721146583557, 0.12026718258857727, -0.0811220183968544, 0.11038709431886673, 0.11596880108118057, 0.12336055934429169, 0.041677460074424744, -0.16043324768543243, 0.08996497094631195, -0.041768573224544525, -0.05078013241291046, -0.0020383689552545547, 0.16999231278896332, -0.03632788732647896, 0.0066319480538368225, -0.05374172329902649, 0.24957184493541718, 0.055215612053871155, -0.145059734582901, -0.14191603660583496, 0.08895990252494812, 0.08712565898895264, -0.1801273077726364, -0.09012152254581451, -0.013515261933207512, 0.13510987162590027, -0.07501385360956192, -0.08928319066762924, 0.1477237045764923, 0.022712467238307, -0.013199503533542156, 0.11268089711666107, 0.04514288157224655, -0.13533076643943787, -0.11539342254400253, -0.06720104813575745, -0.04951987415552139, 0.07535261660814285, -0.17925548553466797, -0.2840738296508789, 0.006172403693199158, -0.016487468034029007, 0.07660555094480515, 0.00587921217083931, 0.1088494062423706, -0.08933131396770477, 0.08673608303070068, -0.0791492760181427, 0.0307001955807209, -0.051965899765491486, 0.12053244560956955, 0.019782058894634247, -0.0908537432551384, -0.033952176570892334, 0.13475878536701202, -0.13197588920593262, 0.1726505160331726, -0.10373148322105408, 0.12457700818777084, 0.15271621942520142, 0.05424872413277626, -0.011932730674743652, -0.04346388578414917, -0.1177569180727005, 0.08123844116926193, -0.0586576908826828, -0.062489237636327744, -0.014964064583182335, 0.19606497883796692, 0.03758140653371811, 0.03741767257452011, 0.08702121675014496, 0.17911888659000397, -0.09433257579803467, -0.11890200525522232, 0.08036945760250092, -0.053691212087869644, 0.205703005194664, 0.03192216157913208, 0.02725396305322647, 0.15295782685279846, 0.007070228457450867, -0.10301148891448975, -0.12831352651119232, -0.20286808907985687, 0.1111270934343338, -0.019464218989014626, -0.24345403909683228, 0.08604631572961807, -0.31840264797210693, -0.1212383285164833, 0.038080208003520966, -0.05582597479224205, -0.020671702921390533, 0.03370862454175949, -0.011957241222262383, 0.08958090841770172, -0.036012064665555954, -0.07840265333652496, 0.03825999051332474, 0.15158601105213165, -0.18127965927124023, -0.14386054873466492, -0.14363442361354828, 0.13174968957901, 0.10702157765626907, -0.010748298838734627, -0.12538014352321625, 0.08665870130062103, 0.012275783345103264, 0.01458207331597805, -0.03597065806388855, -0.09655299782752991, -0.003935467451810837, -0.17372986674308777, -0.10942597687244415, 0.021086014807224274, -0.12751448154449463, 0.06779586523771286, -0.1528930962085724, 0.0511743426322937, 0.12375123053789139, 0.019448172301054, 0.040374062955379486, 0.09676665812730789, -0.10872895270586014, -0.11356823891401291, 0.04703240096569061, 0.2029634416103363, -0.004427382722496986, -0.10304279625415802, -0.06306147575378418, 0.07273121178150177, -0.03992865979671478, 0.026872988790273666, 0.13806326687335968, -0.15120288729667664, -0.0206098984926939, -0.18421326577663422, -0.08302824199199677, -0.07011780887842178, 0.014468698762357235, 0.050250500440597534, -0.041132211685180664, 0.0370352603495121, -0.05710044503211975, 0.023769808933138847, -0.011883504688739777, 0.06711149215698242, 0.12388351559638977, -0.12429528683423996, 0.03917817026376724, 0.1807030737400055, -0.0988735556602478, -0.1564875841140747, -0.13189944624900818, -0.021050266921520233, 0.06506628543138504, 0.008894113823771477, 0.012668860144913197, 0.11606957763433456, 0.11752359569072723, 0.06275130808353424, 0.14895416796207428, -0.08419863134622574, 0.04852082207798958, 0.16795682907104492, -0.011441738344728947, 0.1763744354248047, 0.06757789850234985, -0.0965193659067154, 0.21944501996040344, 0.17423050105571747, -0.10548332333564758, -0.1449032425880432, 0.06307920813560486, 0.08959852159023285, -0.14306366443634033, -0.06118302792310715, -0.2269090861082077, 0.1208881065249443, -0.05599237233400345, -0.060964781790971756, -0.11550883948802948, 0.032191451638936996, -0.044024355709552765, -0.017641041427850723, -0.038646403700113297, 0.14836792647838593, -0.04184463992714882, 0.03381139412522316, -0.1604057252407074, -0.03667076677083969, -0.0727771446108818, -0.046903036534786224, -0.003174707293510437, -0.10662680119276047, -0.03833471238613129, 0.006722686812281609, -0.19011300802230835, 0.06390883773565292, -0.019595324993133545, -0.08542156964540482, 0.0040885210037231445, 0.025217732414603233, -0.14953044056892395, -0.07440249621868134, 0.0395529568195343, 0.03537813946604729, -0.14485782384872437, -0.12672388553619385, -0.2093939632177353, 0.12331990897655487, 0.20658867061138153, -0.048576563596725464, 0.07080027461051941, -0.15900015830993652, 0.048205263912677765, -0.15977731347084045, 0.02524808794260025, -0.12934847176074982, -0.10096471756696701, 0.06965261697769165, 0.1360929161310196, 0.09842126071453094, -0.05843033641576767, -0.0036101723089814186, -0.05944884568452835, 0.10615617036819458, 0.017715472728013992, -0.22251011431217194, -0.06938701868057251, 0.06889110803604126, 0.3091224133968353, -0.09731616079807281, -0.048246920108795166, 0.17538975179195404, -0.20839884877204895, 0.054376598447561264, 0.08548958599567413, -0.18088991940021515, -0.11846406757831573, -0.09595482051372528, 0.01398913562297821, -0.15308867394924164, 0.15927712619304657, 0.03230050206184387, 0.06994201242923737, 0.09689071774482727, -0.054585050791502, -0.1706632375717163, 0.09004789590835571, 0.15567263960838318, 0.14157642424106598, 0.06229226663708687, 0.1370563805103302, 0.1019592136144638, 0.046825528144836426, 0.0413285493850708, -0.0674915611743927, 0.050346363335847855, 0.06800723820924759, -0.09301529824733734, -0.0053392620757222176, -0.002512330189347267, -0.03703407943248749, -0.0036990540102124214, -0.022971617057919502, 0.080121710896492, -0.09828588366508484, -0.047880448400974274, -0.07295531034469604, -0.027915839105844498, -0.2779402434825897, -0.061430905014276505, 0.14721688628196716, 0.04536062479019165, -0.11797001957893372, 0.04220765829086304, -0.015849150717258453, 0.04293939098715782, 0.12735401093959808, -0.11639507859945297, 0.013534322381019592, -0.03384507820010185, 0.046417705714702606, -0.06632040441036224, 0.016903217881917953, 0.004144453443586826, 0.25335854291915894, -0.027760418131947517, 0.07357222586870193, -0.019141115248203278, 0.061585597693920135, 0.14041456580162048, -0.023183397948741913, 0.0958801805973053, 0.1158817708492279, 0.027557961642742157, 0.0036008842289447784, -0.08058948814868927, -0.07756248116493225, 0.017758486792445183, -0.07662123441696167, -0.052373260259628296, -0.11360958218574524, -0.20586350560188293, -0.09858175367116928, 0.03262932598590851, 0.04184868931770325, 0.19759991765022278, 0.02082548290491104, -0.18219664692878723, 0.0975242331624031, -0.09366276115179062, 0.09390564262866974, -0.06497064977884293, 0.1735512763261795, -0.09737209975719452, -0.08767936378717422, -0.16011998057365417, -0.11415283381938934, 0.1775767207145691, 0.11282573640346527, 0.046093251556158066, -0.04051990807056427, -0.047627247869968414, -0.06846659630537033, 0.1088172048330307, -0.17462104558944702, 0.00383483013138175, 0.1203194186091423, -0.14310015738010406, 0.06992828100919724, -0.0800074115395546, -0.14590103924274445, -0.05651990324258804, -0.1993114948272705, 0.10297885537147522, 0.0726558268070221, 0.22501271963119507, 0.013656898401677608, 0.06433874368667603, 0.07845618575811386, -0.0017002373933792114, 0.03954070806503296, 0.008736414834856987, 0.030707336962223053, -0.10082422196865082, -0.03174090385437012, 0.07397034764289856, 0.07980697602033615, 0.15195134282112122, -0.011986492201685905, 0.039961643517017365, 0.05654854327440262, -0.12156844139099121, 0.1818053126335144, 0.10292153060436249, -0.04296202212572098, 0.16193662583827972, -0.0648682713508606, -0.03645152226090431, 0.0441463403403759, -0.24762505292892456, 0.0349346324801445, 0.013046765699982643, 0.009914679452776909, 0.005972770042717457, -0.09828098863363266, -0.03772825747728348, -0.01811530999839306, 0.10159476846456528, 0.1156315803527832, 0.08809338510036469, 0.11556769162416458, 0.08942453563213348, -0.04119116812944412, -0.14873026311397552, 0.02646029181778431, -0.0899258479475975, 0.053925905376672745, -0.05170678719878197, -0.07671937346458435, 0.09404530376195908, 0.0190318264067173, -0.018947679549455643, 0.01003518607467413, 0.12015397846698761, -0.12034593522548676, 0.0994742289185524, -0.14630627632141113, 0.12014290690422058, -0.04817693680524826, -0.09852880239486694, -0.14847448468208313, -0.14077521860599518, 0.1440383940935135, -0.11824614554643631, -0.22486059367656708, -0.02362886257469654, 0.160356804728508, -0.08430825918912888, 0.023563578724861145, -0.05488710105419159, 0.15607789158821106, -0.23720301687717438, -0.054333075881004333, 0.056163616478443146, 0.02542332373559475, -0.24000070989131927, 0.03545830398797989, -0.11314428597688675, -0.11044885963201523, 0.060315631330013275, -0.13431194424629211, 0.261755108833313, 0.07045716047286987, -0.0802326649427414, -0.1108299270272255]}, "sam_block_global": {"dim": 8, "num_heads": 2, "mlp_ratio": 2.0, "window_size": 0, "grid": [8, 8], "weights": {"norm1.weight": [0.04285163804888725, -0.01605531945824623, 0.023748453706502914, -0.025519149377942085, -0.013955258764326572, -0.008959543891251087, 0.007371778134256601, 0.00611475994810462], "norm1.bias": [0.028160205110907555, -0.023854326456785202, -0.032539281994104385, 0.018442755565047264, -0.012515627779066563, 0.010752445086836815, 0.006355414167046547, 0.020355109125375748], "attn.rel_pos_h": [-0.0020270419772714376, -0.00993441417813301, -0.01431235671043396, 0.013211816549301147, 0.006816364824771881, 0.006489420309662819, -0.006271619815379381, 0.03580586984753609, -0.026732124388217926, -0.0033103758469223976, 0.01755283959209919, 0.036338355392217636, 0.005785979330539703, 0.013268498703837395, 0.01790633611381054, 0.02279052510857582, 0.011317117139697075, -0.017606370151042938, 0.018068762496113777, 0.01700563170015812, -0.009502542205154896, -0.001568051055073738, -0.012374047189950943, 0.016676587983965874, 0.019540902227163315, 0.003943067044019699, 0.03415895998477936, -0.008309055119752884, -0.0028124686796218157, 0.007152670528739691, 0.003860191674903035, -0.03674614056944847, 0.0034322389401495457, -0.0018160062609240413, -0.022666964679956436, 0.015247447416186333, 0.01070548128336668, 0.00877904798835516, -0.008263932541012764, 0.023637957870960236, 0.016363028436899185, -0.03327357769012451, -0.01383804902434349, 0.005863772705197334, -0.009376155212521553, 0.03709494322538376, -0.023452788591384888, -0.018086696043610573, 0.012783312238752842, 0.019819479435682297, -0.023128323256969452, -0.024485277011990547, -0.003945731092244387, 0.018707316368818283, -0.023412739858031273, -0.006350102834403515, -0.019996561110019684, -0.018725739791989326, 0.0011201492743566632, 0.01659032329916954], "attn.rel_pos_w": [0.05030697584152222, -0.009289910085499287, -0.013948488049209118, -0.0034820237196981907, 0.010782362893223763, -0.010602636262774467, 0.0015408479375764728, -0.011015815660357475, -0.021668285131454468, -0.011945017613470554, -0.023100242018699646, -0.007479057181626558, 0.02695164456963539, -0.00817759707570076, 0.0034297327511012554, -0.0004931561416015029, -0.02096453681588173, 0.002099038101732731, -0.0039521511644124985, 0.04062291234731674, -0.02306823432445526, 0.034409232437610626, -0.03613393008708954, -0.006477669812738895, 0.007261559832841158, 0.011056910268962383, 0.007805085740983486, -0.028628034517169, -0.010584861040115356, -0.02549164928495884, -0.019503075629472733, 0.007296693045645952, -0.03852466121315956, 0.006878801621496677, 0.021437251940369606, 0.025242900475859642, 0.003371777944266796, -0.012752313166856766, -0.02407705783843994, 0.017054468393325806, 0.005474623758345842, 4.384940257295966e-05, -0.03039366379380226, 0.0023736506700515747, -0.01546438317745924, -0.011102343909442425, -0.01306752860546112, -0.0019885285291820765, 0.009290474466979504, 0.027998507022857666, -0.0023499890230596066, 0.003992912359535694, -0.015497175976634026, 0.0263381190598011, -0.012364341877400875, -0.008201589807868004, -0.016857938840985298, 0.014243792742490768, 0.006249064579606056, -0.000667001586407423], "attn.qkv.weight": [0.013088340871036053, -0.006339989136904478, 0.01792396605014801, -0.018753238022327423, -0.00011475841165520251, -0.012300994247198105, -0.02771906554698944, 0.018674811348319054, -0.018881844356656075, 0.02255827933549881, 0.02116323821246624, -0.01845630072057247, -0.02091638743877411, 0.00441016023978591, 0.005776818376034498, 0.02989324741065502, -0.002892437158152461, 0.0015142112970352173, -0.00950586050748825, -0.005042109172791243, 0.0011667675571516156, -0.005895324982702732, 0.013665681704878807, 0.0022074710577726364, 0.006312158424407244, 0.012125195935368538, -0.012372644618153572, -0.004558207467198372, 0.029250992462038994, 0.00840073637664318, -0.017713934183120728, -0.003265128470957279, -0.006337794475257397, -0.010825916193425655, -0.0042130788788199425, -0.001568866427987814, 0.00572961987927556, -0.006137697026133537, 0.013517653569579124, 0.0012043213937431574, 0.017030291259288788, 0.012638199143111706, -0.009669136255979538, -0.011881505139172077, -0.0007667132886126637, -0.009394777938723564, -0.0015165121294558048, 0.012987849302589893, -0.003715457860380411, -0.03276669979095459, 0.027919795364141464, -0.0009665694087743759, 0.00855807214975357, 0.06346570700407028, -0.0007581808022223413, -0.02242552861571312, 0.0137962456792593, 0.009655303321778774, -0.0334041602909565, -0.01076596975326538, 0.01094997301697731, 0.02056044712662697, -0.010028827004134655, 1.2562699339468963e-05, -0.03141476958990097, 0.014344488270580769, -0.024789059534668922, -0.042494166642427444, 0.01697046309709549, 0.0024018881376832724, 0.013806253671646118, -0.004531580023467541, -0.0010533074382692575, -0.024196799844503403, -0.00827306043356657, -0.02710123173892498, -0.006704193074256182, 0.011550921946763992, -0.03440263122320175, -0.012965437024831772, -0.005736007355153561, 0.040132008492946625, -0.0019090905552729964, 0.01928200013935566, 0.0010377162834629416, 0.02885676734149456, -0.005278659984469414, 0.00404595909640193, 0.05079669505357742, 0.016241081058979034, 0.011081974022090435, 0.01493586041033268, 0.032933540642261505, -0.00777271157130599, 0.015466146171092987, -0.014363367110490799, 0.024345507845282555, 0.019910747185349464, -0.04435336962342262, 0.01700993813574314, -0.012054371647536755, -0.025462793186306953, 0.005087723024189472, 0.0067084007896482944, 0.008962959051132202, 0.00938422605395317, -0.014444024302065372, -0.0027547867503017187, 0.007330788765102625, -0.03679380938410759, -0.028583254665136337, 0.012163502164185047, 0.005838227923959494, 0.028543975204229355, -0.005653771571815014, -0.022709250450134277, -0.00916825607419014, -0.0103174839168787, 0.006955600343644619, -0.03119620494544506, 0.03111114166676998, 0.022978508844971657, 0.01728375442326069, 0.00161592080257833, 0.0008381889783777297, 0.0007223487482406199, -0.012185842730104923, 0.0015747824218124151, -0.023793868720531464, 0.01113966666162014, 0.013600149191915989, 0.009378774091601372, 0.017832810059189796, -0.005455576814711094, 0.03008504956960678, 0.038996148854494095, 0.005554086994379759, 0.008715854957699776, -0.010245895013213158, -0.02185920625925064, -0.006064001005142927, -0.010505059733986855, -0.021582206711173058, 0.016233501955866814, -0.012864930555224419, -0.008196215145289898, 0.013562462292611599, -0.023895785212516785, 0.01441057026386261, 0.03251507878303528, 0.03311752900481224, -0.011017844080924988, 0.024689234793186188, 0.030513281002640724, 0.03808603063225746, -0.002878268016502261, 0.014111883006989956, -0.02232927270233631, -0.008885249495506287, 0.017077501863241196, 0.011634716764092445, 0.027174243703484535, 0.0018703166861087084, -0.002834431827068329, 0.029650690034031868, 0.01305861584842205, -0.0034859739243984222, 0.02340470440685749, -0.006529317237436771, 0.021648507565259933, -0.00414323853328824, 0.008983079344034195, 0.02294907532632351, 0.026127994060516357, 0.025694338604807854, -0.0032244031317532063, -0.009125071577727795, -0.005145083647221327, -0.0269879549741745, -0.013311954215168953, 0.008758717216551304, -0.0432136245071888, 0.008223198354244232, -0.011303306557238102, -0.005995027720928192, 0.0015104719204828143, -0.0343286506831646, 0.008836004883050919, -0.014719986356794834, -0.018598556518554688, 0.02158191427588463, 0.0008273212588392198], "attn.qkv.bias": [-0.014992248266935349, 0.007619928568601608, 0.014112133532762527, -0.008839314803481102, -0.029303623363375664, -0.020863840356469154, 0.006587150506675243, 0.01714141294360161, 0.016817061230540276, 0.023168956860899925, 0.01757909543812275, 0.010327943600714207, 0.03301696851849556, 0.013165672309696674, -0.033419691026210785, 0.00031796167604625225, 0.05665864422917366, -0.0009737490909174085, -0.004281249362975359, -0.016444947570562363, -0.0016864141216501594, -0.025325261056423187, -0.0026957415975630283, 0.019291434437036514], "attn.proj.weight": [-0.03220612183213234, -0.031568124890327454, 0.021594176068902016, -0.011585893109440804, -0.003053563879802823, 0.012087775394320488, 0.023055553436279297, -0.03286176547408104, 0.0014172709779813886, -0.004519124981015921, 0.0025921431370079517, -0.04374506324529648, 0.020482908934354782, 0.03509068116545677, 0.015334735624492168, -0.00800599530339241, 0.019453400745987892, 0.005148017778992653, 0.01875876821577549, -0.0009249800932593644, 0.007562439423054457, -0.018035948276519775, 0.012625981122255325, -0.011198529042303562, 0.004077168181538582, -0.03895730525255203, 0.03364469110965729, -0.017107496038079262, 0.0048651983961462975, -0.01691942848265171, 0.019511781632900238, -0.028416942805051804, 0.019120624288916588, -0.005928835831582546, 0.03924312815070152, 0.02582116611301899, 0.007284978404641151, -0.028062717989087105, -0.006459594704210758, -0.0026662074960768223, -0.052001889795064926, 0.020519133657217026, 0.0014841165393590927, 0.01261177472770214, 0.029465854167938232, 0.015576981008052826, 0.022697830572724342, -0.0379643477499485, 0.002456127433106303, 0.012663211673498154, 0.035294629633426666, 0.02320712059736252, 0.011443599127233028, -0.006490807980298996, -0.003909341990947723, -0.00033779311343096197, -0.01130550354719162, 0.011655567213892937, -0.021249601617455482, -0.002570521552115679, 0.025995654985308647, 0.02093379944562912, 0.012096266262233257, -0.005866883788257837], "attn.proj.bias": [0.0017428187420591712, 0.01974932663142681, 0.012075782753527164, -0.01748211495578289, -0.008832002989947796, -0.000896116835065186, -0.004113519564270973, -0.011752265505492687], "norm2.weight": [-0.026430632919073105, -0.035245563834905624, -0.0026955713983625174, 0.0008421450620517135, -0.03160550072789192, 0.013674503192305565, 0.006677213590592146, 0.023761587217450142], "norm2.bias": [-0.005796556361019611, 0.009280644357204437, 0.011820105835795403, -0.010800076648592949, 0.0024788076989352703, 0.012874613516032696, -0.018942350521683693, 0.031921662390232086], "mlp.lin1.weight": [-0.000889939779881388, 0.020556066185235977, 0.003925630822777748, 0.011232199147343636, -0.006925777532160282, 0.0058051529340445995, -0.019176248461008072, 0.0126471733674407, 0.012029979377985, 0.007683165371417999, -0.03585207089781761, -0.03616641089320183, 0.006008068099617958, 0.02521488443017006, -0.03471360728144646, -0.00844228733330965, 0.020006990060210228, 0.019904352724552155, 0.016130736097693443, -0.016654128208756447, 0.0038160814438015223, 0.011712335981428623, -0.0020176395773887634, -0.037222351878881454, -0.015769224613904953, -0.004258030094206333, -0.0014150126371532679, 0.011273296549916267, -0.03419201448559761, -0.01834394596517086, 0.009737825952470303, 0.04162541776895523, 0.014860006049275398, -0.0040287356823682785, -0.023547543212771416, 0.014586391858756542, -0.0073310318402945995, 0.019723111763596535, -0.005151191260665655, 0.00553489476442337, -0.003983522765338421, -0.014420959167182446, -0.0017429672880098224, 0.002701634308323264, 0.007832290604710579, 0.021566374227404594, -0.012785730883479118, 0.0049325269646942616, 0.017834367230534554, 0.012058032676577568, -0.007262967061251402, 0.006629232782870531, 0.013256419450044632, -0.004890947602689266, -0.015499617904424667, -0.01871138997375965, 0.03942767158150673, -0.011708585545420647, 0.006665369495749474, 0.007703105453401804, 0.0006885460461489856, -0.0024904015008360147, -0.013615156523883343, 0.012951421551406384, 0.0197816900908947, 0.028834830969572067, 0.002655422082170844, 0.029375145211815834, 0.01986762136220932, 0.005145876202732325, -0.054614920169115067, 0.0011230536038056016, 0.031893327832221985, -0.00639548571780324, -0.010036583058536053, 0.012200837023556232, 0.007054608780890703, -0.0183432474732399, 0.0009616329334676266, -0.021915709599852562, 0.027494963258504868, 0.003383047180250287, 0.016348067671060562, 0.015656763687729836, -0.0035828077234327793, -0.018719883635640144, 0.009756417945027351, -0.0060142339207232, 0.023584913462400436, 0.014017692767083645, -8.846762648317963e-05, 0.0038884372916072607, 0.00636632926762104, -0.041261471807956696, 0.017717067152261734, 0.009883231483399868, -0.008506214246153831, 0.019879059866070747, -0.03147144615650177, -0.005325247999280691, -0.019011838361620903, -0.018463339656591415, -0.0004330921801738441, -0.016881201416254044, -0.04311225190758705, -0.02485860139131546, -0.016829827800393105, 0.01634475588798523, -0.001121407374739647, -0.0047057876363396645, 0.02359459549188614, 0.020162589848041534, -0.02744104526937008, 0.02036105841398239, -0.01696205884218216, 0.03543242812156677, -0.022243741899728775, -0.03188183158636093, 0.009816017001867294, 0.00822638813406229, -0.0020111834164708853, 0.006181580480188131, 0.031580980867147446, -0.0023798979818820953, 0.002998522249981761, -0.020470306277275085, 0.02538461610674858, -0.0007567653665319085], "mlp.lin1.bias": [-0.01356052327901125, -0.012172733433544636, -0.0011448987061157823, -0.01220688410103321, -0.025376813486218452, -0.011934565380215645, -0.010487720370292664, -0.01769917458295822, -0.018214290961623192, 0.0228953305631876, 0.03005417436361313, -0.01488255150616169, 0.02050377056002617, -0.007648031692951918, -0.02815086767077446, -0.03821732848882675], "mlp.lin2.weight": [0.020346038043498993, -0.016848014667630196, 0.02332897298038006, 0.0038900920189917088, -0.010716019198298454, 0.03490506112575531, 0.015008575282990932, -0.0279834121465683, 0.004832552280277014, 0.019560901448130608, -0.0003236952470615506, 0.0025210087187588215, -0.015974564477801323, -0.00959665235131979, 0.0126980971544981, -0.018777625635266304, 0.0022099444177001715, 0.014914773404598236, -0.04114442318677902, -0.01065301988273859, 0.006267531309276819, -0.0040636793710291386, 0.011640244163572788, -0.014178184792399406, -0.027964910492300987, 0.019980156794190407, 0.005705868359655142, -0.005123827140778303, 0.02968466281890869, 0.009051783941686153, -0.002887926995754242, 0.007635695859789848, -0.0010947943665087223, -0.0275871679186821, 0.003306644968688488, 0.04407479986548424, -0.01568920910358429, -0.0022045806981623173, 0.02681153267621994, 0.006229647435247898, 0.020422905683517456, 0.0009506543283350766, 0.0042922962456941605, 0.01931721344590187, -0.025561504065990448, 0.007895530201494694, -0.0022888979874551296, 0.021126363426446915, 0.014106620103120804, 0.023544128984212875, -0.0072850631549954414, -0.02714177593588829, 0.017904914915561676, 0.019461188465356827, 0.020195161923766136, 0.02669440396130085, 0.01727619767189026, -0.003768585855141282, 0.016623757779598236, 0.009802778251469135, 0.03495964780449867, 0.02366875670850277, -0.0406368114054203, -0.0014881403185427189, -0.013793285004794598, -0.004736286122351885, -0.011692690663039684, -0.0022041520569473505, -0.014743134379386902, -0.005833039525896311, -0.012077920138835907, -0.005745214875787497, 0.020044248551130295, -0.0035423561930656433, 0.009845304302871227, -0.019234389066696167, -0.027378328144550323, 0.006664021406322718, 0.009455686435103416, -0.010351857170462608, -0.020931856706738472, 0.002418209332972765, 0.029570478945970535, 0.01998273842036724, 0.008208089508116245, -0.030417876318097115, -0.016909951344132423, 0.0053351083770394325, 0.009689608588814735, -0.0023888535797595978, -0.010318266227841377, 0.03728972747921944, -0.02146853692829609, -0.032142121344804764, -0.008687763474881649, 0.05817197263240814, -0.012029653415083885, -0.018601683899760246, 0.038168568164110184, 0.024096230044960976, -0.0031913246493786573, 0.003619428724050522, -0.018621547147631645, 0.010556906461715698, -0.005876862909644842, 0.0034190532751381397, -0.03862690553069115, -0.016640404239296913, -0.0003100390895269811, -0.005513080861419439, 0.0005037145456299186, 0.000577172264456749, 0.02488589659333229, 0.020549997687339783, 0.012099643237888813, 0.014316410757601261, -0.0034008061047643423, -0.022072529420256615, -0.008525936864316463, 0.020334983244538307, -0.02187083661556244, 0.003213509451597929, -0.020724177360534668, -0.009113832376897335, -0.014221133664250374, 0.029654502868652344, -0.0017996474634855986, -0.03629199042916298], "mlp.lin2.bias": [-0.024930382147431374, 0.02209504507482052, -0.015447204932570457, -0.012842482887208462, -0.003179792081937194, -0.02665219083428383, 0.04965279623866081, 0.016875112429261208]}, "input_shape": [1, 8, 8, 8], "input": [0.05001101642847061, 0.06638462841510773, 0.0955386683344841, -0.039925768971443176, 0.015169692225754261, 0.16236668825149536, 0.16401833295822144, -0.16506749391555786, 0.1494101583957672, 0.007916191592812538, 0.0029842983931303024, 0.08188211172819138, -0.1710241287946701, -0.03262845799326897, 0.036311451345682144, -0.13191895186901093, -0.09402450174093246, -0.0898522362112999, -0.07972882688045502, -0.2206030935049057, 0.2018548548221588, -0.06728889048099518, 0.014367817901074886, -0.0017195692053064704, 0.0641593486070633, -0.11995813995599747, 0.12064571678638458, 0.2381606549024582, -0.09278783947229385, -0.05893734097480774, -0.13135062158107758, 0.0006790465558879077, 0.10715295374393463, -0.05789269134402275, -0.15764784812927246, 0.07884559035301208, 0.0402785949409008, 0.11832933872938156, 0.11357944458723068, 0.17376458644866943, -0.038756102323532104, 0.0010167782893404365, 0.11071882396936417, -0.03402922675013542, 0.09231708198785782, -0.04518186300992966, 0.2761276960372925, 0.08499947935342789, 0.17402464151382446, -0.13994990289211273, 0.13161922991275787, -0.009773435071110725, -0.1821763962507248, -0.18666675686836243, 0.04146261513233185, 0.11701692640781403, 0.02452303282916546, -0.09664072096347809, -0.049462687224149704, -0.049622394144535065, -0.04557083174586296, -0.09751599282026291, -0.037484921514987946, 0.003683893708512187, 0.025642309337854385, -0.04665009304881096, -0.13707499206066132, 0.1748494803905487, 0.06565208733081818, -0.2320406287908554, -0.21659818291664124, 0.07380722463130951, 0.20566149055957794, -0.019426254555583, -0.0682370662689209, 0.1341252475976944, 0.03242715820670128, 0.056026894599199295, 0.10760712623596191, -0.06300502270460129, -0.04337282106280327, -0.07860571146011353, -0.011993693187832832, 0.0493670292198658, -0.07356976717710495, 0.1874881386756897, -0.10879025608301163, -0.08717920631170273, 0.13305310904979706, -0.14128433167934418, -0.13312073051929474, 0.1362067610025406, 0.05244949460029602, 0.15049271285533905, -0.043645501136779785, 0.10170584917068481, 0.1093788892030716, 0.12122482061386108, 0.05547273904085159, -0.14857839047908783, 0.05777719244360924, -0.011461444199085236, -0.013295433484017849, -0.010752428323030472, 0.1634262651205063, -0.03852934017777443, 0.020485524088144302, -0.04184852913022041, 0.2173461765050888, 0.08551370352506638, -0.10757581144571304, -0.15060536563396454, 0.08238180726766586, 0.08492567390203476, -0.1662805676460266, -0.07821281254291534, -0.04575280472636223, 0.1653938740491867, -0.037516575306653976, -0.09798368066549301, 0.14115554094314575, 0.020444845780730247, 0.0007299621356651187, 0.12460396438837051, 0.012881125323474407, -0.10504891723394394, -0.07791990041732788, -0.07587457448244095, -0.056114669889211655, 0.07323616743087769, -0.1654929369688034, -0.2722099721431732, -0.026041800156235695, 0.01374365296214819, 0.11409713327884674, -0.0028559251222759485, 0.10230101644992828, -0.0914703756570816, 0.10052908957004547, -0.06727700680494308, -0.0014654749538749456, -0.021743297576904297, 0.15802735090255737, 0.011092054657638073, -0.09745185822248459, -0.03607984632253647, 0.14854934811592102, -0.12012878805398941, 0.14041642844676971, -0.07348416745662689, 0.16204339265823364, 0.1439839005470276, 0.04769803211092949, -0.014092886820435524, -0.029671940952539444, -0.10589014738798141, 0.049033306539058685, -0.028409505262970924, -0.025011686608195305, -0.02366711013019085, 0.18948526680469513, 0.03533925861120224, 0.0513172447681427, 0.09892304986715317, 0.14686213433742523, -0.06403572112321854, -0.08143188059329987, 0.07168050110340118, -0.06028888747096062, 0.20348866283893585, 0.0458025299012661, 0.039143312722444534, 0.1206669956445694, 0.03737702965736389, -0.06555267423391342, -0.1370258778333664, -0.20950935781002045, 0.10897946357727051, -0.005635546054691076, -0.23160342872142792, 0.05378918722271919, -0.2880927622318268, -0.08377540111541748, 0.02933678589761257, -0.06242727115750313, -0.022880563512444496, 0.0475839339196682, -8.345550304511562e-05, 0.057287365198135376, -0.005690906196832657, -0.040951233357191086, 0.02954300306737423, 0.14504988491535187, -0.18346357345581055, -0.13004665076732635, -0.13173441588878632, 0.09954120963811874, 0.13724657893180847, 0.026747627183794975, -0.13406674563884735, 0.08015183359384537, 0.010036054067313671, 0.028447085991501808, -0.02406795509159565, -0.12879714369773865, 0.0263109989464283, -0.1362665444612503, -0.11809451878070831, 0.014542962424457073, -0.12965841591358185, 0.08157619833946228, -0.1410268247127533, 0.018970554694533348, 0.15399815142154694, 0.056931477040052414, 0.03167153522372246, 0.0902247279882431, -0.11097754538059235, -0.09968844056129456, 0.05895007401704788, 0.17068985104560852, 0.025803590193390846, -0.06557084619998932, -0.07174434512853622, 0.06618086248636246, -0.042209114879369736, 0.040810104459524155, 0.1499922126531601, -0.18347972631454468, 0.009678232483565807, -0.14674372971057892, -0.09169550240039825, -0.07673627138137817, 0.012325853109359741, 0.06408311426639557, -0.029275525361299515, 0.0047919354401528835, -0.026797205209732056, 